{"learner":{"attributes":{"scikit_learn":"{\"_estimator_type\": \"classifier\"}"},"feature_names":["flowacc_1","geol_1","lulc_1","slope_1","elev_1","distriver_1","twi_1","rain_1h","rain_3h","rain_6h","rain_72h"],"feature_types":["float","float","float","float","float","float","float","float","float","float","float"],"gradient_booster":{"model":{"cats":{"enc":[],"feature_segments":[],"sorted_idx":[]},"gbtree_model_param":{"num_parallel_tree":"1","num_trees":"152"},"iteration_indptr":[0,1,2,3,4,5,6,7,8,9,10,11,12,13,14,15,16,17,18,19,20,21,22,23,24,25,26,27,28,29,30,31,32,33,34,35,36,37,38,39,40,41,42,43,44,45,46,47,48,49,50,51,52,53,54,55,56,57,58,59,60,61,62,63,64,65,66,67,68,69,70,71,72,73,74,75,76,77,78,79,80,81,82,83,84,85,86,87,88,89,90,91,92,93,94,95,96,97,98,99,100,101,102,103,104,105,106,107,108,109,110,111,112,113,114,115,116,117,118,119,120,121,122,123,124,125,126,127,128,129,130,131,132,133,134,135,136,137,138,139,140,141,142,143,144,145,146,147,148,149,150,151,152],"tree_info":[0,0,0,0,0,0,0,0,0,0,0,0,0,0,0,0,0,0,0,0,0,0,0,0,0,0,0,0,0,0,0,0,0,0,0,0,0,0,0,0,0,0,0,0,0,0,0,0,0,0,0,0,0,0,0,0,0,0,0,0,0,0,0,0,0,0,0,0,0,0,0,0,0,0,0,0,0,0,0,0,0,0,0,0,0,0,0,0,0,0,0,0,0,0,0,0,0,0,0,0,0,0,0,0,0,0,0,0,0,0,0,0,0,0,0,0,0,0,0,0,0,0,0,0,0,0,0,0,0,0,0,0,0,0,0,0,0,0,0,0,0,0,0,0,0,0,0,0,0,0,0,0],"trees":[{"base_weights":[1.4408193E-2,9.564023E-1,-4.813989E-2,1.2601271E0,-1.957978E0,6.538853E-1,2.9105151E-2,-2.196465E0,1.387773E-2,9.2330205E-1,-3.6582989E-1,1.1730312E-2,-4.4713344E-2,1.1138722E0,-6.9733375E-1,-1.1155981E0,8.1912804E-1,1.1867979E0,9.191023E-2,-2.9619219E-2,1.3185138E-3,-1.3109584E0,1.2173143E-3,-3.5572413E-3,2.0587755E-2,2.276919E-2,-0E0,-9.447663E-3,8.42817E-3,9.009818E-3,-6.5812813E-3,-3.1967334E-2,-5.382283E-3],"categories":[],"categories_nodes":[],"categories_segments":[],"categories_sizes":[],"default_left":[0,0,0,0,0,0,0,0,0,0,0,0,0,0,0,0,0,0,0,0,0,0,0,0,0,0,0,0,0,0,0,0,0],"id":0,"left_children":[1,3,-1,5,7,9,-1,11,-1,13,15,-1,-1,17,19,21,23,25,27,-1,29,31,-1,-1,-1,-1,-1,-1,-1,-1,-1,-1,-1],"loss_changes":[1.5838307E3,4.2572986E2,0E0,7.606061E1,3.4223877E1,4.2171417E1,0E0,2.9877136E1,0E0,3.8965446E1,3.1263056E1,0E0,0E0,7.031479E0,9.524033E0,5.838606E0,5.0383234E0,3.991455E0,2.7745717E0,0E0,2.1705668E0,5.4373817E0,0E0,0E0,0E0,0E0,0E0,0E0,0E0,0E0,0E0,0E0,0E0],"parents":[2147483647,0,0,1,1,3,3,4,4,5,5,7,7,9,9,10,10,13,13,14,14,15,15,16,16,17,17,18,18,20,20,21,21],"right_children":[2,4,-1,6,8,10,-1,12,-1,14,16,-1,-1,18,20,22,24,26,28,-1,30,32,-1,-1,-1,-1,-1,-1,-1,-1,-1,-1,-1],"split_conditions":[1.2895836E0,-8.503623E-2,-4.813989E-2,-3.1647444E-1,-3.1647444E-1,-6.6400146E-1,2.9105151E-2,-9.7798926E-1,1.387773E-2,-3.2679668E-1,2.0425853E-1,1.1730312E-2,-4.4713344E-2,1.419632E0,1.3134375E0,1.3380675E0,-2.2835782E-1,-3.8793945E-1,-3.9653733E-1,-2.9619219E-2,-4.6266335E-1,-2.2987148E-1,1.2173143E-3,-3.5572413E-3,2.0587755E-2,2.276919E-2,-0E0,-9.447663E-3,8.42817E-3,9.009818E-3,-6.5812813E-3,-3.1967334E-2,-5.382283E-3],"split_indices":[2,3,0,7,7,2,0,5,0,3,2,0,0,6,6,5,6,3,3,0,7,2,0,0,0,0,0,0,0,0,0,0,0],"split_type":[0,0,0,0,0,0,0,0,0,0,0,0,0,0,0,0,0,0,0,0,0,0,0,0,0,0,0,0,0,0,0,0,0],"sum_hessian":[6.413078E2,4.7221594E2,1.6909186E2,4.2907993E2,4.3136024E1,1.4689284E2,2.8218707E2,4.0259167E1,2.8768585E0,1.1683051E2,3.006233E1,2.2316465E0,3.802752E1,1.0554192E2,1.128859E1,1.8802624E1,1.12597065E1,9.761043E1,7.9314938E0,3.9513652E0,7.337226E0,1.6330843E1,2.4717808E0,2.2278168E0,9.031889E0,9.419123E1,3.4191966E0,2.000066E0,5.9314275E0,3.4336767E0,3.903549E0,1.007034E1,6.260503E0],"tree_param":{"num_deleted":"0","num_feature":"11","num_nodes":"33","size_leaf_vector":"1"}},{"base_weights":[-1.1190776E-2,9.222703E-1,-4.695516E-2,1.2463249E0,-1.71674E0,1.343869E0,4.9126735E-1,-3.2089844E-1,-4.0859286E-2,1.4062554E0,4.23712E-1,-5.175195E-1,1.0630977E0,-1.114101E0,1.6122658E-2,2.6736094E-2,8.8103414E-1,-1.3912532E-2,6.5695596E-1,-2.041141E-2,3.0816013E-1,1.51777485E-5,1.1427679E0,-2.3744376E-2,-7.919753E-4,-0E0,1.0038646E0,8.399295E-1,-8.931665E-3,1.5762689E-2,-1.067492E-2,2.8529996E-1,2.3271956E-2,2.9933478E-3,2.1829631E-2,6.993618E-3,2.1858202E-2,-9.7565836E-4,1.169017E-2],"categories":[],"categories_nodes":[],"categories_segments":[],"categories_sizes":[],"default_left":[0,0,0,0,0,0,0,0,0,0,0,0,0,0,0,0,0,0,0,0,0,0,0,0,0,0,0,0,0,0,0,0,0,0,0,0,0,0,0],"id":1,"left_children":[1,3,-1,5,7,9,11,13,-1,15,17,19,21,23,-1,-1,25,-1,27,-1,29,-1,31,-1,-1,-1,33,35,-1,-1,-1,37,-1,-1,-1,-1,-1,-1,-1],"loss_changes":[1.4969299E3,4.0232364E2,0E0,2.7919312E1,3.146875E1,1.8480225E1,3.1684484E1,1.7938457E1,0E0,1.2365723E0,8.605404E0,1.0913483E1,2.2371216E0,1.0469494E0,0E0,0E0,3.1746254E0,0E0,6.2870455E0,0E0,5.9969645E0,0E0,1.1684723E0,0E0,0E0,0E0,2.1634388E0,1.505271E0,0E0,0E0,0E0,1.2652748E0,0E0,0E0,0E0,0E0,0E0,0E0,0E0],"parents":[2147483647,0,0,1,1,3,3,4,4,5,5,6,6,7,7,9,9,10,10,11,11,12,12,13,13,16,16,18,18,20,20,22,22,26,26,27,27,31,31],"right_children":[2,4,-1,6,8,10,12,14,-1,16,18,20,22,24,-1,-1,26,-1,28,-1,30,-1,32,-1,-1,-1,34,36,-1,-1,-1,38,-1,-1,-1,-1,-1,-1,-1],"split_conditions":[1.2895836E0,-1.4161709E-1,-4.695516E-2,-6.6400146E-1,5.884836E-2,-3.2679668E-1,-2.2987148E-1,2.0425853E-1,-4.0859286E-2,1.419632E0,1.2012368E0,9.4643307E-1,-7.3687315E-1,1.1059834E0,1.6122658E-2,2.6736094E-2,-4.092935E-1,-1.3912532E-2,-1.052129E-1,-2.041141E-2,-5.843522E-1,1.51777485E-5,-6.223476E-1,-2.3744376E-2,-7.919753E-4,-0E0,-1.131014E-1,-1.13364354E-1,-8.931665E-3,1.5762689E-2,-1.067492E-2,-2.2835782E-1,2.3271956E-2,2.9933478E-3,2.1829631E-2,6.993618E-3,2.1858202E-2,-9.7565836E-4,1.169017E-2],"split_indices":[2,3,0,2,3,3,2,2,0,6,6,1,6,6,0,0,3,0,0,0,3,0,3,0,0,0,0,0,0,0,0,6,0,0,0,0,0,0,0],"split_type":[0,0,0,0,0,0,0,0,0,0,0,0,0,0,0,0,0,0,0,0,0,0,0,0,0,0,0,0,0,0,0,0,0,0,0,0,0,0,0],"sum_hessian":[6.3258594E2,4.622644E2,1.7032153E2,4.130494E2,4.921498E1,3.634267E2,4.962272E1,1.3959987E1,3.5254993E1,3.3855136E2,2.4875338E1,1.7664637E1,3.1958082E1,8.757824E0,5.2021627E0,3.142464E2,2.430497E1,2.8205783E0,2.205476E1,1.0320932E1,7.343704E0,2.9147303E0,2.9043352E1,6.7217994E0,2.036024E0,2.9920878E0,2.1312881E1,1.9990192E1,2.064568E0,5.028453E0,2.3152518E0,4.870721E0,2.417263E1,4.9544296E0,1.6358452E1,1.1291305E1,8.698888E0,2.6323857E0,2.2383354E0],"tree_param":{"num_deleted":"0","num_feature":"11","num_nodes":"39","size_leaf_vector":"1"}},{"base_weights":[-2.7873766E-2,-1.2542675E0,2.8562259E-2,-7.3465097E-1,-1.844121E0,-1.429652E0,1.6492654E-1,-6.8930525E-1,-4.1637845E-2,6.6259605E-1,-1.6113609E0,5.927524E-1,-1.6376046E0,1.04779474E-1,-1.6685903E0,9.173374E-4,1.5311168E-2,-5.4255635E-1,-2.1429944E0,-1.0650455E0,8.7734956E-1,-9.930824E-3,-3.4587476E-2,3.4307507E-1,-1.4753673E-2,2.9767342E-3,-3.5742003E-2,3.7037092E-1,-9.82447E-1,-2.2939053E0,-1.1282772E0,1.9043862E-3,-2.802621E-2,-6.75491E-3,9.597633E-1,5.3821945E-1,-1.1558582E-2,-3.6398736E-3,1.662945E-2,-5.407949E-3,-3.2486238E-2,-8.239212E-3,-4.3420095E-2,-1.1847117E-3,-3.2614134E-2,6.502507E-4,1.916928E-2,1.532824E-2,-0E0],"categories":[],"categories_nodes":[],"categories_segments":[],"categories_sizes":[],"default_left":[0,0,0,0,0,0,0,0,0,0,0,0,0,0,0,0,0,0,0,0,0,0,0,0,0,0,0,0,0,0,0,0,0,0,0,0,0,0,0,0,0,0,0,0,0,0,0,0,0],"id":2,"left_children":[1,3,-1,5,7,9,11,13,-1,15,17,19,21,23,25,-1,-1,27,29,31,33,-1,-1,35,-1,-1,-1,37,39,41,43,-1,-1,-1,45,47,-1,-1,-1,-1,-1,-1,-1,-1,-1,-1,-1,-1,-1],"loss_changes":[1.2213765E3,1.0465332E2,0E0,1.22879036E2,6.990643E1,4.508969E1,6.849655E1,3.7111847E1,0E0,4.0330935E-1,5.3818604E1,3.6131657E1,3.530655E-1,6.2532277E0,1.1558876E1,0E0,0E0,1.6366138E1,1.997406E0,7.0578775E0,7.6478577E0,0E0,0E0,5.2513294E0,0E0,0E0,0E0,4.8630013E0,1.1590986E1,1.16882324E-1,7.983019E0,0E0,0E0,0E0,3.2564354E0,3.2343397E0,0E0,0E0,0E0,0E0,0E0,0E0,0E0,0E0,0E0,0E0,0E0,0E0,0E0],"parents":[2147483647,0,0,1,1,3,3,4,4,5,5,6,6,7,7,9,9,10,10,11,11,12,12,13,13,14,14,17,17,18,18,19,19,20,20,23,23,27,27,28,28,29,29,30,30,34,34,35,35],"right_children":[2,4,-1,6,8,10,12,14,-1,16,18,20,22,24,26,-1,-1,28,30,32,34,-1,-1,36,-1,-1,-1,38,40,42,44,-1,-1,-1,46,48,-1,-1,-1,-1,-1,-1,-1,-1,-1,-1,-1,-1,-1],"split_conditions":[-3.1647444E-1,-1.5623674E-1,2.8562259E-2,-2.9071298E-1,-7.792813E-1,-8.294541E-1,3.817743E-1,2.6963693E-1,-4.1637845E-2,9.4643307E-1,4.0224496E-1,-8.454988E-1,-7.9410684E-1,-6.8613124E-1,-9.7798926E-1,9.173374E-4,1.5311168E-2,-9.044363E-1,1.3380675E0,-6.1572874E-1,-6.8613124E-1,-9.930824E-3,-3.4587476E-2,-2.8658217E-1,-1.4753673E-2,2.9767342E-3,-3.5742003E-2,-5.534916E-1,-4.399167E-1,-9.7798926E-1,1.6822325E0,1.9043862E-3,-2.802621E-2,-6.75491E-3,-7.8352517E-1,1.3402525E0,-1.1558582E-2,-3.6398736E-3,1.662945E-2,-5.407949E-3,-3.2486238E-2,-8.239212E-3,-4.3420095E-2,-1.1847117E-3,-3.2614134E-2,6.502507E-4,1.916928E-2,1.532824E-2,-0E0],"split_indices":[7,4,0,4,5,4,6,4,0,1,1,6,5,1,5,0,0,5,5,7,1,0,0,9,0,0,0,4,4,5,5,0,0,0,6,6,0,0,0,0,0,0,0,0,0,0,0,0,0],"split_type":[0,0,0,0,0,0,0,0,0,0,0,0,0,0,0,0,0,0,0,0,0,0,0,0,0,0,0,0,0,0,0,0,0,0,0,0,0,0,0,0,0,0,0,0,0,0,0,0,0],"sum_hessian":[6.3196765E2,3.5469858E2,2.7726904E2,1.9200717E2,1.626914E2,1.0788037E2,8.412679E1,4.3567074E1,1.1912434E2,7.848551E0,1.0003182E2,6.957106E1,1.4555734E1,2.4926176E1,1.8640896E1,3.0490792E0,4.799472E0,3.522651E1,6.480531E1,8.914814E0,6.0656246E1,4.272918E0,1.0282816E1,2.1403645E1,3.5225325E0,2.0987728E0,1.6542124E1,1.1145646E1,2.4080864E1,5.324446E1,1.1560853E1,2.5980601E0,6.316754E0,2.818805E0,5.783744E1,1.9202196E1,2.2014477E0,5.551107E0,5.594539E0,1.481002E1,9.2708435E0,2.0964308E0,5.114803E1,5.6186423E0,5.9422107E0,4.9839716E0,5.2853466E1,1.1548875E1,7.6533217E0],"tree_param":{"num_deleted":"0","num_feature":"11","num_nodes":"49","size_leaf_vector":"1"}},{"base_weights":[4.6270867E-3,8.737465E-1,-2.1482477E0,-6.5134935E-2,2.8251821E-2,-2.3254225E0,2.1298734E-2,6.448678E-1,-6.9293994E-1,1.0090076E-2,-4.431837E-2,-9.954439E-2,8.914287E-1,2.4552402E-1,-1.5960023E0,-3.2481593E-1,1.9817847E-1,1.304855E-1,1.0611991E0,5.0092393E-1,-1.9361563E-2,-5.042314E-1,-3.324925E-2,-0E0,-1.3357858E-2,-5.7324576E-3,9.616924E-3,-4.4773787E-1,1.7992307E-2,-2.3980197E-3,2.1648753E-2,-4.880351E-1,6.7046976E-1,8.01007E-3,-9.138385E-1,1.1825905E-2,-6.119037E-3,2.3674867E-3,-2.0193115E-2,-1.42589845E-2,-0E0,1.4523286E-2,-8.949145E-3,-2.0629678E-2,-1.4909661E-3],"categories":[],"categories_nodes":[],"categories_segments":[],"categories_sizes":[],"default_left":[0,0,0,0,0,0,0,0,0,0,0,0,0,0,0,0,0,0,0,0,0,0,0,0,0,0,0,0,0,0,0,0,0,0,0,0,0,0,0,0,0,0,0,0,0],"id":3,"left_children":[1,3,5,7,-1,9,-1,11,13,-1,-1,15,17,19,21,23,25,27,29,31,-1,33,-1,35,-1,-1,-1,37,-1,-1,-1,39,41,-1,43,-1,-1,-1,-1,-1,-1,-1,-1,-1,-1],"loss_changes":[1.173656E3,2.7228943E2,1.1239563E2,8.324029E1,0E0,3.2928894E1,0E0,1.6700424E1,8.597948E1,0E0,0E0,1.7941798E0,7.54245E0,1.7557638E1,7.229477E0,2.2384E0,2.19534E0,8.868304E0,7.517544E0,8.310632E0,0E0,5.653147E0,0E0,2.7797081E0,0E0,0E0,0E0,4.724802E0,0E0,0E0,0E0,1.3015785E0,6.090975E0,0E0,5.9097624E-1,0E0,0E0,0E0,0E0,0E0,0E0,0E0,0E0,0E0,0E0],"parents":[2147483647,0,0,1,1,2,2,3,3,5,5,7,7,8,8,11,11,12,12,13,13,14,14,15,15,16,16,17,17,18,18,19,19,21,21,23,23,27,27,31,31,32,32,34,34],"right_children":[2,4,6,8,-1,10,-1,12,14,-1,-1,16,18,20,22,24,26,28,30,32,-1,34,-1,36,-1,-1,-1,38,-1,-1,-1,40,42,-1,44,-1,-1,-1,-1,-1,-1,-1,-1,-1,-1],"split_conditions":[-2.0846054E-1,-3.1647444E-1,-3.1647444E-1,-5.683789E-1,2.8251821E-2,-9.7798926E-1,2.1298734E-2,-1.136273E-1,-6.8174046E-1,1.0090076E-2,-4.431837E-2,6.237496E-1,-6.464601E-1,-2.9018185E-1,-5.2411956E-1,-4.631184E-1,-8.5041374E-1,1.211655E0,-9.3253106E-1,-9.7798926E-1,-1.9361563E-2,-6.2178725E-1,-3.324925E-2,-8.155233E-1,-1.3357858E-2,-5.7324576E-3,9.616924E-3,-1.0962935E-2,1.7992307E-2,-2.3980197E-3,2.1648753E-2,-4.5593613E-1,-2.3698363E-2,8.01007E-3,-3.9962894E-1,1.1825905E-2,-6.119037E-3,2.3674867E-3,-2.0193115E-2,-1.42589845E-2,-0E0,1.4523286E-2,-8.949145E-3,-2.0629678E-2,-1.4909661E-3],"split_indices":[3,7,7,3,0,5,0,0,5,0,0,5,3,3,3,5,6,5,5,5,0,8,0,6,0,0,0,5,0,0,0,8,0,0,7,0,0,0,0,0,0,0,0,0,0],"split_type":[0,0,0,0,0,0,0,0,0,0,0,0,0,0,0,0,0,0,0,0,0,0,0,0,0,0,0,0,0,0,0,0,0,0,0,0,0,0,0,0,0,0,0,0,0],"sum_hessian":[6.2278375E2,4.4489532E2,1.7788841E2,1.8181453E2,2.6308078E2,1.6965518E2,8.233229E0,8.485214E1,9.6962395E1,2.7689233E0,1.6688626E2,2.0880281E1,6.397186E1,4.8098415E1,4.886398E1,1.288243E1,7.997853E0,1.3083565E1,5.0888298E1,4.1752243E1,6.34617E0,9.091383E0,3.9772594E1,7.8459535E0,5.036476E0,2.4118433E0,5.5860095E0,7.9929304E0,5.090634E0,3.556012E0,4.7332283E1,4.9357376E0,3.6816505E1,2.294745E0,6.7966375E0,2.3071475E0,5.5388064E0,4.744738E0,3.2481923E0,2.7657628E0,2.1699746E0,3.476835E1,2.0481572E0,4.28307E0,2.513568E0],"tree_param":{"num_deleted":"0","num_feature":"11","num_nodes":"45","size_leaf_vector":"1"}},{"base_weights":[-4.650114E-3,8.797371E-1,-2.093101E0,-0E0,2.7970651E-2,-2.2598584E0,2.1143466E-2,6.9790703E-1,-6.095277E-1,8.237499E-3,-4.335412E-2,-1.3685792E-2,7.727141E-1,2.2483443E-1,-1.4747837E0,-3.9011645E-3,8.32012E-1,3.998079E-1,-7.230367E-1,-3.3389622E-1,-3.1779233E-2,-0E0,8.687912E-1,-1.0011647E-2,5.610195E-1,-0E0,-1.9633107E-2,6.075466E-3,-7.6839495E-1,8.672845E-3,1.8097917E-2,1.0797291E-3,1.2816034E-2,-1.0537232E-3,-1.9595923E-2],"categories":[],"categories_nodes":[],"categories_segments":[],"categories_sizes":[],"default_left":[0,0,0,0,0,0,0,0,0,0,0,0,0,0,0,0,0,0,0,0,0,0,0,0,0,0,0,0,0,0,0,0,0,0,0],"id":4,"left_children":[1,3,5,7,-1,9,-1,11,13,-1,-1,-1,15,17,19,-1,21,23,25,27,-1,-1,29,-1,31,-1,-1,-1,33,-1,-1,-1,-1,-1,-1],"loss_changes":[1.1752534E3,2.4520972E2,1.0891522E2,8.0981606E1,0E0,3.8788574E1,0E0,1.0932232E1,7.483086E1,0E0,0E0,0E0,5.799637E0,9.377219E0,1.0920448E1,0E0,2.9627075E0,7.887775E0,2.2585716E0,4.329857E0,0E0,0E0,1.3868141E0,0E0,2.174221E0,0E0,0E0,0E0,9.373293E-1,0E0,0E0,0E0,0E0,0E0,0E0],"parents":[2147483647,0,0,1,1,2,2,3,3,5,5,7,7,8,8,12,12,13,13,14,14,16,16,17,17,18,18,19,19,22,22,24,24,28,28],"right_children":[2,4,6,8,-1,10,-1,12,14,-1,-1,-1,16,18,20,-1,22,24,26,28,-1,-1,30,-1,32,-1,-1,-1,34,-1,-1,-1,-1,-1,-1],"split_conditions":[-2.0846054E-1,-3.1647444E-1,-3.1647444E-1,-5.712428E-1,2.7970651E-2,-9.7798926E-1,2.1143466E-2,-6.617826E-1,-6.8174046E-1,8.237499E-3,-4.335412E-2,-1.3685792E-2,-9.3253106E-1,-2.9018185E-1,-5.292863E-1,-3.9011645E-3,-7.871225E-1,-9.7798926E-1,-6.579736E-1,-2.9035294E-1,-3.1779233E-2,-0E0,-6.457703E-1,-1.0011647E-2,1.4950224E0,-0E0,-1.9633107E-2,6.075466E-3,2.6659684E0,8.672845E-3,1.8097917E-2,1.0797291E-3,1.2816034E-2,-1.0537232E-3,-1.9595923E-2],"split_indices":[3,7,7,3,0,5,0,3,5,0,0,0,5,3,3,0,8,5,9,5,0,0,3,0,10,0,0,0,10,0,0,0,0,0,0],"split_type":[0,0,0,0,0,0,0,0,0,0,0,0,0,0,0,0,0,0,0,0,0,0,0,0,0,0,0,0,0,0,0,0,0,0,0],"sum_hessian":[6.310652E2,4.4412097E2,1.8694424E2,1.8548439E2,2.5863657E2,1.7863431E2,8.309931E0,8.639419E1,9.9090195E1,4.0898156E0,1.745445E2,2.8294055E0,8.356478E1,5.1016277E1,4.807392E1,3.8419275E0,7.9722855E1,4.477528E1,6.2409983E0,9.62466E0,3.844926E1,2.8833258E0,7.683953E1,5.197598E0,3.9577682E1,2.5800738E0,3.6609242E0,3.5218983E0,6.102761E0,1.9746841E1,5.709269E1,9.689507E0,2.9888176E1,3.169738E0,2.9330227E0],"tree_param":{"num_deleted":"0","num_feature":"11","num_nodes":"35","size_leaf_vector":"1"}},{"base_weights":[-6.2188256E-4,8.6067003E-1,-2.0266328E0,-3.5740692E-2,2.7710123E-2,-2.1672647E0,2.0134851E-2,6.051986E-1,-6.159861E-1,1.0452863E-2,-4.1897986E-2,-3.2363993E-1,1.022952E0,2.2296631E-1,-1.4100021E0,1.5571226E-2,-5.961128E-1,7.500694E-3,2.1586947E-2,5.3044236E-1,-2.5153965E-2,9.370425E-3,-1.5459521E0,-2.1684444E-2,-7.85124E-2,1.548402E-2,-1.8994935E-2,7.214865E-1,-1.4146561E-2,-6.631005E-1,-3.3816215E-2,7.875866E-3,-1.7977359E-2,-4.5763818E-3,1.6184991E-2,5.5225864E-3,-2.0607691E-2],"categories":[],"categories_nodes":[],"categories_segments":[],"categories_sizes":[],"default_left":[0,0,0,0,0,0,0,0,0,0,0,0,0,0,0,0,0,0,0,0,0,0,0,0,0,0,0,0,0,0,0,0,0,0,0,0,0],"id":5,"left_children":[1,3,5,7,-1,9,-1,11,13,-1,-1,15,17,19,21,-1,23,25,-1,27,-1,-1,29,-1,31,-1,-1,33,-1,35,-1,-1,-1,-1,-1,-1,-1],"loss_changes":[1.1077836E3,2.5215146E2,8.919177E1,6.993477E1,0E0,4.692218E1,0E0,3.5722027E1,6.747089E1,0E0,0E0,1.0246307E1,8.035934E0,2.5450552E1,1.5931938E1,0E0,6.5182343E0,1.0805771E1,0E0,1.212356E1,0E0,0E0,7.428543E0,0E0,8.636219E0,0E0,0E0,6.6284714E0,0E0,8.0793495E0,0E0,0E0,0E0,0E0,0E0,0E0,0E0],"parents":[2147483647,0,0,1,1,2,2,3,3,5,5,7,7,8,8,11,11,12,12,13,13,14,14,16,16,17,17,19,19,22,22,24,24,27,27,29,29],"right_children":[2,4,6,8,-1,10,-1,12,14,-1,-1,16,18,20,22,-1,24,26,-1,28,-1,-1,30,-1,32,-1,-1,34,-1,36,-1,-1,-1,-1,-1,-1,-1],"split_conditions":[-2.1534751E-1,-3.1647444E-1,-3.1647444E-1,-5.712428E-1,2.7710123E-2,-9.7798926E-1,2.0134851E-2,-2.9071298E-1,-6.984024E-1,1.0452863E-2,-4.1897986E-2,-8.315764E-1,-6.8613124E-1,4.0224496E-1,-8.0372936E-1,1.5571226E-2,-5.3593445E-1,1.7124043E-1,2.1586947E-2,-2.9018185E-1,-2.5153965E-2,9.370425E-3,-4.8096368E-1,-2.1684444E-2,-4.399167E-1,1.548402E-2,-1.8994935E-2,-9.7798926E-1,-1.4146561E-2,-2.9035294E-1,-3.3816215E-2,7.875866E-3,-1.7977359E-2,-4.5763818E-3,1.6184991E-2,5.5225864E-3,-2.0607691E-2],"split_indices":[3,7,7,3,0,5,0,4,5,0,0,4,1,1,4,0,4,5,0,3,0,0,3,0,4,0,0,5,0,5,0,0,0,0,0,0,0],"split_type":[0,0,0,0,0,0,0,0,0,0,0,0,0,0,0,0,0,0,0,0,0,0,0,0,0,0,0,0,0,0,0,0,0,0,0,0,0],"sum_hessian":[6.2958575E2,4.42556E2,1.8702972E2,1.831623E2,2.5939374E2,1.7982233E2,7.2074E0,8.6499344E1,9.666294E1,4.8821864E0,1.7494014E2,2.6568838E1,5.9930508E1,4.749211E1,4.9170834E1,3.6825964E0,2.2886242E1,7.988355E0,5.194215E1,4.1399025E1,6.0930853E0,2.5384095E0,4.6632423E1,8.901541E0,1.39847E1,5.0069447E0,2.9814107E0,3.7393597E1,4.0054297E0,1.3483687E1,3.3148735E1,9.3252325E0,4.659468E0,4.2526383E0,3.3140957E1,4.110712E0,9.372975E0],"tree_param":{"num_deleted":"0","num_feature":"11","num_nodes":"37","size_leaf_vector":"1"}},{"base_weights":[7.408486E-3,8.379003E-1,-2.0279486E0,6.451368E-2,2.7436515E-2,-3.9797395E-2,1.8478118E-2,7.206676E-1,-5.324984E-1,-7.463824E-2,8.65868E-1,-5.2306275E-3,-1.4316732E0,-1.0827648E-2,1.4974241E-1,-6.0121603E-3,9.247299E-1,3.5955983E-1,-8.839309E-1,-3.8672873E-1,-3.0367864E-2,4.1364035E-1,-2.2281078E-3,2.0153893E-2,2.1747683E-1,4.8021246E-2,8.058275E-1,-2.7285805E-1,-3.1483755E-2,-0E0,-1.2645868E-2,-0E0,1.1844735E-2,1.4063739E-2,-5.9754564E-3,-9.320377E-3,9.109097E-3,-0E0,1.8929427E-2,-1.09675685E-2,1.0027569E-2],"categories":[],"categories_nodes":[],"categories_segments":[],"categories_sizes":[],"default_left":[0,0,0,0,0,0,0,0,0,0,0,0,0,0,0,0,0,0,0,0,0,0,0,0,0,0,0,0,0,0,0,0,0,0,0,0,0,0,0,0,0],"id":6,"left_children":[1,3,5,7,-1,-1,-1,9,11,13,15,17,19,-1,21,-1,23,25,27,29,-1,31,-1,-1,33,35,37,39,-1,-1,-1,-1,-1,-1,-1,-1,-1,-1,-1,-1,-1],"loss_changes":[1.077431E3,2.2237222E2,6.859656E1,8.242919E1,0E0,0E0,0E0,1.222443E1,5.1153732E1,2.4167774E0,7.084381E0,2.4161997E1,5.7343674E0,0E0,1.2183361E0,0E0,7.991005E0,6.6539855E0,8.752136E0,1.1603868E0,0E0,9.8843694E-1,0E0,0E0,6.3458405E0,8.858657E0,2.9551067E0,4.926628E0,0E0,0E0,0E0,0E0,0E0,0E0,0E0,0E0,0E0,0E0,0E0,0E0,0E0],"parents":[2147483647,0,0,1,1,2,2,3,3,7,7,8,8,9,9,10,10,11,11,12,12,14,14,16,16,17,17,18,18,19,19,21,21,24,24,25,25,26,26,27,27],"right_children":[2,4,6,8,-1,-1,-1,10,12,14,16,18,20,-1,22,-1,24,26,28,30,-1,32,-1,-1,34,36,38,40,-1,-1,-1,-1,-1,-1,-1,-1,-1,-1,-1,-1,-1],"split_conditions":[-1.7768593E-1,-2.645416E-1,-2.645416E-1,-5.712428E-1,2.7436515E-2,-3.9797395E-2,1.8478118E-2,-1.1389025E-1,4.0224496E-1,-6.436975E-1,-8.5578585E-1,-3.3766443E-1,-5.292863E-1,-1.0827648E-2,-6.1797166E-1,-6.0121603E-3,-8.601754E-2,-6.8613124E-1,1.8967896E0,2.8210785E0,-3.0367864E-2,-4.711629E-1,-2.2281078E-3,2.0153893E-2,4.0224496E-1,-4.3054107E-1,-5.351252E-1,1.8247399E0,-3.1483755E-2,-0E0,-1.2645868E-2,-0E0,1.1844735E-2,1.4063739E-2,-5.9754564E-3,-9.320377E-3,9.109097E-3,-0E0,1.8929427E-2,-1.09675685E-2,1.0027569E-2],"split_indices":[3,8,8,3,0,0,0,0,1,3,6,3,3,0,3,0,0,1,10,10,0,8,0,0,1,3,3,6,0,0,0,0,0,0,0,0,0,0,0,0,0],"split_type":[0,0,0,0,0,0,0,0,0,0,0,0,0,0,0,0,0,0,0,0,0,0,0,0,0,0,0,0,0,0,0,0,0,0,0,0,0,0,0,0,0],"sum_hessian":[6.329414E2,4.507422E2,1.8219923E2,2.0532915E2,2.4541304E2,1.7653119E2,5.6680493E0,9.804781E1,1.07281334E2,1.4695628E1,8.335219E1,6.95784E1,3.7702938E1,4.1171713E0,1.0578457E1,2.9458542E0,8.0406334E1,4.970973E1,1.9868673E1,7.7155724E0,2.9987364E1,5.789049E0,4.7894073E0,6.3898094E1,1.6508236E1,3.1633375E1,1.8076351E1,1.3586028E1,6.2826443E0,4.3572288E0,3.3583434E0,2.318578E0,3.4704714E0,8.307501E0,8.200735E0,1.33652115E1,1.8268164E1,4.8083835E0,1.3267968E1,1.0769943E1,2.816085E0],"tree_param":{"num_deleted":"0","num_feature":"11","num_nodes":"41","size_leaf_vector":"1"}},{"base_weights":[-9.131521E-4,-1.0894299E0,2.7234806E-2,-8.213703E-1,-3.669814E-2,-2.1721439E-1,-1.2959379E0,-7.04536E-1,3.9151633E-1,1.6156811E-2,-1.4130268E0,-7.962953E-1,2.436892E-1,-3.124794E-1,1.0373164E0,-3.620872E-2,-9.4330966E-1,-1.1241168E0,-3.083849E-1,-0E0,7.429169E-3,2.3865983E-1,-8.099771E-1,-3.043469E-3,2.2217413E-2,2.1771637E-1,-3.5637613E-2,-2.2285836E-2,-0E0,-0E0,-1.19233E-2,-4.964615E-3,1.0845829E-2,-2.17257E-2,-4.778084E-3,1.2669648E-2,-5.2446863E-3],"categories":[],"categories_nodes":[],"categories_segments":[],"categories_sizes":[],"default_left":[0,0,0,0,0,0,0,0,0,0,0,0,0,0,0,0,0,0,0,0,0,0,0,0,0,0,0,0,0,0,0,0,0,0,0,0,0],"id":7,"left_children":[1,3,-1,5,-1,7,9,11,13,-1,15,17,19,21,23,-1,25,27,29,-1,-1,31,33,-1,-1,35,-1,-1,-1,-1,-1,-1,-1,-1,-1,-1,-1],"loss_changes":[1.0025523E3,7.997043E1,0E0,7.917239E1,0E0,3.863475E1,4.302307E1,7.0723724E0,2.7424341E1,0E0,3.1449677E1,9.018299E0,4.1323254E-1,8.761144E0,6.960907E0,0E0,9.811953E1,3.1484833E0,3.108021E0,0E0,0E0,3.193092E0,1.6777697E0,0E0,0E0,1.0131602E1,0E0,0E0,0E0,0E0,0E0,0E0,0E0,0E0,0E0,0E0,0E0],"parents":[2147483647,0,0,1,1,3,3,5,5,6,6,7,7,8,8,10,10,11,11,12,12,13,13,14,14,16,16,17,17,18,18,21,21,22,22,25,25],"right_children":[2,4,-1,6,-1,8,10,12,14,-1,16,18,20,22,24,-1,26,28,30,-1,-1,32,34,-1,-1,36,-1,-1,-1,-1,-1,-1,-1,-1,-1,-1,-1],"split_conditions":[-3.1647444E-1,1.826229E-1,2.7234806E-2,4.0224496E-1,-3.669814E-2,-1.1283845E-1,-8.294541E-1,1.3355285E-1,-6.8613124E-1,1.6156811E-2,-2.9482895E-1,-6.8613124E-1,1.6828136E-1,-4.6266335E-1,-7.744031E-1,-3.620872E-2,-2.1598254E-1,-1.131014E-1,2.1922183E0,-0E0,7.429169E-3,-6.1572874E-1,-1.0086416E-1,-3.043469E-3,2.2217413E-2,-2.685254E-1,-3.5637613E-2,-2.2285836E-2,-0E0,-0E0,-1.19233E-2,-4.964615E-3,1.0845829E-2,-2.17257E-2,-4.778084E-3,1.2669648E-2,-5.2446863E-3],"split_indices":[7,4,0,1,0,0,4,4,1,0,4,1,4,7,4,0,4,0,10,0,0,7,4,0,0,4,0,0,0,0,0,0,0,0,0,0,0],"split_type":[0,0,0,0,0,0,0,0,0,0,0,0,0,0,0,0,0,0,0,0,0,0,0,0,0,0,0,0,0,0,0,0,0,0,0,0,0],"sum_hessian":[6.2366876E2,3.584696E2,2.651992E2,2.7919064E2,7.927895E1,1.24928185E2,1.5426245E2,6.9706085E1,5.52221E1,6.8572683E0,1.4740518E2,6.447508E1,5.231002E0,2.6586113E1,2.8635984E1,6.4794174E1,8.2611015E1,3.594932E1,2.8525764E1,2.2233727E0,3.0076292E0,1.2653461E1,1.39326515E1,2.8791716E0,2.5756813E1,3.826003E1,4.4350986E1,3.3518948E1,2.4303725E0,1.6239468E1,1.2286297E1,4.6607003E0,7.992761E0,6.167914E0,7.764737E0,1.9997501E1,1.8262527E1],"tree_param":{"num_deleted":"0","num_feature":"11","num_nodes":"37","size_leaf_vector":"1"}},{"base_weights":[-1.2859467E-2,8.64828E-1,-4.0692497E-2,3.686986E-2,2.698425E-2,5.6601965E-1,-1.0911609E0,-2.3902136E-1,8.475585E-1,1.4357814E-2,-1.3266909E0,2.9998326E-1,-9.183116E-1,2.3388766E-2,1.6422288E-1,-0E0,-1.7346575E0,5.8822334E-1,-9.271906E-3,-1.2839074E0,3.133195E-3,6.137808E-1,-1.834776E-2,-1.6921232E-2,3.7509242E-1,-6.872149E-3,-3.3287752E-2,1.3288199E-2,-2.4496074E-4,-2.954783E-2,-3.9339503E-3,1.3776252E-2,-6.041703E-3,1.3064648E-2,-1.4488301E-3],"categories":[],"categories_nodes":[],"categories_segments":[],"categories_sizes":[],"default_left":[0,0,0,0,0,0,0,0,0,0,0,0,0,0,0,0,0,0,0,0,0,0,0,0,0,0,0,0,0,0,0,0,0,0,0],"id":8,"left_children":[1,3,-1,5,-1,7,9,11,13,-1,15,17,19,-1,21,23,25,27,-1,29,-1,31,-1,-1,33,-1,-1,-1,-1,-1,-1,-1,-1,-1,-1],"loss_changes":[1.1854486E3,2.1356488E2,0E0,1.1229346E2,0E0,3.0008392E1,2.910807E1,1.3733858E1,2.569329E1,0E0,2.8562378E1,5.5290666E0,7.707761E0,0E0,2.169199E1,6.3862143E0,2.616272E-1,1.7167339E0,0E0,2.3747272E0,0E0,4.442192E0,0E0,0E0,2.326685E0,0E0,0E0,0E0,0E0,0E0,0E0,0E0,0E0,0E0,0E0],"parents":[2147483647,0,0,1,1,3,3,5,5,6,6,7,7,8,8,10,10,11,11,12,12,14,14,15,15,16,16,17,17,19,19,21,21,24,24],"right_children":[2,4,-1,6,-1,8,10,12,14,-1,16,18,20,-1,22,24,26,28,-1,30,-1,32,-1,-1,34,-1,-1,-1,-1,-1,-1,-1,-1,-1,-1],"split_conditions":[1.2895836E0,-3.1647444E-1,-4.0692497E-2,-6.6400146E-1,2.698425E-2,-2.9482895E-1,-8.315764E-1,-4.02683E-1,-1.5623674E-1,1.4357814E-2,-9.412128E-1,-4.2383873E-1,1.3227845E0,2.3388766E-2,-4.02683E-1,2.0425853E-1,-9.1074616E-1,-3.739754E-1,-9.271906E-3,-4.0505937E-1,3.133195E-3,1.826229E-1,-1.834776E-2,-1.6921232E-2,-1.125755E-1,-6.872149E-3,-3.3287752E-2,1.3288199E-2,-2.4496074E-4,-2.954783E-2,-3.9339503E-3,1.3776252E-2,-6.041703E-3,1.3064648E-2,-1.4488301E-3],"split_indices":[2,7,0,2,0,4,4,5,4,0,5,4,5,0,5,2,5,8,0,8,0,4,0,0,0,0,0,0,0,0,0,0,0,0,0],"split_type":[0,0,0,0,0,0,0,0,0,0,0,0,0,0,0,0,0,0,0,0,0,0,0,0,0,0,0,0,0,0,0,0,0,0,0],"sum_hessian":[6.155393E2,4.3945624E2,1.7608305E2,1.8369945E2,2.5575679E2,1.26221214E2,5.7478226E1,3.225972E1,9.3961494E1,5.548952E0,5.192927E1,1.8262304E1,1.3997416E1,5.6893147E1,3.706835E1,1.3070325E1,3.8858948E1,1.4429628E1,3.832676E0,1.0548238E1,3.449178E0,2.7839298E1,9.229053E0,3.1885693E0,9.881756E0,2.6629984E0,3.619595E1,1.2350475E1,2.079153E0,6.872997E0,3.6752412E0,2.5519825E1,2.319473E0,5.7093096E0,4.1724463E0],"tree_param":{"num_deleted":"0","num_feature":"11","num_nodes":"35","size_leaf_vector":"1"}},{"base_weights":[-3.006333E-3,7.9764223E-1,-1.8836396E0,-6.332429E-2,2.6753288E-2,-2.003329E0,1.8984744E-2,6.311138E-1,-6.662671E-1,9.3657365E-3,-2.0737953E0,-1.2614463E-1,8.097481E-1,1.2534161E-1,-1.4343174E0,-1.0143933E0,-3.933318E-2,-5.3450274E-1,2.0810024E-1,9.810519E-1,-1.3577114E-2,3.1814778E-1,-7.9020447E-1,-3.5143143E-1,-3.0285295E-2,1.1553653E-3,-2.8366715E-2,-0E0,-1.786283E-2,8.126696E-3,-2.5800418E-3,1.9914192E-1,1.9668115E-2,-1.2283337E-2,3.519061E-1,-5.1141423E-1,4.6743095E-1,-6.978449E-4,-1.951977E-2,2.5103197E-1,-1.7023522E-2,-1.6505889E-3,8.872296E-3,1.2907926E-2,-4.1280384E-3,-0E0,-1.4821147E-2,1.0984479E-2,-0E0,9.250413E-3,-5.878045E-4],"categories":[],"categories_nodes":[],"categories_segments":[],"categories_sizes":[],"default_left":[0,0,0,0,0,0,0,0,0,0,0,0,0,0,0,0,0,0,0,0,0,0,0,0,0,0,0,0,0,0,0,0,0,0,0,0,0,0,0,0,0,0,0,0,0,0,0,0,0,0,0],"id":9,"left_children":[1,3,5,7,-1,9,-1,11,13,-1,15,17,19,21,23,25,-1,27,29,31,33,35,37,39,-1,-1,-1,-1,-1,-1,-1,41,-1,-1,43,45,47,-1,-1,49,-1,-1,-1,-1,-1,-1,-1,-1,-1,-1,-1],"loss_changes":[9.635893E2,2.4855246E2,7.2015686E1,8.198711E1,0E0,3.607794E1,0E0,1.2910366E1,6.511232E1,0E0,9.060669E-1,3.0246758E0,1.10783E1,9.799373E0,8.80497E0,7.707567E0,0E0,1.9184952E0,1.2187055E0,2.4790154E0,4.199627E0,6.3206096E0,1.1218996E0,4.948751E0,0E0,0E0,0E0,0E0,0E0,0E0,0E0,1.0698011E0,0E0,0E0,2.6828113E0,1.4783854E0,2.235815E0,0E0,0E0,8.059623E-1,0E0,0E0,0E0,0E0,0E0,0E0,0E0,0E0,0E0,0E0,0E0],"parents":[2147483647,0,0,1,1,2,2,3,3,5,5,7,7,8,8,10,10,11,11,12,12,13,13,14,14,15,15,17,17,18,18,19,19,20,20,21,21,22,22,23,23,31,31,34,34,35,35,36,36,39,39],"right_children":[2,4,6,8,-1,10,-1,12,14,-1,16,18,20,22,24,26,-1,28,30,32,34,36,38,40,-1,-1,-1,-1,-1,-1,-1,42,-1,-1,44,46,48,-1,-1,50,-1,-1,-1,-1,-1,-1,-1,-1,-1,-1,-1],"split_conditions":[-1.7768593E-1,-3.1647444E-1,-3.1647444E-1,-5.712428E-1,2.6753288E-2,-9.7798926E-1,1.8984744E-2,-1.1389025E-1,-6.8174046E-1,9.3657365E-3,-9.412128E-1,-4.3694022E-1,-8.4965736E-2,-2.9018185E-1,-5.331996E-1,2.7364565E-2,-3.933318E-2,-6.216917E-1,-3.596084E-1,-7.3569256E-1,-6.457703E-1,-9.7798926E-1,-6.579736E-1,-1.6174147E-1,-3.0285295E-2,1.1553653E-3,-2.8366715E-2,-0E0,-1.786283E-2,8.126696E-3,-2.5800418E-3,-1.1126075E-1,1.9668115E-2,-1.2283337E-2,-6.189775E-1,-1.136273E-1,-4.562227E-1,-6.978449E-4,-1.951977E-2,-1.13364354E-1,-1.7023522E-2,-1.6505889E-3,8.872296E-3,1.2907926E-2,-4.1280384E-3,-0E0,-1.4821147E-2,1.0984479E-2,-0E0,9.250413E-3,-5.878045E-4],"split_indices":[3,7,7,3,0,5,0,0,5,0,5,7,0,3,3,3,0,8,8,9,3,5,9,5,0,0,0,0,0,0,0,0,0,0,3,0,8,0,0,0,0,0,0,0,0,0,0,0,0,0,0],"split_type":[0,0,0,0,0,0,0,0,0,0,0,0,0,0,0,0,0,0,0,0,0,0,0,0,0,0,0,0,0,0,0,0,0,0,0,0,0,0,0,0,0,0,0,0,0,0,0,0,0,0,0],"sum_hessian":[6.3467084E2,4.4591678E2,1.8875406E2,1.9088983E2,2.5502695E2,1.8220255E2,6.551522E0,8.820881E1,1.02681015E2,4.345023E0,1.7785751E2,1.6345829E1,7.1862976E1,5.1190388E1,5.149063E1,9.594564E0,1.6826295E2,7.491934E0,8.853895E0,5.9690598E1,1.2172381E1,4.4124863E1,7.065523E0,9.339007E0,4.2151627E1,3.4073348E0,6.1872296E0,4.7725368E0,2.7193968E0,5.9713745E0,2.882521E0,6.8003454E0,5.289025E1,4.2646885E0,7.9076934E0,5.2308426E0,3.889402E1,3.1052299E0,3.9602933E0,4.6655273E0,4.67348E0,3.1168835E0,3.6834621E0,5.2745275E0,2.6331658E0,2.1811829E0,3.0496595E0,2.984516E1,9.048862E0,2.6140983E0,2.051429E0],"tree_param":{"num_deleted":"0","num_feature":"11","num_nodes":"51","size_leaf_vector":"1"}},{"base_weights":[-1.9775327E-2,8.4005755E-1,-3.8964137E-2,1.1067014E0,-3.386064E-2,1.2248955E0,3.8234168E-1,1.2699108E0,-3.386436E-1,-5.337817E-1,8.12636E-1,2.4246242E-2,6.2335587E-1,-1.9906182E-2,1.2906818E-1,1.363166E-1,-1.498537E-2,2.5569037E-1,1.1043886E0,-1.22716196E-1,9.445166E-1,9.271618E-3,-5.0362465E-3,-0E0,4.9257595E-3,1.9867538E-2,-1.7508943E-2,-0E0,2.276288E-2,-1.3286717E-2,8.965415E-3,2.0829016E-2,-0E0],"categories":[],"categories_nodes":[],"categories_segments":[],"categories_sizes":[],"default_left":[0,0,0,0,0,0,0,0,0,0,0,0,0,0,0,0,0,0,0,0,0,0,0,0,0,0,0,0,0,0,0,0,0],"id":10,"left_children":[1,3,-1,5,-1,7,9,11,13,15,17,-1,19,-1,21,23,-1,25,27,29,31,-1,-1,-1,-1,-1,-1,-1,-1,-1,-1,-1,-1],"loss_changes":[1.1244972E3,3.202731E2,0E0,3.2697113E1,0E0,2.6045288E1,2.5348824E1,4.364624E0,4.749027E0,4.4160786E0,5.510952E0,0E0,6.1538143E0,0E0,1.7272737E0,2.1453066E-1,0E0,2.0675167E1,3.8655472E0,3.9707832E0,3.2875624E0,0E0,0E0,0E0,0E0,0E0,0E0,0E0,0E0,0E0,0E0,0E0,0E0],"parents":[2147483647,0,0,1,1,3,3,5,5,6,6,7,7,8,8,9,9,10,10,12,12,14,14,15,15,17,17,18,18,19,19,20,20],"right_children":[2,4,-1,6,-1,8,10,12,14,16,18,-1,20,-1,22,24,-1,26,28,30,32,-1,-1,-1,-1,-1,-1,-1,-1,-1,-1,-1,-1],"split_conditions":[1.2895836E0,2.7364565E-2,-3.8964137E-2,-6.6400146E-1,-3.386064E-2,-2.0846054E-1,-2.2987148E-1,-3.2679668E-1,-6.6263777E-1,-6.2689626E-1,2.0425853E-1,2.4246242E-2,-1.653047E-1,-1.9906182E-2,2.3049278E0,-6.41431E-1,-1.498537E-2,-7.5047904E-1,-6.223476E-1,1.3714161E0,1.5518537E0,9.271618E-3,-5.0362465E-3,-0E0,4.9257595E-3,1.9867538E-2,-1.7508943E-2,-0E0,2.276288E-2,-1.3286717E-2,8.965415E-3,2.0829016E-2,-0E0],"split_indices":[2,3,0,2,0,3,2,3,6,3,2,0,4,0,10,3,0,4,3,6,6,0,0,0,0,0,0,0,0,0,0,0,0],"split_type":[0,0,0,0,0,0,0,0,0,0,0,0,0,0,0,0,0,0,0,0,0,0,0,0,0,0,0,0,0,0,0,0,0],"sum_hessian":[6.247743E2,4.4260657E2,1.8216776E2,4.037883E2,3.8818253E1,3.450043E2,5.8783985E1,3.361578E2,8.846511E0,1.8163855E1,4.062013E1,3.1609372E2,2.0064083E1,2.7165463E0,6.1299644E0,4.974416E0,1.318944E1,1.6222898E1,2.4397232E1,5.9400024E0,1.412408E1,3.6365178E0,2.4934466E0,2.3876858E0,2.58673E0,1.0110714E1,6.1121836E0,2.4172916E0,2.197994E1,3.2698019E0,2.6702003E0,1.1957278E1,2.1668017E0],"tree_param":{"num_deleted":"0","num_feature":"11","num_nodes":"33","size_leaf_vector":"1"}},{"base_weights":[-2.1808776E-3,8.3198225E-1,-3.792145E-2,8.200249E-3,2.635567E-2,4.8119023E-1,-9.864383E-1,-2.4901412E-1,7.7751416E-1,1.713407E-2,-1.1833266E0,2.4341334E-1,-8.7668747E-1,1.164591E0,8.542256E-2,-3.0717218E-2,-2.6429608E-1,-8.10339E-3,7.101461E-1,8.830112E-3,-2.2486193E-2,2.2244116E-3,2.278495E-2,5.3492504E-1,-7.351934E-1,6.348895E-1,-2.9058984E-2,1.1387004E-3,1.4558682E-2,1.2432511E-2,-3.948517E-3,-1.8136399E-2,-2.3068066E-3,1.6171597E-2,-2.3631053E-4],"categories":[],"categories_nodes":[],"categories_segments":[],"categories_sizes":[],"default_left":[0,0,0,0,0,0,0,0,0,0,0,0,0,0,0,0,0,0,0,0,0,0,0,0,0,0,0,0,0,0,0,0,0,0,0],"id":11,"left_children":[1,3,-1,5,-1,7,9,11,13,-1,15,17,19,21,23,-1,25,-1,27,-1,-1,-1,-1,29,31,33,-1,-1,-1,-1,-1,-1,-1,-1,-1],"loss_changes":[1.0682687E3,2.1400769E2,0E0,8.927651E1,0E0,2.8781343E1,2.5707043E1,1.2828504E1,2.399575E1,0E0,2.2200424E1,8.211931E0,9.935489E0,2.6090546E0,1.4339019E1,0E0,2.9154615E1,0E0,1.01214886E-1,0E0,0E0,0E0,0E0,3.1628876E0,1.044908E0,2.7684255E0,0E0,0E0,0E0,0E0,0E0,0E0,0E0,0E0,0E0],"parents":[2147483647,0,0,1,1,3,3,5,5,6,6,7,7,8,8,10,10,11,11,12,12,13,13,14,14,16,16,18,18,23,23,24,24,25,25],"right_children":[2,4,-1,6,-1,8,10,12,14,-1,16,18,20,22,24,-1,26,-1,28,-1,-1,-1,-1,30,32,34,-1,-1,-1,-1,-1,-1,-1,-1,-1],"split_conditions":[1.2895836E0,-3.1647444E-1,-3.792145E-2,-6.6400146E-1,2.635567E-2,-2.9482895E-1,-8.330556E-1,9.4643307E-1,-1.5623674E-1,1.713407E-2,2.0425853E-1,-6.8613124E-1,-8.2688165E-1,-6.8613124E-1,-6.8613124E-1,-3.0717218E-2,1.0831186E0,-8.10339E-3,1.5153106E0,8.830112E-3,-2.2486193E-2,2.2244116E-3,2.278495E-2,1.826229E-1,2.6659684E0,4.0224496E-1,-2.9058984E-2,1.1387004E-3,1.4558682E-2,1.2432511E-2,-3.948517E-3,-1.8136399E-2,-2.3068066E-3,1.6171597E-2,-2.3631053E-4],"split_indices":[2,7,0,2,0,4,4,1,4,0,2,1,4,1,1,0,4,0,10,0,0,0,0,4,10,1,0,0,0,0,0,0,0,0,0],"split_type":[0,0,0,0,0,0,0,0,0,0,0,0,0,0,0,0,0,0,0,0,0,0,0,0,0,0,0,0,0,0,0,0,0,0,0],"sum_hessian":[6.233092E2,4.4305655E2,1.8025267E2,1.8551405E2,2.575425E2,1.2697636E2,5.85377E1,3.61942E1,9.078216E1,4.36012E0,5.4177578E1,2.0592192E1,1.5602007E1,5.6612484E1,3.416967E1,3.417162E1,2.0005959E1,7.9403505E0,1.2651841E1,2.5282023E0,1.3073805E1,4.0428376E0,5.256965E1,2.3085487E1,1.1084185E1,1.228783E1,7.7181287E0,2.5417933E0,1.0110047E1,2.0464142E1,2.621345E0,6.2272115E0,4.8569727E0,9.070433E0,3.217398E0],"tree_param":{"num_deleted":"0","num_feature":"11","num_nodes":"35","size_leaf_vector":"1"}},{"base_weights":[4.377934E-3,-9.8271066E-1,2.6170965E-2,-1.3298345E0,-4.5115355E-1,1.523968E-2,-1.3925209E0,-1.2452381E-1,-1.5092824E0,-4.012041E-1,-1.5409049E0,-8.471691E-1,2.7728766E-1,-5.284125E-3,-3.0583745E-2,4.1363068E-2,-8.830459E-1,-1.2508823E0,-3.5242E-2,-2.772222E-1,-2.8376449E-2,7.881025E-1,-4.8506972E-1,-1.77358E-1,1.2603775E-2,-0E0,-1.0750979E0,-9.259529E-1,-3.4476332E-2,-0E0,-8.2909334E-1,-1.6947627E-2,1.8028108E-2,5.2407074E-1,-2.7700044E-2,-1.1762338E-2,2.2843594E-3,-2.4637049E-2,-2.3576505E-3,-2.7121857E-2,-7.4956007E-3,-5.4101027E-3,1.0105902E-2,-1.5593641E-3,-1.7972827E-2,1.5416783E-2,-2.3206829E-3],"categories":[],"categories_nodes":[],"categories_segments":[],"categories_sizes":[],"default_left":[0,0,0,0,0,0,0,0,0,0,0,0,0,0,0,0,0,0,0,0,0,0,0,0,0,0,0,0,0,0,0,0,0,0,0,0,0,0,0,0,0,0,0,0,0,0,0],"id":12,"left_children":[1,3,-1,5,7,-1,9,11,13,15,17,19,21,-1,-1,23,25,27,-1,29,-1,31,33,35,-1,-1,37,39,-1,41,43,-1,-1,45,-1,-1,-1,-1,-1,-1,-1,-1,-1,-1,-1,-1,-1],"loss_changes":[8.5960266E2,6.465796E1,0E0,3.2521515E1,4.978382E1,0E0,2.872705E1,3.466618E1,3.4302063E0,7.3140197E0,1.1322479E1,1.4426205E1,3.0715328E1,0E0,0E0,3.1113825E0,2.5569286E0,1.5630066E1,0E0,4.5050917E0,0E0,1.6654343E1,3.4451595E1,2.5028422E0,0E0,0E0,1.7996988E0,1.8799316E1,0E0,3.604922E0,1.635971E-1,0E0,0E0,4.079064E0,0E0,0E0,0E0,0E0,0E0,0E0,0E0,0E0,0E0,0E0,0E0,0E0,0E0],"parents":[2147483647,0,0,1,1,3,3,4,4,6,6,7,7,8,8,9,9,10,10,11,11,12,12,15,15,16,16,17,17,19,19,21,21,22,22,23,23,26,26,27,27,29,29,30,30,33,33],"right_children":[2,4,-1,6,8,-1,10,12,14,16,18,20,22,-1,-1,24,26,28,-1,30,-1,32,34,36,-1,-1,38,40,-1,42,44,-1,-1,46,-1,-1,-1,-1,-1,-1,-1,-1,-1,-1,-1,-1,-1],"split_conditions":[-3.1647444E-1,-1.131014E-1,2.6170965E-2,-8.294541E-1,9.528726E-2,1.523968E-2,-8.8216627E-1,-2.9482895E-1,-9.412128E-1,1.1059834E0,2.3875517E-1,-3.5176823E-1,-1.893574E-1,-5.284125E-3,-3.0583745E-2,-4.815328E-3,-6.1572874E-1,8.55762E-2,-3.5242E-2,-4.399167E-1,-2.8376449E-2,-7.942787E-1,-5.4957587E-1,-2.7746475E-1,1.2603775E-2,-0E0,-3.9768478E-1,-2.890409E-1,-3.4476332E-2,-4.9811903E-1,-9.044363E-1,-1.6947627E-2,1.8028108E-2,-1.0810535E-1,-2.7700044E-2,-1.1762338E-2,2.2843594E-3,-2.4637049E-2,-2.3576505E-3,-2.7121857E-2,-7.4956007E-3,-5.4101027E-3,1.0105902E-2,-1.5593641E-3,-1.7972827E-2,1.5416783E-2,-2.3206829E-3],"split_indices":[7,0,0,4,4,0,5,4,5,6,6,5,4,0,0,6,7,4,0,4,0,6,5,4,0,0,8,4,0,4,5,0,0,0,0,0,0,0,0,0,0,0,0,0,0,0,0],"split_type":[0,0,0,0,0,0,0,0,0,0,0,0,0,0,0,0,0,0,0,0,0,0,0,0,0,0,0,0,0,0,0,0,0,0,0,0,0,0,0,0,0,0,0,0,0,0,0],"sum_hessian":[6.1558624E2,3.6155487E2,2.5403137E2,2.1584637E2,1.4570848E2,5.01959E0,2.1082678E2,1.1383901E2,3.1869469E1,2.913558E1,1.8169121E2,4.023821E1,7.36008E1,4.357216E0,2.7512253E1,1.5710122E1,1.3425459E1,1.069005E2,7.479071E1,2.420656E1,1.6031647E1,4.4482822E1,2.9117981E1,1.2311127E1,3.398995E0,2.9467478E0,1.0478711E1,7.411845E1,3.2782047E1,1.710514E1,7.1014194E0,3.036988E0,4.144583E1,1.4815817E1,1.4302165E1,4.5995903E0,7.7115364E0,7.038933E0,3.4397779E0,3.399979E1,4.011866E1,1.1255219E1,5.849922E0,2.38073E0,4.7206893E0,1.0233303E1,4.5825133E0],"tree_param":{"num_deleted":"0","num_feature":"11","num_nodes":"47","size_leaf_vector":"1"}},{"base_weights":[-1.2152707E-2,7.550419E-1,-1.776649E0,-0E0,2.5909647E-2,-3.4737725E-2,1.7002186E-2,6.6385424E-1,-5.797611E-1,-2.865578E-1,1.0454687E0,-3.7246034E-1,-1.2771561E0,1.1193478E-2,-5.3601354E-1,-1.6196922E-3,1.1201918E0,-6.75804E-1,-1.471011E-1,-1.5148933E-3,-2.6832195E-2,-2.215774E-2,-5.480627E-2,2.178395E-2,4.2607453E-1,1.4655292E-1,-1.0811396E0,1.4060277E-1,-5.0648654E-1,-1.4747581E-2,8.383467E-3,1.2710362E-2,-0E0,-4.8141005E-3,9.236615E-3,-2.330296E-2,2.1597277E-4,-2.87041E-3,1.1700871E-2,5.9855287E-4,-1.1272179E-2],"categories":[],"categories_nodes":[],"categories_segments":[],"categories_sizes":[],"default_left":[0,0,0,0,0,0,0,0,0,0,0,0,0,0,0,0,0,0,0,0,0,0,0,0,0,0,0,0,0,0,0,0,0,0,0,0,0,0,0,0,0],"id":13,"left_children":[1,3,5,7,-1,-1,-1,9,11,13,15,17,19,-1,21,-1,23,25,27,-1,-1,-1,29,-1,31,33,35,37,39,-1,-1,-1,-1,-1,-1,-1,-1,-1,-1,-1,-1],"loss_changes":[8.448022E2,2.0912166E2,5.138025E1,7.8557594E1,0E0,0E0,0E0,3.574079E1,1.3598724E1,7.1232224E0,6.679962E0,5.2855196E0,3.4375153E0,0E0,6.7666345E0,0E0,1.8193054E-1,1.2829254E1,6.039199E0,0E0,0E0,0E0,7.439795E0,0E0,1.287726E0,2.3614464E0,5.4058475E0,5.0344872E0,1.7673969E0,0E0,0E0,0E0,0E0,0E0,0E0,0E0,0E0,0E0,0E0,0E0,0E0],"parents":[2147483647,0,0,1,1,2,2,3,3,7,7,8,8,9,9,10,10,11,11,12,12,14,14,16,16,17,17,18,18,22,22,24,24,25,25,26,26,27,27,28,28],"right_children":[2,4,6,8,-1,-1,-1,10,12,14,16,18,20,-1,22,-1,24,26,28,-1,-1,-1,30,-1,32,34,36,38,40,-1,-1,-1,-1,-1,-1,-1,-1,-1,-1,-1,-1],"split_conditions":[-1.7768593E-1,-2.645416E-1,-2.645416E-1,-5.712428E-1,2.5909647E-2,-3.4737725E-2,1.7002186E-2,-2.9071298E-1,-2.9444236E-1,-8.294541E-1,-8.5041374E-1,-2.8248107E-1,1.4398044E0,1.1193478E-2,-5.534916E-1,-1.6196922E-3,-1.7778122E-1,-6.9433475E-1,-2.079581E-2,-1.5148933E-3,-2.6832195E-2,-2.215774E-2,-5.398553E-1,2.178395E-2,-6.092076E-1,-5.168049E-1,1.7529573E0,-1.0086416E-1,-5.2411956E-1,-1.4747581E-2,8.383467E-3,1.2710362E-2,-0E0,-4.8141005E-3,9.236615E-3,-2.330296E-2,2.1597277E-4,-2.87041E-3,1.1700871E-2,5.9855287E-4,-1.1272179E-2],"split_indices":[3,8,8,3,0,0,0,4,3,4,6,4,10,0,4,0,4,4,4,0,0,0,6,0,6,8,6,4,3,0,0,0,0,0,0,0,0,0,0,0,0],"split_type":[0,0,0,0,0,0,0,0,0,0,0,0,0,0,0,0,0,0,0,0,0,0,0,0,0,0,0,0,0,0,0,0,0,0,0,0,0,0,0,0,0],"sum_hessian":[6.187816E2,4.3200558E2,1.8677603E2,1.9920222E2,2.3280334E2,1.8155365E2,5.2223763E0,9.2877464E1,1.0632477E2,2.634157E1,6.65359E1,8.548444E1,2.0840324E1,4.5054836E0,2.1836086E1,3.6071339E0,6.292876E1,3.325714E1,5.2227303E1,3.4127066E0,1.7427616E1,7.2073116E0,1.4628775E1,5.624504E1,6.683717E0,1.1014587E1,2.2242554E1,2.892141E1,2.3305893E1,5.856422E0,8.772353E0,3.8657308E0,2.817986E0,4.621868E0,6.3927193E0,1.937052E1,2.8720353E0,1.8323494E1,1.0597915E1,2.9801173E0,2.0325775E1],"tree_param":{"num_deleted":"0","num_feature":"11","num_nodes":"41","size_leaf_vector":"1"}},{"base_weights":[2.3464259E-2,8.1833833E-1,-3.6015093E-2,1.0889653E0,-1.4342562E0,6.911223E-1,2.5651569E-2,-1.5953182E0,1.1573474E-2,9.090003E-1,-2.0378283E-1,-5.513941E-1,-1.7293974E0,1.106432E0,-1.6173913E-1,-9.1663146E-1,3.278158E-1,-1.982596E-2,5.86187E-3,-3.400997E-2,-5.49549E-1,4.3159798E-1,1.1885188E0,-6.596152E-1,4.5187065E-1,9.633577E-3,-1.3313683E0,4.19711E-2,1.6535407E-2,8.673791E-4,-1.7407559E-2,1.5025683E-2,-3.6558395E-3,2.2609562E-2,3.4481864E-3,-2.4510654E-2,1.3711503E-3,1.4704083E-2,-2.8472382E-4,-4.735258E-3,-2.8146373E-2,6.821828E-3,-1.7014386E-2],"categories":[],"categories_nodes":[],"categories_segments":[],"categories_sizes":[],"default_left":[0,0,0,0,0,0,0,0,0,0,0,0,0,0,0,0,0,0,0,0,0,0,0,0,0,0,0,0,0,0,0,0,0,0,0,0,0,0,0,0,0,0,0],"id":14,"left_children":[1,3,-1,5,7,9,-1,11,-1,13,15,17,19,21,23,25,27,-1,-1,-1,29,31,33,35,37,-1,39,41,-1,-1,-1,-1,-1,-1,-1,-1,-1,-1,-1,-1,-1,-1,-1],"loss_changes":[9.620532E2,2.716558E2,0E0,4.2048492E1,1.8877808E1,3.4425583E1,0E0,2.704422E0,0E0,3.0457832E1,1.4399705E1,5.3803787E0,7.0858765E-1,4.3652344E0,7.982774E0,1.175264E1,2.8071551E0,0E0,0E0,0E0,2.2292125E0,4.870186E0,1.4828949E0,7.927867E0,2.286291E0,0E0,6.793976E-1,5.925131E0,0E0,0E0,0E0,0E0,0E0,0E0,0E0,0E0,0E0,0E0,0E0,0E0,0E0,0E0,0E0],"parents":[2147483647,0,0,1,1,3,3,4,4,5,5,7,7,9,9,10,10,11,11,12,12,13,13,14,14,15,15,16,16,20,20,21,21,22,22,23,23,24,24,26,26,27,27],"right_children":[2,4,-1,6,8,10,-1,12,-1,14,16,18,20,22,24,26,28,-1,-1,-1,30,32,34,36,38,-1,40,42,-1,-1,-1,-1,-1,-1,-1,-1,-1,-1,-1,-1,-1,-1,-1],"split_conditions":[1.2895836E0,-1.0809999E-1,-3.6015093E-2,-1.6803801E-1,-1.5631127E-1,-3.8793945E-1,2.5651569E-2,2.7364565E-2,1.1573474E-2,-6.6400146E-1,-1.653047E-1,2.0425853E-1,1.5800861E0,-4.8596406E-1,-2.2987148E-1,-8.0372936E-1,2.0425853E-1,-1.982596E-2,5.86187E-3,-3.400997E-2,1.7145044E0,-6.382547E-1,1.4044502E0,-4.9811903E-1,-8.294541E-1,9.633577E-3,-6.579736E-1,-6.6400146E-1,1.6535407E-2,8.673791E-4,-1.7407559E-2,1.5025683E-2,-3.6558395E-3,2.2609562E-2,3.4481864E-3,-2.4510654E-2,1.3711503E-3,1.4704083E-2,-2.8472382E-4,-4.735258E-3,-2.8146373E-2,6.821828E-3,-1.7014386E-2],"split_indices":[2,3,0,9,9,3,0,3,0,2,4,2,6,4,2,4,2,0,0,0,6,4,6,4,4,0,9,2,0,0,0,0,0,0,0,0,0,0,0,0,0,0,0],"split_type":[0,0,0,0,0,0,0,0,0,0,0,0,0,0,0,0,0,0,0,0,0,0,0,0,0,0,0,0,0,0,0,0,0,0,0,0,0,0,0,0,0,0,0],"sum_hessian":[6.1288153E2,4.3729507E2,1.7558643E2,3.917466E2,4.5548462E1,1.6969766E2,2.2204895E2,4.3010807E1,2.5376532E0,1.3696811E2,3.272955E1,6.807837E0,3.6202972E1,1.1603888E2,2.0929232E1,1.3700788E1,1.902876E1,4.3440604E0,2.4637766E0,3.1688536E1,4.514435E0,1.500887E1,1.0103001E2,1.1981543E1,8.947688E0,2.6191983E0,1.1081589E1,1.5033092E1,3.9956686E0,2.0199401E0,2.4944947E0,9.533071E0,5.4757996E0,9.7263016E1,3.7669957E0,5.712573E0,6.2689695E0,4.937495E0,4.010193E0,2.9153516E0,8.166238E0,1.2799419E1,2.2336721E0],"tree_param":{"num_deleted":"0","num_feature":"11","num_nodes":"43","size_leaf_vector":"1"}},{"base_weights":[7.970487E-3,8.098724E-1,-3.561955E-2,6.5863036E-2,2.5574828E-2,5.187501E-1,-9.2860675E-1,7.1347517E-1,-4.877479E-2,2.4479921E-1,-1.3267515E0,-7.935518E-2,1.6572466E-2,4.5427814E-1,-1.1035116E0,-2.4673282E-1,5.295396E-1,-2.608836E-2,-4.1830046E-3,4.342988E-1,-7.747554E-1,1.1835972E-2,-1.0285618E-2,-2.6113125E-2,-6.301075E-3,-0E0,-7.027521E-3,1.3237024E-2,-0E0,1.1883475E-2,-0E0,-1.7703017E-2,-2.6694296E-3],"categories":[],"categories_nodes":[],"categories_segments":[],"categories_sizes":[],"default_left":[0,0,0,0,0,0,0,0,0,0,0,0,0,0,0,0,0,0,0,0,0,0,0,0,0,0,0,0,0,0,0,0,0],"id":15,"left_children":[1,3,-1,5,-1,7,9,11,13,15,17,19,-1,21,23,25,27,-1,-1,29,31,-1,-1,-1,-1,-1,-1,-1,-1,-1,-1,-1,-1],"loss_changes":[9.424054E2,1.805932E2,0E0,8.624932E1,0E0,1.507597E1,2.9334679E1,1.4649376E1,2.0306921E1,2.83674E0,2.0936966E0,8.097325E0,0E0,5.5362473E0,6.899204E-1,2.2415096E-1,8.1807303E-1,0E0,0E0,9.0970397E-1,1.1962223E-1,0E0,0E0,0E0,0E0,0E0,0E0,0E0,0E0,0E0,0E0,0E0,0E0],"parents":[2147483647,0,0,1,1,3,3,5,5,6,6,7,7,8,8,9,9,10,10,11,11,13,13,14,14,15,15,16,16,19,19,20,20],"right_children":[2,4,-1,6,-1,8,10,12,14,16,18,20,-1,22,24,26,28,-1,-1,30,32,-1,-1,-1,-1,-1,-1,-1,-1,-1,-1,-1,-1],"split_conditions":[1.2895836E0,-3.1647444E-1,-3.561955E-2,-6.6400146E-1,2.5574828E-2,5.1969653E-1,-9.412128E-1,-8.330224E-1,-5.4957587E-1,-6.479877E-2,1.7997773E0,-4.4265786E-1,1.6572466E-2,-3.596084E-1,1.4376749E0,-9.7798926E-1,4.2132354E-1,-2.608836E-2,-4.1830046E-3,-7.792813E-1,-9.262229E-1,1.1835972E-2,-1.0285618E-2,-2.6113125E-2,-6.301075E-3,-0E0,-7.027521E-3,1.3237024E-2,-0E0,1.1883475E-2,-0E0,-1.7703017E-2,-2.6694296E-3],"split_indices":[2,7,0,2,0,6,5,6,5,6,5,5,0,8,6,5,2,0,0,5,6,0,0,0,0,0,0,0,0,0,0,0,0],"split_type":[0,0,0,0,0,0,0,0,0,0,0,0,0,0,0,0,0,0,0,0,0,0,0,0,0,0,0,0,0,0,0,0,0],"sum_hessian":[6.064578E2,4.2923993E2,1.7721788E2,1.8700623E2,2.422337E2,1.2969505E2,5.731116E1,9.6867424E1,3.2827637E1,1.4383305E1,4.2927856E1,1.7389906E1,7.9477516E1,2.2786892E1,1.0040744E1,4.6390085E0,9.744296E0,3.902573E1,3.902127E0,1.0041571E1,7.3483357E0,2.0546303E1,2.2405882E0,5.1949472E0,4.8457966E0,2.487805E0,2.1512036E0,5.919294E0,3.8250022E0,5.555356E0,4.4862146E0,4.045944E0,3.3023915E0],"tree_param":{"num_deleted":"0","num_feature":"11","num_nodes":"33","size_leaf_vector":"1"}},{"base_weights":[-2.5645344E-2,8.3906305E-1,-1.7917217E0,1.1096009E0,-1.0884734E0,-3.4961257E-2,1.7043088E-2,6.470678E-1,2.534075E-2,-1.4724566E0,1.8213747E-2,8.8809776E-1,-4.8668924E-1,-3.1863075E-2,9.158481E-3,9.83446E-1,-3.7586907E-1,-1.0895361E0,3.0481622E-1,1.1740613E0,5.657238E-1,1.3839386E-3,-1.8048925E-2,-3.0202726E-2,7.92849E-2,-5.73399E-3,1.3127061E-2,3.3869562E-3,2.2416893E-2,1.6259462E-2,-7.1259555E-3,6.4705834E-3,-1.7700562E-3],"categories":[],"categories_nodes":[],"categories_segments":[],"categories_sizes":[],"default_left":[0,0,0,0,0,0,0,0,0,0,0,0,0,0,0,0,0,0,0,0,0,0,0,0,0,0,0,0,0,0,0,0,0],"id":16,"left_children":[1,3,5,7,9,-1,-1,11,-1,13,-1,15,17,-1,-1,19,21,23,25,27,29,-1,-1,-1,31,-1,-1,-1,-1,-1,-1,-1,-1],"loss_changes":[9.2609064E2,2.1501886E2,5.2608765E1,3.8632202E1,4.4305084E1,0E0,0E0,3.7401825E1,0E0,2.3737648E1,0E0,1.4545311E1,1.2869265E1,0E0,0E0,5.6176224E0,3.1289632E0,1.04432335E1,3.7123938E0,7.808838E-1,1.2275714E1,0E0,0E0,0E0,5.38552E-1,0E0,0E0,0E0,0E0,0E0,0E0,0E0,0E0],"parents":[2147483647,0,0,1,1,2,2,3,3,4,4,7,7,9,9,11,11,12,12,15,15,16,16,17,17,18,18,19,19,20,20,24,24],"right_children":[2,4,6,8,10,-1,-1,12,-1,14,-1,16,18,-1,-1,20,22,24,26,28,30,-1,-1,-1,32,-1,-1,-1,-1,-1,-1,-1,-1],"split_conditions":[8.5545355E-1,-2.1534751E-1,-3.1647444E-1,-3.1647444E-1,-3.1647444E-1,-3.4961257E-2,1.7043088E-2,-6.6400146E-1,2.534075E-2,2.0425853E-1,1.8213747E-2,-3.116942E-1,-2.2987148E-1,-3.1863075E-2,9.158481E-3,-5.646128E-1,1.8966146E0,9.4643307E-1,-4.8161337E-1,-7.871225E-1,9.4643307E-1,1.3839386E-3,-1.8048925E-2,-3.0202726E-2,-5.920922E-1,-5.73399E-3,1.3127061E-2,3.3869562E-3,2.2416893E-2,1.6259462E-2,-7.1259555E-3,6.4705834E-3,-1.7700562E-3],"split_indices":[2,3,7,7,7,0,0,2,0,2,0,3,2,0,0,3,10,1,8,8,1,0,0,0,3,0,0,0,0,0,0,0,0],"split_type":[0,0,0,0,0,0,0,0,0,0,0,0,0,0,0,0,0,0,0,0,0,0,0,0,0,0,0,0,0,0,0,0,0],"sum_hessian":[6.01232E2,4.0424744E2,1.9698456E2,3.5566425E2,4.85832E1,1.9167361E2,5.310941E0,1.297312E2,2.2593304E2,4.1804893E1,6.7783065E0,1.078476E2,2.1883596E1,3.777664E1,4.028248E0,1.0121594E2,6.63166E0,1.2323549E1,9.560047E0,6.5514786E1,3.5701153E1,4.4232945E0,2.2083654E0,8.149107E0,4.1744423E0,3.4249494E0,6.1350975E0,3.102978E0,6.2411808E1,2.7547392E1,8.153761E0,2.0156977E0,2.1587446E0],"tree_param":{"num_deleted":"0","num_feature":"11","num_nodes":"33","size_leaf_vector":"1"}},{"base_weights":[2.773669E-2,8.118013E-1,-3.4013778E-2,1.0804304E0,-1.4100059E0,5.9427965E-1,2.5206413E-2,-1.5672853E0,1.106915E-2,8.287718E-1,-2.9176378E-1,-5.652606E-1,-3.1195536E-2,1.0384821E0,-5.010939E-1,-1.1065574E0,4.211833E-1,-1.8198302E-2,-0E0,-0E0,1.0684752E0,-1.0317197E0,1.947063E-1,-2.582726E-2,-3.02567E-1,-0E0,7.0249784E-1,7.938458E-3,2.0994172E-2,-4.0030684E-3,-2.4622347E-2,-0E0,7.008609E-3,3.545664E-3,-1.4578689E-2,7.0403535E-3,-6.244923E-3,-0E0,1.6730381E-2],"categories":[],"categories_nodes":[],"categories_segments":[],"categories_sizes":[],"default_left":[0,0,0,0,0,0,0,0,0,0,0,0,0,0,0,0,0,0,0,0,0,0,0,0,0,0,0,0,0,0,0,0,0,0,0,0,0,0,0],"id":17,"left_children":[1,3,-1,5,7,9,-1,11,-1,13,15,17,-1,19,21,23,25,-1,-1,-1,27,29,31,-1,33,35,37,-1,-1,-1,-1,-1,-1,-1,-1,-1,-1,-1,-1],"loss_changes":[8.761674E2,2.563E2,0E0,4.7676147E1,1.7505531E1,3.0464245E1,0E0,1.257988E0,0E0,3.3278732E1,1.9571165E1,2.2185338E0,0E0,3.704094E0,7.160113E0,1.5164413E0,1.9732974E0,0E0,0E0,0E0,1.6935501E0,8.785362E-1,3.9492774E-1,0E0,2.5378628E0,1.5800142E0,1.3328977E0,0E0,0E0,0E0,0E0,0E0,0E0,0E0,0E0,0E0,0E0,0E0,0E0],"parents":[2147483647,0,0,1,1,3,3,4,4,5,5,7,7,9,9,10,10,11,11,13,13,14,14,15,15,16,16,20,20,21,21,22,22,24,24,25,25,26,26],"right_children":[2,4,-1,6,8,10,-1,12,-1,14,16,18,-1,20,22,24,26,-1,-1,-1,28,30,32,-1,34,36,38,-1,-1,-1,-1,-1,-1,-1,-1,-1,-1,-1,-1],"split_conditions":[1.2895836E0,-8.503623E-2,-3.4013778E-2,-3.1647444E-1,-3.1647444E-1,-6.6400146E-1,2.5206413E-2,2.7364565E-2,1.106915E-2,-3.706766E-1,-2.2987148E-1,-2.4300342E-2,-3.1195536E-2,-8.517167E-1,-5.3466238E-2,-2.9482895E-1,-5.1369107E-1,-1.8198302E-2,-0E0,-0E0,-5.3053224E-1,-2.9444236E-1,-2.640492E-1,-2.582726E-2,1.7410548E0,1.4950224E0,2.0425853E-1,7.938458E-3,2.0994172E-2,-4.0030684E-3,-2.4622347E-2,-0E0,7.008609E-3,3.545664E-3,-1.4578689E-2,7.0403535E-3,-6.244923E-3,-0E0,1.6730381E-2],"split_indices":[2,3,0,7,7,2,0,3,0,3,2,3,0,9,4,4,9,0,0,0,4,3,3,0,10,10,2,0,0,0,0,0,0,0,0,0,0,0,0],"split_type":[0,0,0,0,0,0,0,0,0,0,0,0,0,0,0,0,0,0,0,0,0,0,0,0,0,0,0,0,0,0,0,0,0,0,0,0,0,0,0],"sum_hessian":[5.9722675E2,4.211165E2,1.7611024E2,3.7704257E2,4.4073906E1,1.3984894E2,2.3719365E2,4.1632206E1,2.441702E0,1.11230896E2,2.8618042E1,6.139089E0,3.5493114E1,9.692091E1,1.4309978E1,1.3112976E1,1.5505066E1,2.7436209E0,3.395468E0,2.2549722E0,9.466595E1,7.9313235E0,6.3786545E0,7.8544636E0,5.2585125E0,7.489879E0,8.015187E0,1.0701122E1,8.396482E1,3.734426E0,4.1968975E0,3.6793146E0,2.6993394E0,2.7207873E0,2.537725E0,3.677614E0,3.8122652E0,2.4326272E0,5.58256E0],"tree_param":{"num_deleted":"0","num_feature":"11","num_nodes":"39","size_leaf_vector":"1"}},{"base_weights":[-0E0,7.9494923E-1,-3.377081E-2,1.060649E0,-1.4090525E0,5.6738424E-1,2.5029646E-2,-2.9760605E-2,1.2407195E-2,8.0320793E-1,-3.0400023E-1,1.0036978E0,-2.1396092E-1,-8.9853525E-1,7.4157375E-1,2.1576088E-2,6.016688E-1,-8.872577E-1,3.5901615E-1,1.98004E-3,-1.1664643E0,-4.88744E-4,1.7805953E-2,1.2819835E-2,-2.3254263E-3,-1.4698901E-4,-2.1812806E-2,1.4051156E-2,-9.851364E-3,-4.6665124E-3,-2.3737727E-2],"categories":[],"categories_nodes":[],"categories_segments":[],"categories_sizes":[],"default_left":[0,0,0,0,0,0,0,0,0,0,0,0,0,0,0,0,0,0,0,0,0,0,0,0,0,0,0,0,0,0,0],"id":18,"left_children":[1,3,-1,5,7,9,-1,-1,-1,11,13,15,17,19,21,-1,23,25,27,-1,29,-1,-1,-1,-1,-1,-1,-1,-1,-1,-1],"loss_changes":[8.748541E2,2.4997119E2,0E0,5.0164764E1,2.148027E1,3.0332863E1,0E0,0E0,0E0,2.4228127E1,2.1450825E1,3.3255005E0,8.910738E0,6.767132E0,2.679151E0,0E0,2.6506758E0,1.9238119E0,5.4145226E0,0E0,1.20718E-1,0E0,0E0,0E0,0E0,0E0,0E0,0E0,0E0,0E0,0E0],"parents":[2147483647,0,0,1,1,3,3,4,4,5,5,9,9,10,10,11,11,12,12,13,13,14,14,16,16,17,17,18,18,20,20],"right_children":[2,4,-1,6,8,10,-1,-1,-1,12,14,16,18,20,22,-1,24,26,28,-1,30,-1,-1,-1,-1,-1,-1,-1,-1,-1,-1],"split_conditions":[1.2895836E0,-8.503623E-2,-3.377081E-2,-3.1647444E-1,-3.1647444E-1,-6.6400146E-1,2.5029646E-2,-2.9760605E-2,1.2407195E-2,-3.706766E-1,2.0425853E-1,-5.646128E-1,-1.131014E-1,-6.2689626E-1,-4.7700438E-1,2.1576088E-2,-8.2599185E-2,-6.021854E-1,-1.03372246E-1,1.98004E-3,-5.920922E-1,-4.88744E-4,1.7805953E-2,1.2819835E-2,-2.3254263E-3,-1.4698901E-4,-2.1812806E-2,1.4051156E-2,-9.851364E-3,-4.6665124E-3,-2.3737727E-2],"split_indices":[2,3,0,7,7,2,0,0,0,3,2,3,0,3,3,0,0,8,0,0,3,0,0,0,0,0,0,0,0,0,0],"split_type":[0,0,0,0,0,0,0,0,0,0,0,0,0,0,0,0,0,0,0,0,0,0,0,0,0,0,0,0,0,0,0],"sum_hessian":[6.006906E2,4.1857718E2,1.8211345E2,3.7490787E2,4.3669308E1,1.4086617E2,2.3404169E2,4.0749203E1,2.9201043E0,1.11542755E2,2.9323412E1,9.368579E1,1.7856966E1,1.9269407E1,1.0054006E1,6.3057964E1,3.0627825E1,8.067666E0,9.7893E0,3.9030828E0,1.5366324E1,2.0804937E0,7.973512E0,2.8157131E1,2.4706933E0,3.0958292E0,4.971837E0,7.476627E0,2.3126733E0,3.079254E0,1.228707E1],"tree_param":{"num_deleted":"0","num_feature":"11","num_nodes":"31","size_leaf_vector":"1"}},{"base_weights":[-2.4478205E-2,7.708169E-1,-3.3195194E-2,1.0338951E0,-1.2188612E0,5.701957E-1,2.4431624E-2,-1.4083247E0,1.3216434E-2,7.8926176E-1,-2.7869868E-1,-2.9907342E-2,-6.464426E-1,1.0162677E0,-3.531242E-1,-8.848731E-1,7.837661E-1,-2.4627604E-2,3.1639275E-1,1.1592063E0,6.616477E-1,-9.609922E-1,2.3198958E-1,-2.6665872E-2,-6.893637E-2,-2.740337E-3,2.0526255E-2,1.2070695E-2,-2.1481884E-3,4.377958E-3,2.2157326E-2,1.7946662E-2,-6.0635E-3,-0E0,-2.1117873E-2,1.7615985E-2,-8.9008715E-3,8.045117E-3,-1.8421467E-2],"categories":[],"categories_nodes":[],"categories_segments":[],"categories_sizes":[],"default_left":[0,0,0,0,0,0,0,0,0,0,0,0,0,0,0,0,0,0,0,0,0,0,0,0,0,0,0,0,0,0,0,0,0,0,0,0,0,0,0],"id":19,"left_children":[1,3,-1,5,7,9,-1,11,-1,13,15,-1,17,19,21,23,25,-1,27,29,31,33,35,-1,37,-1,-1,-1,-1,-1,-1,-1,-1,-1,-1,-1,-1,-1,-1],"loss_changes":[8.3917737E2,2.1878366E2,0E0,4.4580536E1,2.0759506E1,2.7393898E1,0E0,3.1223907E0,0E0,3.1008621E1,2.1415989E1,0E0,1.087249E1,1.9715347E0,8.222017E0,8.263365E0,4.5443835E0,0E0,1.5687673E0,4.174118E-1,1.1526135E1,1.3835278E0,7.40584E0,0E0,6.644885E0,0E0,0E0,0E0,0E0,0E0,0E0,0E0,0E0,0E0,0E0,0E0,0E0,0E0,0E0],"parents":[2147483647,0,0,1,1,3,3,4,4,5,5,7,7,9,9,10,10,12,12,13,13,14,14,15,15,16,16,18,18,19,19,20,20,21,21,22,22,24,24],"right_children":[2,4,-1,6,8,10,-1,12,-1,14,16,-1,18,20,22,24,26,-1,28,30,32,34,36,-1,38,-1,-1,-1,-1,-1,-1,-1,-1,-1,-1,-1,-1,-1,-1],"split_conditions":[1.2895836E0,-1.0809999E-1,-3.3195194E-2,-3.2584974E-1,-2.645416E-1,-6.6400146E-1,2.4431624E-2,2.0425853E-1,1.3216434E-2,-3.7884414E-1,2.0425853E-1,-2.9907342E-2,-1.2303194E0,-5.683789E-1,-1.131014E-1,9.4643307E-1,-4.7700438E-1,-2.4627604E-2,-1.131014E-1,-7.871225E-1,9.4643307E-1,-6.6488826E-1,-1.1178665E-1,-2.6665872E-2,-3.9653733E-1,-2.740337E-3,2.0526255E-2,1.2070695E-2,-2.1481884E-3,4.377958E-3,2.2157326E-2,1.7946662E-2,-6.0635E-3,-0E0,-2.1117873E-2,1.7615985E-2,-8.9008715E-3,8.045117E-3,-1.8421467E-2],"split_indices":[2,3,0,8,8,2,0,2,0,3,2,0,1,3,0,1,3,0,0,8,1,8,0,0,3,0,0,0,0,0,0,0,0,0,0,0,0,0,0],"split_type":[0,0,0,0,0,0,0,0,0,0,0,0,0,0,0,0,0,0,0,0,0,0,0,0,0,0,0,0,0,0,0,0,0,0,0,0,0,0,0],"sum_hessian":[5.939944E2,4.0989734E2,1.8409705E2,3.6332095E2,4.6576393E1,1.4039117E2,2.229298E2,4.3287045E1,3.2893476E0,1.12278465E2,2.811271E1,3.153116E1,1.1755885E1,9.431823E1,1.796023E1,1.8510386E1,9.602325E0,6.719662E0,5.0362225E0,6.2112938E1,3.2205296E1,8.534876E0,9.425353E0,9.532343E0,8.978044E0,2.3238494E0,7.278476E0,2.92122E0,2.1150026E0,3.4047253E0,5.8708214E1,2.513097E1,7.0743256E0,2.042871E0,6.4920053E0,4.704956E0,4.720397E0,6.237152E0,2.7408915E0],"tree_param":{"num_deleted":"0","num_feature":"11","num_nodes":"39","size_leaf_vector":"1"}},{"base_weights":[-2.7372168E-2,7.4648064E-1,-3.263006E-2,1.0200697E0,-1.2690686E0,6.3660955E-1,2.4570072E-2,-1.4153601E0,1.1402568E-2,8.436325E-1,-6.1828785E-2,7.3862695E-3,-2.9032443E-2,1.0274174E0,-1.2100277E-1,6.330784E-1,-7.923782E-1,1.9920921E-2,-0E0,-7.930237E-1,5.056275E-1,8.4692276E-1,1.0567555E-1,-1.2434415E0,-0E0,-2.378528E-2,8.292422E-3,1.5142245E-2,-3.900971E-3,3.4909116E-3,1.8446812E-2,-2.111062E-3,7.7458434E-3,-0E0,-2.964905E-2,-1.3086539E-2,8.813135E-3],"categories":[],"categories_nodes":[],"categories_segments":[],"categories_sizes":[],"default_left":[0,0,0,0,0,0,0,0,0,0,0,0,0,0,0,0,0,0,0,0,0,0,0,0,0,0,0,0,0,0,0,0,0,0,0,0,0],"id":20,"left_children":[1,3,-1,5,7,9,-1,11,-1,13,15,-1,-1,17,19,21,23,-1,-1,25,27,29,31,33,35,-1,-1,-1,-1,-1,-1,-1,-1,-1,-1,-1,-1],"loss_changes":[8.057705E2,2.3227505E2,0E0,3.9300415E1,1.6491753E1,2.4784508E1,0E0,1.4875465E1,0E0,2.386496E1,2.155903E1,0E0,0E0,4.4700317E0,1.0598434E1,1.6346703E0,7.355544E0,0E0,0E0,9.244837E0,3.564782E0,2.0195961E-1,9.5638543E-1,5.154093E0,4.2056303E0,0E0,0E0,0E0,0E0,0E0,0E0,0E0,0E0,0E0,0E0,0E0,0E0],"parents":[2147483647,0,0,1,1,3,3,4,4,5,5,7,7,9,9,10,10,13,13,14,14,15,15,16,16,19,19,20,20,21,21,22,22,23,23,24,24],"right_children":[2,4,-1,6,8,10,-1,12,-1,14,16,-1,-1,18,20,22,24,-1,-1,26,28,30,32,34,36,-1,-1,-1,-1,-1,-1,-1,-1,-1,-1,-1,-1],"split_conditions":[1.2895836E0,-1.0809999E-1,-3.263006E-2,-1.6803801E-1,-1.5631127E-1,-3.8793945E-1,2.4570072E-2,-9.7798926E-1,1.1402568E-2,-6.6400146E-1,-7.792813E-1,7.3862695E-3,-2.9032443E-2,1.4044502E0,9.4643307E-1,-9.044363E-1,-4.4349867E-1,1.9920921E-2,-0E0,-2.2987148E-1,-1.2806473E-2,-9.7798926E-1,-8.308833E-1,-7.039397E-1,1.2647479E0,-2.378528E-2,8.292422E-3,1.5142245E-2,-3.900971E-3,3.4909116E-3,1.8446812E-2,-2.111062E-3,7.7458434E-3,-0E0,-2.964905E-2,-1.3086539E-2,8.813135E-3],"split_indices":[2,3,0,9,9,3,0,5,0,2,5,0,0,6,1,5,9,0,0,2,2,5,5,9,6,0,0,0,0,0,0,0,0,0,0,0,0],"split_type":[0,0,0,0,0,0,0,0,0,0,0,0,0,0,0,0,0,0,0,0,0,0,0,0,0,0,0,0,0,0,0,0,0,0,0,0,0],"sum_hessian":[5.974658E2,4.1334985E2,1.8411595E2,3.652611E2,4.8088722E1,1.6492926E2,2.0033186E2,4.5469593E1,2.6191282E0,1.27478424E2,3.7450836E1,2.78026E0,4.2689335E1,1.0745574E2,2.0022678E1,1.8948202E1,1.8502636E1,1.02511116E2,4.94463E0,9.801821E0,1.0220857E1,1.1642524E1,7.305679E0,1.08274145E1,7.675221E0,7.322799E0,2.479022E0,7.4775796E0,2.743277E0,3.83721E0,7.8053136E0,4.08286E0,3.222819E0,3.1695652E0,7.657849E0,2.7006652E0,4.974556E0],"tree_param":{"num_deleted":"0","num_feature":"11","num_nodes":"37","size_leaf_vector":"1"}},{"base_weights":[1.987179E-2,7.673907E-1,-3.1964097E-2,1.5264957E-1,2.4530485E-2,5.7701916E-1,-8.304192E-1,8.5136133E-1,1.5528288E-1,1.8025331E-1,-1.1586428E0,9.698267E-1,-0E0,-4.842581E-1,8.613332E-1,-1.353469E-2,1.0380009E-2,-2.7696146E-2,-6.805187E-1,6.646073E-1,2.1321388E-2,2.2994834E-1,-6.5258835E-3,-7.6247305E-1,1.680101E-1,9.9292415E-1,-4.811442E-3,-4.9211015E-3,-1.0926331E0,1.5454529E-2,-1.0875081E-2,-1.4614763E-3,1.1158103E-2,-3.317796E-3,-1.8535778E-2,8.591639E-3,-2.9259059E-3,-0E0,2.0199385E-2,5.869272E-3,-1.5061305E-2,-2.6561774E-2,-0E0],"categories":[],"categories_nodes":[],"categories_segments":[],"categories_sizes":[],"default_left":[0,0,0,0,0,0,0,0,0,0,0,0,0,0,0,0,0,0,0,0,0,0,0,0,0,0,0,0,0,0,0,0,0,0,0,0,0,0,0,0,0,0,0],"id":21,"left_children":[1,3,-1,5,-1,7,9,11,13,15,17,19,21,23,25,-1,-1,-1,27,29,-1,31,-1,33,35,37,-1,39,41,-1,-1,-1,-1,-1,-1,-1,-1,-1,-1,-1,-1,-1,-1],"loss_changes":[7.6821375E2,1.3904623E2,0E0,8.404011E1,0E0,1.5385094E1,2.1179363E1,8.961388E0,2.802566E1,6.558707E0,3.6204338E0,1.0926437E0,1.2392628E0,6.5128345E0,5.404896E0,0E0,0E0,0E0,6.0863314E0,8.451818E0,0E0,1.3274251E0,0E0,2.119934E0,1.4084678E0,2.0787392E0,0E0,4.0495696E0,5.899948E0,0E0,0E0,0E0,0E0,0E0,0E0,0E0,0E0,0E0,0E0,0E0,0E0,0E0,0E0],"parents":[2147483647,0,0,1,1,3,3,5,5,6,6,7,7,8,8,9,9,10,10,11,11,12,12,13,13,14,14,18,18,19,19,21,21,23,23,24,24,25,25,27,27,28,28],"right_children":[2,4,-1,6,-1,8,10,12,14,16,18,20,22,24,26,-1,-1,-1,28,30,-1,32,-1,34,36,38,-1,40,42,-1,-1,-1,-1,-1,-1,-1,-1,-1,-1,-1,-1,-1,-1],"split_conditions":[1.2895836E0,-2.645416E-1,-3.1964097E-2,-6.6400146E-1,2.4530485E-2,4.0224496E-1,-9.412128E-1,1.4788134E0,1.0162823E0,2.0425853E-1,9.4643307E-1,-6.8613124E-1,-9.044363E-1,-4.0505937E-1,1.0952699E0,-1.353469E-2,1.0380009E-2,-2.7696146E-2,-1.2806473E-2,-2.9035294E-1,2.1321388E-2,-9.412128E-1,-6.5258835E-3,-4.02683E-1,1.7124043E-1,-7.8352517E-1,-4.811442E-3,1.1126884E0,2.0425853E-1,1.5454529E-2,-1.0875081E-2,-1.4614763E-3,1.1158103E-2,-3.317796E-3,-1.8535778E-2,8.591639E-3,-2.9259059E-3,-0E0,2.0199385E-2,5.869272E-3,-1.5061305E-2,-2.6561774E-2,-0E0],"split_indices":[2,8,0,2,0,1,5,6,5,2,1,1,5,8,6,0,0,0,2,5,0,5,0,5,5,6,0,6,2,0,0,0,0,0,0,0,0,0,0,0,0,0,0],"split_type":[0,0,0,0,0,0,0,0,0,0,0,0,0,0,0,0,0,0,0,0,0,0,0,0,0,0,0,0,0,0,0,0,0,0,0,0,0,0,0,0,0,0,0],"sum_hessian":[5.86495E2,4.1136356E2,1.7513142E2,1.9658018E2,2.1478339E2,1.384256E2,5.8154587E1,8.152548E1,5.690011E1,1.4086678E1,4.406791E1,7.179522E1,9.730264E0,2.9820835E1,2.7079271E1,3.0226474E0,1.1064031E1,2.2278507E1,2.1789402E1,3.1802935E1,3.9992287E1,5.5086055E0,4.2216578E0,2.1247112E1,8.573724E0,2.4948154E1,2.1311169E0,9.726921E0,1.2062481E1,2.9194016E1,2.6089199E0,3.1839652E0,2.3246405E0,8.028902E0,1.3218209E1,4.914273E0,3.6594505E0,2.7468686E0,2.2201286E1,7.4923635E0,2.2345574E0,8.938579E0,3.123902E0],"tree_param":{"num_deleted":"0","num_feature":"11","num_nodes":"43","size_leaf_vector":"1"}},{"base_weights":[-2.8534704E-3,-8.329047E-1,2.4469543E-2,8.296497E-2,-1.5751987E0,-5.025229E-1,4.2044756E-1,-1.1552627E0,-3.1394858E-2,1.1537823E-2,-6.590434E-1,9.042382E-1,-1.942073E-1,-2.8599393E-2,-7.3409206E-1,-4.9471308E-2,-1.2351848E0,-4.927132E-3,1.0051312E0,1.3896103E-1,-8.197683E-1,4.1830024E-1,-2.1230264E-2,1.460454E-1,-1.2738609E-2,-2.6136022E-2,-0E0,1.9988172E-2,2.0077206E-1,6.204746E-1,-3.75134E-1,1.5837136E-3,-1.0540642E0,-2.6514733E-4,1.3022291E-2,-4.7041643E-3,1.4685632E-2,9.103918E-3,-1.1321622E-3,1.4382267E-2,-1.4691376E-3,-1.6821155E-2,-1.9476393E-3,-2.2437105E-2,-1.3931963E-3],"categories":[],"categories_nodes":[],"categories_segments":[],"categories_sizes":[],"default_left":[0,0,0,0,0,0,0,0,0,0,0,0,0,0,0,0,0,0,0,0,0,0,0,0,0,0,0,0,0,0,0,0,0,0,0,0,0,0,0,0,0,0,0,0,0],"id":22,"left_children":[1,3,-1,5,7,9,11,13,-1,-1,15,17,19,-1,21,23,25,-1,27,29,31,33,-1,35,-1,-1,-1,-1,37,39,41,-1,43,-1,-1,-1,-1,-1,-1,-1,-1,-1,-1,-1,-1],"loss_changes":[6.4146594E2,2.4596786E2,0E0,3.2699123E1,3.0759888E0,1.1584749E1,3.2198322E1,4.1722183E0,0E0,0E0,1.8204348E1,8.155735E0,1.0660972E1,0E0,1.5559555E1,4.2210217E0,5.077667E0,0E0,1.8848763E0,8.810556E0,4.520994E0,1.5463964E0,0E0,6.9224906E0,0E0,0E0,0E0,0E0,9.401052E-1,2.5262222E0,1.5760651E0,0E0,1.2237473E0,0E0,0E0,0E0,0E0,0E0,0E0,0E0,0E0,0E0,0E0,0E0,0E0],"parents":[2147483647,0,0,1,1,3,3,4,4,5,5,6,6,7,7,10,10,11,11,12,12,14,14,15,15,16,16,18,18,19,19,20,20,21,21,23,23,28,28,29,29,30,30,32,32],"right_children":[2,4,-1,6,8,10,12,14,-1,-1,16,18,20,-1,22,24,26,-1,28,30,32,34,-1,36,-1,-1,-1,-1,38,40,42,-1,44,-1,-1,-1,-1,-1,-1,-1,-1,-1,-1,-1,-1],"split_conditions":[-3.1647444E-1,-2.9444236E-1,2.4469543E-2,-2.9071298E-1,9.170541E-3,-8.294541E-1,-5.683789E-1,-3.2068554E-1,-3.1394858E-2,1.1537823E-2,4.0224496E-1,-8.5041374E-1,4.0224496E-1,-2.8599393E-2,3.817743E-1,-4.2383873E-1,-3.4325445E-1,-4.927132E-3,-1.7778122E-1,3.0010683E-2,-5.292863E-1,1.4640134E-2,-2.1230264E-2,-5.3053224E-1,-1.2738609E-2,-2.6136022E-2,-0E0,1.9988172E-2,-6.092076E-1,-3.8987082E-1,8.55762E-2,1.5837136E-3,-3.4460425E-1,-2.6514733E-4,1.3022291E-2,-4.7041643E-3,1.4685632E-2,9.103918E-3,-1.1321622E-3,1.4382267E-2,-1.4691376E-3,-1.6821155E-2,-1.9476393E-3,-2.2437105E-2,-1.3931963E-3],"split_indices":[7,3,0,4,3,4,3,6,0,0,1,6,1,0,6,4,8,0,4,4,3,4,0,4,0,0,0,0,6,8,4,0,3,0,0,0,0,0,0,0,0,0,0,0,0],"split_type":[0,0,0,0,0,0,0,0,0,0,0,0,0,0,0,0,0,0,0,0,0,0,0,0,0,0,0,0,0,0,0,0,0,0,0,0,0,0,0,0,0,0,0,0,0],"sum_hessian":[5.8133875E2,3.5761456E2,2.2372421E2,1.6070241E2,1.9691216E2,5.769023E1,1.0301218E2,4.8726074E1,1.4818608E2,5.716816E0,5.1973415E1,5.7535717E1,4.547646E1,2.1416428E1,2.7309649E1,2.7031275E1,2.4942142E1,3.794379E0,5.3741337E1,3.029451E1,1.5181951E1,6.7448E0,2.0564848E1,2.1398447E1,5.632827E0,2.1274593E1,3.6675477E0,4.8021164E1,5.7201724E0,1.5972594E1,1.4321917E1,2.9254136E0,1.22565365E1,2.7520928E0,3.992707E0,1.3558363E1,7.8400846E0,2.778088E0,2.9420843E0,1.3582344E1,2.39025E0,2.1801064E0,1.2141809E1,9.596014E0,2.6605225E0],"tree_param":{"num_deleted":"0","num_feature":"11","num_nodes":"45","size_leaf_vector":"1"}},{"base_weights":[1.9108765E-2,7.7127254E-1,-1.6768887E0,1.9746481E-1,2.4223944E-2,-3.554908E-3,-3.1414155E-2,6.362006E-1,-8.40522E-1,8.456897E-1,-6.835656E-3,1.22925244E-1,-1.1692585E0,1.5143442E-1,1.859332E-2,4.7026634E-1,-1.0303031E0,-2.1021895E-1,3.854912E-1,-1.2868923E0,-0E0,6.6318417E-1,-3.8726372E-1,6.45842E-1,-1.0235409E-2,-2.4441563E-2,-5.501903E-3,-0E0,-5.942046E-3,1.378976E-2,-0E0,-5.7929105E-1,-2.6746755E-2,4.0600947E-3,-5.2406E-3,1.1776662E-3,1.5082389E-2,1.0052669E-2,-1.9807735E-2,-5.211946E-4,1.3788656E-2,-7.892653E-3,1.1753519E-2,-2.1174962E-2,7.850813E-4],"categories":[],"categories_nodes":[],"categories_segments":[],"categories_sizes":[],"default_left":[0,0,0,0,0,0,0,0,0,0,0,0,0,0,0,0,0,0,0,0,0,0,0,0,0,0,0,0,0,0,0,0,0,0,0,0,0,0,0,0,0,0,0,0,0],"id":23,"left_children":[1,3,5,7,-1,-1,-1,9,11,13,15,17,19,21,-1,23,25,27,29,31,33,35,37,39,-1,-1,-1,-1,-1,-1,41,43,-1,-1,-1,-1,-1,-1,-1,-1,-1,-1,-1,-1,-1],"loss_changes":[7.436643E2,1.2182524E2,1.4790955E0,9.127649E1,0E0,0E0,0E0,1.9478973E1,1.9785397E1,1.0413551E1,1.9246883E1,1.7749356E0,5.8652115E0,7.127701E0,0E0,5.5901685E0,7.6157665E-1,2.0970136E-1,1.1585228E0,1.156105E0,5.803118E-1,5.3837967E-1,9.372933E0,2.0076895E0,0E0,0E0,0E0,0E0,0E0,0E0,3.05611E0,4.910059E0,0E0,0E0,0E0,0E0,0E0,0E0,0E0,0E0,0E0,0E0,0E0,0E0,0E0],"parents":[2147483647,0,0,1,1,2,2,3,3,7,7,8,8,9,9,10,10,11,11,12,12,13,13,15,15,16,16,17,17,18,18,19,19,20,20,21,21,22,22,23,23,30,30,31,31],"right_children":[2,4,6,8,-1,-1,-1,10,12,14,16,18,20,22,-1,24,26,28,30,32,34,36,38,40,-1,-1,-1,-1,-1,-1,42,44,-1,-1,-1,-1,-1,-1,-1,-1,-1,-1,-1,-1,-1],"split_conditions":[1.2895836E0,-2.645416E-1,-9.7798926E-1,-6.6400146E-1,2.4223944E-2,-3.554908E-3,-3.1414155E-2,1.0952699E0,-9.412128E-1,-8.330224E-1,-5.719182E-1,-6.479877E-2,1.7997773E0,1.8967896E0,1.859332E-2,-2.8658217E-1,-4.4349867E-1,-9.7798926E-1,5.1969653E-1,1.4919492E0,-2.2987148E-1,-6.579736E-1,-7.3468435E-1,-9.62756E-1,-1.0235409E-2,-2.4441563E-2,-5.501903E-3,-0E0,-5.942046E-3,1.378976E-2,1.9481496E0,-6.6263777E-1,-2.6746755E-2,4.0600947E-3,-5.2406E-3,1.1776662E-3,1.5082389E-2,1.0052669E-2,-1.9807735E-2,-5.211946E-4,1.3788656E-2,-7.892653E-3,1.1753519E-2,-2.1174962E-2,7.850813E-4],"split_indices":[2,8,5,2,0,0,0,6,5,6,5,6,5,10,0,9,9,5,6,10,2,9,5,5,0,0,0,0,0,0,6,6,0,0,0,0,0,0,0,0,0,0,0,0,0],"split_type":[0,0,0,0,0,0,0,0,0,0,0,0,0,0,0,0,0,0,0,0,0,0,0,0,0,0,0,0,0,0,0,0,0,0,0,0,0,0,0,0,0,0,0,0,0],"sum_hessian":[5.784826E2,4.0190952E2,1.7657307E2,1.9540938E2,2.0650014E2,2.2145956E0,1.7435847E2,1.3841168E2,5.6997707E1,1.0451059E2,3.390109E1,1.4433475E1,4.256423E1,2.0573023E1,8.393757E1,2.3627342E1,1.0273745E1,5.5903325E0,8.8431425E0,3.825592E1,4.308309E0,1.0820942E1,9.752082E0,2.1411913E1,2.2154305E0,5.4466605E0,4.827084E0,2.4970598E0,3.0932724E0,2.7213888E0,6.1217537E0,9.501615E0,2.8754307E1,2.2334383E0,2.074871E0,3.6128519E0,7.20809E0,3.9599776E0,5.792104E0,2.1155093E0,1.9296404E1,3.6432276E0,2.478526E0,4.4321685E0,5.069446E0],"tree_param":{"num_deleted":"0","num_feature":"11","num_nodes":"45","size_leaf_vector":"1"}},{"base_weights":[9.008477E-3,7.40281E-1,-3.0468632E-2,4.405885E-2,2.4130778E-2,4.6638188E-1,-8.1439966E-1,7.08346E-1,-1.8413588E-1,-1.1656473E0,-8.897988E-2,-0E0,8.646534E-1,-6.8400276E-1,3.495968E-1,-2.2609454E-2,-2.3386537E-3,-2.3333736E-2,5.6363976E-1,3.929979E-1,-4.6421802E-1,3.0245265E-1,1.8360395E-2,-1.230675E-1,-2.1410113E-2,8.749336E-1,-1.4143519E-2,1.7195435E-2,-3.3900127E-2,1.2700654E-2,-0E0,-1.23512605E-2,-4.0097127E-4,-5.4671294E-3,9.456945E-3,4.915167E-3,-8.747409E-3,1.9982468E-2,1.4529774E-3,-1.0823713E-2,5.8514024E-3],"categories":[],"categories_nodes":[],"categories_segments":[],"categories_sizes":[],"default_left":[0,0,0,0,0,0,0,0,0,0,0,0,0,0,0,0,0,0,0,0,0,0,0,0,0,0,0,0,0,0,0,0,0,0,0,0,0,0,0,0,0],"id":24,"left_children":[1,3,-1,5,-1,7,9,11,13,15,17,19,21,23,25,-1,-1,-1,27,29,31,33,-1,35,-1,37,-1,-1,39,-1,-1,-1,-1,-1,-1,-1,-1,-1,-1,-1,-1],"loss_changes":[7.0154126E2,1.558148E2,0E0,6.690079E1,0E0,2.0198761E1,1.4457775E1,1.0597561E1,1.0111703E1,9.4078827E-1,1.9590517E1,3.8443904E0,3.7504692E0,4.009879E0,1.2160755E1,0E0,0E0,0E0,4.067327E0,1.3471153E0,4.6217346E-1,2.6967273E0,0E0,2.0566063E0,0E0,1.2973118E0,0E0,0E0,2.090397E0,0E0,0E0,0E0,0E0,0E0,0E0,0E0,0E0,0E0,0E0,0E0,0E0],"parents":[2147483647,0,0,1,1,3,3,5,5,6,6,7,7,8,8,9,9,10,10,11,11,12,12,13,13,14,14,18,18,19,19,20,20,21,21,23,23,25,25,28,28],"right_children":[2,4,-1,6,-1,8,10,12,14,16,18,20,22,24,26,-1,-1,-1,28,30,32,34,-1,36,-1,38,-1,-1,40,-1,-1,-1,-1,-1,-1,-1,-1,-1,-1,-1,-1],"split_conditions":[1.2895836E0,-3.1647444E-1,-3.0468632E-2,-6.6400146E-1,2.4130778E-2,5.1969653E-1,2.0425853E-1,-8.330224E-1,-1.131014E-1,-1.0600175E-1,-1.2303194E0,4.0224496E-1,-1.136273E-1,-6.8613124E-1,-1.03372246E-1,-2.2609454E-2,-2.3386537E-3,-2.3333736E-2,-1.131014E-1,2.0267391E0,-9.262229E-1,1.4950224E0,1.8360395E-2,1.2885344E0,-2.1410113E-2,-1.104719E-1,-1.4143519E-2,1.7195435E-2,-6.479877E-2,1.2700654E-2,-0E0,-1.23512605E-2,-4.0097127E-4,-5.4671294E-3,9.456945E-3,4.915167E-3,-8.747409E-3,1.9982468E-2,1.4529774E-3,-1.0823713E-2,5.8514024E-3],"split_indices":[2,7,0,2,0,6,2,6,0,0,1,1,0,1,0,0,0,0,0,10,6,10,0,6,0,0,0,0,6,0,0,0,0,0,0,0,0,0,0,0,0],"split_type":[0,0,0,0,0,0,0,0,0,0,0,0,0,0,0,0,0,0,0,0,0,0,0,0,0,0,0,0,0,0,0,0,0,0,0,0,0,0,0,0,0],"sum_hessian":[5.7778906E2,4.0135672E2,1.7643233E2,1.8011649E2,2.2124022E2,1.219273E2,5.8189194E1,8.937108E1,3.2556217E1,3.766703E1,2.0522165E1,1.6015802E1,7.335528E1,1.7025776E1,1.553044E1,3.4996227E1,2.6708026E0,6.882168E0,1.36399975E1,8.29053E0,7.7252707E0,1.5518165E1,5.7837116E1,9.705703E0,7.3200727E0,1.1250739E1,4.2797008E0,8.283634E0,5.3563633E0,4.0053067E0,4.285224E0,3.5694442E0,4.1558266E0,2.9889102E0,1.2529254E1,4.064695E0,5.641008E0,7.7286606E0,3.522079E0,2.1034164E0,3.252947E0],"tree_param":{"num_deleted":"0","num_feature":"11","num_nodes":"41","size_leaf_vector":"1"}},{"base_weights":[-6.2529407E-3,-7.0741147E-1,2.3987856E-2,-9.944854E-1,-2.5857782E-1,-4.256361E-1,-1.1831832E0,9.021774E-2,-5.689707E-1,-1.6678971E-1,-1.9681862E-2,-9.263009E-1,-2.8580565E-2,-2.0970834E-2,2.3906541E-1,-2.1237145E-1,-1.3077173E0,-2.2876814E-2,7.570671E-2,-1.3454373E0,-4.2783448E-1,4.5173725E-1,-6.0312575E-1,-1.0126607E0,2.2424817E-1,-2.7933773E-2,-4.4103542E-1,3.8729644E-1,-6.3973016E-1,-2.6945073E-2,-2.767294E-1,-6.037309E-1,-0E0,-4.0147454E-3,5.166159E-1,-0E0,-7.658891E-1,-2.2398893E-2,-3.453138E-1,5.005438E-1,-4.5470327E-1,-0E0,-1.1524356E-2,-1.056981E-3,9.604217E-3,-1.8321188E-2,6.8697208E-3,1.9517896E-3,-1.1899423E-2,-0E0,-1.3406799E-2,3.598538E-3,-5.49424E-3,4.2605954E-3,1.4680037E-2,-1.874339E-2,-2.1037993E-3,-1.0226837E-2,1.9773634E-4,2.3475548E-3,1.6669484E-2,-1.2974772E-2,-0E0],"categories":[],"categories_nodes":[],"categories_segments":[],"categories_sizes":[],"default_left":[0,0,0,0,0,0,0,0,0,0,0,0,0,0,0,0,0,0,0,0,0,0,0,0,0,0,0,0,0,0,0,0,0,0,0,0,0,0,0,0,0,0,0,0,0,0,0,0,0,0,0,0,0,0,0,0,0,0,0,0,0,0,0],"id":25,"left_children":[1,3,-1,5,7,9,11,13,15,17,-1,19,-1,-1,21,23,25,-1,27,29,31,33,35,37,39,-1,41,43,45,-1,47,49,51,-1,53,-1,55,-1,57,59,61,-1,-1,-1,-1,-1,-1,-1,-1,-1,-1,-1,-1,-1,-1,-1,-1,-1,-1,-1,-1,-1,-1],"loss_changes":[5.220718E2,4.673526E1,0E0,2.209195E1,1.6612026E1,8.823705E0,1.0330917E1,1.3132743E1,1.9621237E1,1.2959762E1,0E0,1.9326218E1,0E0,0E0,1.2452318E1,2.1170126E1,1.4967041E0,0E0,9.349752E0,4.0912094E0,3.6334105E0,2.8255148E0,1.5679617E0,8.05954E-1,7.8654866E0,0E0,6.975744E-1,2.056549E0,5.589776E0,0E0,1.6357954E0,2.166934E0,1.2269547E0,0E0,3.007141E0,0E0,8.4580946E-1,0E0,9.751669E-1,3.4785013E0,1.3891609E0,0E0,0E0,0E0,0E0,0E0,0E0,0E0,0E0,0E0,0E0,0E0,0E0,0E0,0E0,0E0,0E0,0E0,0E0,0E0,0E0,0E0,0E0],"parents":[2147483647,0,0,1,1,3,3,4,4,5,5,6,6,7,7,8,8,9,9,11,11,14,14,15,15,16,16,18,18,19,19,20,20,21,21,22,22,23,23,24,24,26,26,27,27,28,28,30,30,31,31,32,32,34,34,36,36,38,38,39,39,40,40],"right_children":[2,4,-1,6,8,10,12,14,16,18,-1,20,-1,-1,22,24,26,-1,28,30,32,34,36,38,40,-1,42,44,46,-1,48,50,52,-1,54,-1,56,-1,58,60,62,-1,-1,-1,-1,-1,-1,-1,-1,-1,-1,-1,-1,-1,-1,-1,-1,-1,-1,-1,-1,-1,-1],"split_conditions":[-2.645416E-1,-1.131014E-1,2.3987856E-2,-7.547167E-1,-5.35259E-1,4.0224496E-1,2.3875517E-1,-1.2303194E0,1.0952699E0,-1.2303194E0,-1.9681862E-2,-8.454988E-1,-2.8580565E-2,-2.0970834E-2,4.0224496E-1,-6.5057385E-1,-4.0505937E-1,-2.2876814E-2,1.3402525E0,-3.596084E-1,-1.136273E-1,-8.2064664E-1,-1.1231255E-1,5.498568E-1,-8.864704E-2,-2.7933773E-2,-3.739754E-1,-6.597544E-1,1.9481496E0,-2.6945073E-2,8.914174E-2,-6.2178725E-1,-6.321837E-1,-4.0147454E-3,-6.8613124E-1,-0E0,-8.067265E-1,-2.2398893E-2,-7.3687315E-1,1.4029913E0,4.861292E-2,-0E0,-1.1524356E-2,-1.056981E-3,9.604217E-3,-1.8321188E-2,6.8697208E-3,1.9517896E-3,-1.1899423E-2,-0E0,-1.3406799E-2,3.598538E-3,-5.49424E-3,4.2605954E-3,1.4680037E-2,-1.874339E-2,-2.1037993E-3,-1.0226837E-2,1.9773634E-4,2.3475548E-3,1.6669484E-2,-1.2974772E-2,-0E0],"split_indices":[8,0,0,5,5,1,6,1,6,1,0,6,0,0,1,6,8,0,6,8,0,6,0,5,0,0,8,9,6,0,5,8,6,0,1,0,5,0,6,5,0,0,0,0,0,0,0,0,0,0,0,0,0,0,0,0,0,0,0,0,0,0,0],"split_type":[0,0,0,0,0,0,0,0,0,0,0,0,0,0,0,0,0,0,0,0,0,0,0,0,0,0,0,0,0,0,0,0,0,0,0,0,0,0,0,0,0,0,0,0,0,0,0,0,0,0,0,0,0,0,0,0,0,0,0,0,0,0,0],"sum_hessian":[5.6985516E2,3.708415E2,1.9901366E2,2.235786E2,1.472629E2,5.8436897E1,1.6514171E2,6.9263565E1,7.799933E1,4.4312363E1,1.4124535E1,1.0174905E2,6.339266E1,5.3721533E0,6.389141E1,5.5252136E1,2.2747196E1,6.8381467E0,3.7474213E1,5.2389942E1,4.93591E1,5.2466087E1,1.1425323E1,1.8846046E1,3.640609E1,1.6566744E1,6.180452E0,2.745278E1,1.0021435E1,4.646466E1,5.9252806E0,3.354596E1,1.5813141E1,3.3445973E0,4.912149E1,2.5903616E0,8.834961E0,1.2432491E1,6.4135556E0,2.694417E1,9.461918E0,2.4353125E0,3.7451394E0,5.471734E0,2.1981045E1,7.940654E0,2.0807807E0,2.9443471E0,2.9809334E0,6.5876784E0,2.6958282E1,9.167543E0,6.6455975E0,2.7147879E1,2.1973612E1,4.823317E0,4.011644E0,4.2769246E0,2.1366313E0,1.6261404E1,1.0682766E1,5.4715624E0,3.9903553E0],"tree_param":{"num_deleted":"0","num_feature":"11","num_nodes":"63","size_leaf_vector":"1"}},{"base_weights":[2.9419955E-2,7.523594E-1,-2.9916026E-2,9.5193595E-2,2.385974E-2,5.1173383E-1,-7.6200426E-1,-9.5520906E-2,7.628953E-1,-1.1589459E0,-7.267355E-2,1.947473E-1,-1.7083025E-2,1.0950027E0,2.3663342E-1,5.4200706E-3,-2.5453983E-2,7.728097E-1,-2.4722017E-2,5.048826E-1,-2.5919718E-1,5.2407505E-3,2.1187976E-2,6.0179996E-1,-1.18134E-2,1.9165171E-2,1.1034998E-2,1.1871688E-2,-1.3527513E-3,8.049704E-3,-1.0800167E-2,1.4011874E-2,-3.6798157E-3,-4.9980003E-3,7.892897E-3],"categories":[],"categories_nodes":[],"categories_segments":[],"categories_sizes":[],"default_left":[0,0,0,0,0,0,0,0,0,0,0,0,0,0,0,0,0,0,0,0,0,0,0,0,0,0,0,0,0,0,0,0,0,0,0],"id":26,"left_children":[1,3,-1,5,-1,7,9,11,13,15,17,19,-1,21,23,-1,-1,25,-1,27,29,-1,-1,31,-1,-1,33,-1,-1,-1,-1,-1,-1,-1,-1],"loss_changes":[6.8188055E2,1.3841754E2,0E0,6.5722145E1,0E0,1.9523392E1,1.5483494E1,9.901825E0,1.4121098E1,1.2983608E1,2.9445072E1,4.6088076E0,0E0,3.101654E-1,1.3063285E1,0E0,0E0,2.551097E0,0E0,1.9183049E0,3.5462618E0,0E0,0E0,4.16356E0,0E0,0E0,1.1947099E0,0E0,0E0,0E0,0E0,0E0,0E0,0E0,0E0],"parents":[2147483647,0,0,1,1,3,3,5,5,6,6,7,7,8,8,9,9,10,10,11,11,13,13,14,14,17,17,19,19,20,20,23,23,26,26],"right_children":[2,4,-1,6,-1,8,10,12,14,16,18,20,-1,22,24,-1,-1,26,-1,28,30,-1,-1,32,-1,-1,34,-1,-1,-1,-1,-1,-1,-1,-1],"split_conditions":[1.2895836E0,-3.1647444E-1,-2.9916026E-2,-6.6400146E-1,2.385974E-2,-2.9482895E-1,2.0425853E-1,-4.2383873E-1,-1.5623674E-1,-8.294541E-1,8.2124037E-1,9.4643307E-1,-1.7083025E-2,-6.8613124E-1,-6.8613124E-1,5.4200706E-3,-2.5453983E-2,-1.125755E-1,-2.4722017E-2,-3.739754E-1,-8.2688165E-1,5.2407505E-3,2.1187976E-2,-1.088942E-1,-1.18134E-2,1.9165171E-2,4.861292E-2,1.1871688E-2,-1.3527513E-3,8.049704E-3,-1.0800167E-2,1.4011874E-2,-3.6798157E-3,-4.9980003E-3,7.892897E-3],"split_indices":[2,7,0,2,0,4,2,4,4,4,4,1,0,1,1,0,0,0,0,8,4,0,0,0,0,0,0,0,0,0,0,0,0,0,0],"split_type":[0,0,0,0,0,0,0,0,0,0,0,0,0,0,0,0,0,0,0,0,0,0,0,0,0,0,0,0,0,0,0,0,0,0,0],"sum_hessian":[5.711976E2,3.9748206E2,1.7371553E2,1.7939244E2,2.180896E2,1.21847046E2,5.7545395E1,3.5408024E1,8.6439026E1,3.4926464E1,2.2618933E1,2.7022972E1,8.385051E0,5.070135E1,3.573767E1,3.9455147E0,3.0980947E1,1.380347E1,8.815464E0,1.66604E1,1.0362571E1,4.242815E0,4.6458538E1,2.6194265E1,9.5434065E0,9.095171E0,4.7082987E0,1.4147601E1,2.5127993E0,2.4424171E0,7.920154E0,2.2749716E1,3.4445508E0,2.4687119E0,2.2395868E0],"tree_param":{"num_deleted":"0","num_feature":"11","num_nodes":"35","size_leaf_vector":"1"}},{"base_weights":[2.6632966E-2,6.981026E-1,-1.394857E0,1.0304789E-1,2.3689646E-2,-1.5132284E0,1.7858671E-2,4.2433476E-1,-4.2077503E-1,1.2368723E-2,-2.9372105E-2,-1.1981631E-2,6.152114E-1,3.1587857E-1,-1.1456196E0,4.0912634E-1,-2.410854E-1,-4.0491554E-1,7.0114326E-1,5.1187336E-1,-1.2488338E-2,-3.101267E-1,-2.3722708E-2,-7.828283E-4,6.141049E-1,-1.5975598E-2,1.620766E-1,1.3532104E-3,-1.4510164E-2,-7.2811097E-3,7.6381034E-1,7.0469475E-1,-1.0587902E-2,-1.5113618E-2,2.314486E-3,1.5559126E-2,-0E0,9.1057485E-3,-6.846492E-3,1.580556E-2,6.1867544E-3,-2.5519452E-3,1.4947985E-2],"categories":[],"categories_nodes":[],"categories_segments":[],"categories_sizes":[],"default_left":[0,0,0,0,0,0,0,0,0,0,0,0,0,0,0,0,0,0,0,0,0,0,0,0,0,0,0,0,0,0,0,0,0,0,0,0,0,0,0,0,0,0,0],"id":27,"left_children":[1,3,5,7,-1,9,-1,11,13,-1,-1,15,17,19,21,23,25,27,29,31,-1,33,-1,-1,35,-1,37,-1,-1,-1,39,41,-1,-1,-1,-1,-1,-1,-1,-1,-1,-1,-1],"loss_changes":[5.43611E2,1.3162764E2,5.4764496E1,3.3027603E1,0E0,2.8446075E1,0E0,1.052709E1,4.0958443E1,0E0,0E0,3.8611305E0,8.386002E0,8.150721E0,2.276043E0,1.6549616E0,7.576765E0,1.9302431E0,6.4622498E0,8.105067E0,0E0,2.6128795E0,0E0,0E0,1.869967E0,0E0,3.6470335E0,0E0,0E0,0E0,1.5012512E0,3.186777E0,0E0,0E0,0E0,0E0,0E0,0E0,0E0,0E0,0E0,0E0,0E0],"parents":[2147483647,0,0,1,1,2,2,3,3,5,5,7,7,8,8,11,11,12,12,13,13,14,14,15,15,16,16,17,17,18,18,19,19,21,21,24,24,26,26,30,30,31,31],"right_children":[2,4,6,8,-1,10,-1,12,14,-1,-1,16,18,20,22,24,26,28,30,32,-1,34,-1,-1,36,-1,38,-1,-1,-1,40,42,-1,-1,-1,-1,-1,-1,-1,-1,-1,-1,-1],"split_conditions":[-2.0846054E-1,-2.645416E-1,-2.645416E-1,-4.8096368E-1,2.3689646E-2,-9.7798926E-1,1.7858671E-2,-1.136273E-1,-6.984024E-1,1.2368723E-2,-2.9372105E-2,-6.6781706E-1,-9.3253106E-1,-2.9018185E-1,-5.35259E-1,-5.803866E-1,9.4643307E-1,-6.223476E-1,-6.610275E-1,4.0224496E-1,-1.2488338E-2,-1.1389025E-1,-2.3722708E-2,-7.828283E-4,-3.8987082E-1,-1.5975598E-2,2.3049278E0,1.3532104E-3,-1.4510164E-2,-7.2811097E-3,-9.259129E-2,-9.7798926E-1,-1.0587902E-2,-1.5113618E-2,2.314486E-3,1.5559126E-2,-0E0,9.1057485E-3,-6.846492E-3,1.580556E-2,6.1867544E-3,-2.5519452E-3,1.4947985E-2],"split_indices":[3,8,8,3,0,5,0,0,5,0,0,5,5,3,5,8,1,3,3,1,0,0,0,0,8,0,10,0,0,0,0,5,0,0,0,0,0,0,0,0,0,0,0],"split_type":[0,0,0,0,0,0,0,0,0,0,0,0,0,0,0,0,0,0,0,0,0,0,0,0,0,0,0,0,0,0,0,0,0,0,0,0,0,0,0,0,0,0,0],"sum_hessian":[5.650501E2,3.8488943E2,1.8016069E2,1.9122395E2,1.9366548E2,1.7260434E2,7.556346E0,1.19506424E2,7.171754E1,4.20299E0,1.6840135E2,3.6127697E1,8.337872E1,3.5847675E1,3.586986E1,1.1154356E1,2.4973341E1,5.246415E0,7.813231E1,3.1383852E1,4.4638224E0,6.554053E0,2.9315807E1,3.1933844E0,7.960972E0,9.347553E0,1.5625789E1,2.4835734E0,2.762842E0,3.0379596E0,7.509435E1,2.781336E1,3.5704908E0,2.6840317E0,3.870021E0,5.8361435E0,2.1248283E0,1.0457045E1,5.1687436E0,5.9469948E1,1.5624405E1,2.2115474E0,2.5601814E1],"tree_param":{"num_deleted":"0","num_feature":"11","num_nodes":"43","size_leaf_vector":"1"}},{"base_weights":[3.5421576E-3,7.3303044E-1,-2.9253228E-2,9.7203463E-1,-1.168388E0,5.1134557E-1,2.3582231E-2,-3.676247E-2,-2.552711E-2,7.194278E-1,-2.6104727E-1,5.5437665E-3,-3.3016476E-1,9.119257E-1,-3.025723E-1,-8.4304446E-1,7.102208E-1,-0E0,-1.04350895E-2,1.9719686E-2,5.665149E-1,-9.565575E-1,2.6196545E-1,-2.607157E-2,-1.6214445E-1,1.8203858E-2,-9.5654704E-4,1.4436124E-2,-1.4530773E-2,-1.3748697E-3,-2.4195287E-2,1.3741949E-2,-1.114634E-2,1.1490379E-2,-1.8547619E-2],"categories":[],"categories_nodes":[],"categories_segments":[],"categories_sizes":[],"default_left":[0,0,0,0,0,0,0,0,0,0,0,0,0,0,0,0,0,0,0,0,0,0,0,0,0,0,0,0,0,0,0,0,0,0,0],"id":28,"left_children":[1,3,-1,5,7,9,-1,11,-1,13,15,-1,17,19,21,23,25,-1,-1,-1,27,29,31,-1,33,-1,-1,-1,-1,-1,-1,-1,-1,-1,-1],"loss_changes":[6.396187E2,1.7565648E2,0E0,4.3761322E1,9.081844E0,2.2880623E1,0E0,1.1985639E0,0E0,2.2637142E1,1.8740185E1,0E0,7.147916E-1,2.3870392E0,7.93959E0,6.3435373E0,3.1949687E0,0E0,0E0,0E0,1.1246192E1,1.908061E0,5.881516E0,0E0,9.851896E0,0E0,0E0,0E0,0E0,0E0,0E0,0E0,0E0,0E0,0E0],"parents":[2147483647,0,0,1,1,3,3,4,4,5,5,7,7,9,9,10,10,12,12,13,13,14,14,15,15,16,16,20,20,21,21,22,22,24,24],"right_children":[2,4,-1,6,8,10,-1,12,-1,14,16,-1,18,20,22,24,26,-1,-1,-1,28,30,32,-1,34,-1,-1,-1,-1,-1,-1,-1,-1,-1,-1],"split_conditions":[1.2895836E0,-8.503623E-2,-2.9253228E-2,-3.1647444E-1,-9.3253106E-1,-6.6400146E-1,2.3582231E-2,-9.7798926E-1,-2.552711E-2,-3.706766E-1,2.0425853E-1,5.5437665E-3,-1.136273E-1,9.4643307E-1,-1.131014E-1,9.4643307E-1,4.0224496E-1,-0E0,-1.04350895E-2,1.9719686E-2,-5.292863E-1,-5.372859E-1,-1.03372246E-1,-2.607157E-2,-5.331996E-1,1.8203858E-2,-9.5654704E-4,1.4436124E-2,-1.4530773E-2,-1.3748697E-3,-2.4195287E-2,1.3741949E-2,-1.114634E-2,1.1490379E-2,-1.8547619E-2],"split_indices":[2,3,0,7,5,2,0,5,0,3,2,0,0,1,0,1,1,0,0,0,3,7,0,0,3,0,0,0,0,0,0,0,0,0,0],"split_type":[0,0,0,0,0,0,0,0,0,0,0,0,0,0,0,0,0,0,0,0,0,0,0,0,0,0,0,0,0,0,0,0,0,0,0],"sum_hessian":[5.5160144E2,3.7827686E2,1.7332458E2,3.3736713E2,4.0909737E1,1.3541809E2,2.0194905E2,7.140527E0,3.3769207E1,1.07408585E2,2.80095E1,2.3820903E0,4.7584367E0,9.108774E1,1.6320847E1,1.809294E1,9.916561E0,2.4316819E0,2.3267548E0,5.8974606E1,3.2113136E1,7.2609854E0,9.059861E0,8.047612E0,1.0045326E1,7.3861604E0,2.5304008E0,2.90548E1,3.0583339E0,3.3466575E0,3.9143276E0,6.4910927E0,2.5687683E0,5.1584024E0,4.886924E0],"tree_param":{"num_deleted":"0","num_feature":"11","num_nodes":"35","size_leaf_vector":"1"}},{"base_weights":[-1.4339296E-2,-6.432329E-1,2.3447609E-2,-2.7622586E-1,-1.052688E0,-8.162823E-1,4.3494946E-1,-3.0781958E-1,-1.3494931E0,1.543837E-2,-9.7166806E-1,7.192432E-1,-1.7136063E-2,8.139034E-2,-2.553542E-2,-1.3815001E0,-0E0,-5.3415936E-1,-1.4113647E0,-3.2027468E-1,8.7470365E-1,2.6983532E-1,-3.226309E-1,-3.930272E-3,-1.4111097E0,-2.8732982E-1,-1.1495824E0,-2.5096794E-3,-1.4471539E0,3.0651113E-3,-5.507283E-1,2.6735467E-1,9.19676E-1,-1.2031925E-1,5.9801936E-1,-6.719371E-1,1.0065657E-2,-9.6566755E-1,-2.8695142E-2,-1.3390581E-2,1.0007651E-2,-2.313414E-3,-2.4807278E-2,-2.9655272E-2,-1.3490472E-2,-1.0578664E-3,-1.3025725E-2,-8.986999E-4,9.343503E-3,1.889196E-4,1.7774163E-2,4.31109E-3,-1.5089269E-2,1.2302068E-3,1.6560739E-2,-1.7750539E-2,-0E0,-6.1685923E-3,-2.436694E-2],"categories":[],"categories_nodes":[],"categories_segments":[],"categories_sizes":[],"default_left":[0,0,0,0,0,0,0,0,0,0,0,0,0,0,0,0,0,0,0,0,0,0,0,0,0,0,0,0,0,0,0,0,0,0,0,0,0,0,0,0,0,0,0,0,0,0,0,0,0,0,0,0,0,0,0,0,0,0,0],"id":29,"left_children":[1,3,-1,5,7,9,11,13,15,-1,17,19,-1,21,-1,23,-1,25,27,29,31,33,35,-1,37,39,41,-1,43,-1,45,47,49,51,53,55,-1,57,-1,-1,-1,-1,-1,-1,-1,-1,-1,-1,-1,-1,-1,-1,-1,-1,-1,-1,-1,-1,-1],"loss_changes":[4.413495E2,5.3978943E1,0E0,7.739807E1,3.6229477E1,3.1274414E1,3.4997147E1,2.2993343E1,6.043869E0,0E0,1.7386452E1,1.2891495E1,0E0,3.2779548E0,0E0,2.476303E0,0E0,7.1084595E0,9.1013336E-1,1.6607662E0,4.8458862E-1,4.303631E0,4.901085E0,0E0,1.7367859E0,1.714931E1,1.5811481E0,0E0,1.0047836E0,0E0,1.053679E-1,9.8000765E-1,1.3473244E0,4.4340167E0,2.026877E0,1.7810564E0,0E0,5.4250393E0,0E0,0E0,0E0,0E0,0E0,0E0,0E0,0E0,0E0,0E0,0E0,0E0,0E0,0E0,0E0,0E0,0E0,0E0,0E0,0E0,0E0],"parents":[2147483647,0,0,1,1,3,3,4,4,5,5,6,6,7,7,8,8,10,10,11,11,13,13,15,15,17,17,18,18,19,19,20,20,21,21,22,22,24,24,25,25,26,26,28,28,30,30,31,31,32,32,33,33,34,34,35,35,37,37],"right_children":[2,4,-1,6,8,10,12,14,16,-1,18,20,-1,22,-1,24,-1,26,28,30,32,34,36,-1,38,40,42,-1,44,-1,46,48,50,52,54,56,-1,58,-1,-1,-1,-1,-1,-1,-1,-1,-1,-1,-1,-1,-1,-1,-1,-1,-1,-1,-1,-1,-1],"split_conditions":[-1.5631127E-1,-1.7778122E-1,2.3447609E-2,-2.9071298E-1,-7.547167E-1,-8.315764E-1,1.0952699E0,8.2124037E-1,3.1298974E0,1.543837E-2,-4.02683E-1,-8.454988E-1,-1.7136063E-2,1.447463E0,-2.553542E-2,-1.5855198E-1,-0E0,-4.2383873E-1,-8.0372936E-1,-7.792813E-1,-1.1389025E-1,-1.3164113E-1,4.0863447E0,-3.930272E-3,-4.4265786E-1,-4.792756E-1,-9.044363E-1,-2.5096794E-3,1.363226E0,3.0651113E-3,1.661301E0,-1.4914997E-1,-7.8352517E-1,2.4404082E-1,8.937058E-2,-4.555614E-1,1.0065657E-2,8.55762E-2,-2.8695142E-2,-1.3390581E-2,1.0007651E-2,-2.313414E-3,-2.4807278E-2,-2.9655272E-2,-1.3490472E-2,-1.0578664E-3,-1.3025725E-2,-8.986999E-4,9.343503E-3,1.889196E-4,1.7774163E-2,4.31109E-3,-1.5089269E-2,1.2302068E-3,1.6560739E-2,-1.7750539E-2,-0E0,-6.1685923E-3,-2.436694E-2],"split_indices":[9,4,0,4,5,4,6,4,5,0,5,6,0,6,0,4,0,4,4,5,0,6,10,0,5,4,5,0,5,0,10,5,6,4,4,9,0,4,0,0,0,0,0,0,0,0,0,0,0,0,0,0,0,0,0,0,0,0,0],"split_type":[0,0,0,0,0,0,0,0,0,0,0,0,0,0,0,0,0,0,0,0,0,0,0,0,0,0,0,0,0,0,0,0,0,0,0,0,0,0,0,0,0,0,0,0,0,0,0,0,0,0,0,0,0,0,0,0,0,0,0],"sum_hessian":[5.4580115E2,3.6666757E2,1.7913362E2,1.9625838E2,1.7040918E2,1.1181414E2,8.444424E1,5.0528915E1,1.19880264E2,8.405769E0,1.0340837E2,7.111527E1,1.3328967E1,3.8251278E1,1.2277636E1,1.1744519E2,2.4350727E0,5.5200333E1,4.820804E1,8.42549E0,6.268978E1,2.7625576E1,1.0625703E1,3.8758626E0,1.1356933E2,4.262377E1,1.2576561E1,2.0783339E0,4.6129704E1,2.1162992E0,6.3091908E0,6.3851542E0,5.630463E1,1.2507667E1,1.511791E1,8.434918E0,2.190784E0,3.1627628E1,8.19417E1,2.8632421E1,1.3991349E1,3.0252628E0,9.551298E0,3.5171E1,1.0958703E1,3.1608782E0,3.1483128E0,2.4850972E0,3.9000568E0,2.899193E0,5.3405437E1,8.793651E0,3.7140157E0,7.135568E0,7.982342E0,4.906215E0,3.5287037E0,1.3423566E1,1.8204063E1],"tree_param":{"num_deleted":"0","num_feature":"11","num_nodes":"59","size_leaf_vector":"1"}},{"base_weights":[5.3176293E-3,7.0335275E-1,-2.877591E-2,9.9352974E-1,-9.7894067E-1,6.2095964E-1,2.3286914E-2,-1.2385688E0,1.5884358E-2,8.319308E-1,-2.5123623E-1,1.1951899E-2,-2.7216308E-2,9.797552E-1,-9.061664E-2,-7.6042825E-1,3.3044958E-1,3.2579514E-1,1.0726126E0,4.1737884E-1,-6.6162884E-1,-2.0088997E-2,6.923247E-3,6.52425E-1,-4.5622797E-3,1.1959637E-2,-4.015571E-3,2.088601E-2,7.143622E-3,1.114624E-2,-0E0,-2.0038236E-2,2.6286473E-3,3.205765E-4,1.40722925E-2],"categories":[],"categories_nodes":[],"categories_segments":[],"categories_sizes":[],"default_left":[0,0,0,0,0,0,0,0,0,0,0,0,0,0,0,0,0,0,0,0,0,0,0,0,0,0,0,0,0,0,0,0,0,0,0],"id":30,"left_children":[1,3,-1,5,7,9,-1,11,-1,13,15,-1,-1,17,19,21,23,25,27,29,31,-1,-1,33,-1,-1,-1,-1,-1,-1,-1,-1,-1,-1,-1],"loss_changes":[6.016854E2,1.895775E2,0E0,2.8706177E1,3.00905E1,2.6696117E1,0E0,2.4590347E1,0E0,1.631353E1,9.359097E0,0E0,0E0,4.3537445E0,5.8763294E0,7.399972E0,3.3246899E0,3.4448357E0,1.0338745E0,1.0956076E0,4.1605597E0,0E0,0E0,2.2029781E-1,0E0,0E0,0E0,0E0,0E0,0E0,0E0,0E0,0E0,0E0,0E0],"parents":[2147483647,0,0,1,1,3,3,4,4,5,5,7,7,9,9,10,10,13,13,14,14,15,15,16,16,17,17,18,18,19,19,20,20,23,23],"right_children":[2,4,-1,6,8,10,-1,12,-1,14,16,-1,-1,18,20,22,24,26,28,30,32,-1,-1,34,-1,-1,-1,-1,-1,-1,-1,-1,-1,-1,-1],"split_conditions":[1.2895836E0,-2.0846054E-1,-2.877591E-2,-2.694516E-1,-2.645416E-1,-6.6400146E-1,2.3286914E-2,-9.7798926E-1,1.5884358E-2,-3.7884414E-1,-2.2987148E-1,1.1951899E-2,-2.7216308E-2,-4.8596406E-1,-7.792813E-1,6.833366E-1,-4.6804392E-1,-6.382547E-1,7.207065E-2,1.6001433E0,-4.0505937E-1,-2.0088997E-2,6.923247E-3,-2.2835782E-1,-4.5622797E-3,1.1959637E-2,-4.015571E-3,2.088601E-2,7.143622E-3,1.114624E-2,-0E0,-2.0038236E-2,2.6286473E-3,3.205765E-4,1.40722925E-2],"split_indices":[2,3,0,8,8,2,0,5,0,3,2,0,0,4,5,5,5,4,4,6,8,0,0,6,0,0,0,0,0,0,0,0,0,0,0],"split_type":[0,0,0,0,0,0,0,0,0,0,0,0,0,0,0,0,0,0,0,0,0,0,0,0,0,0,0,0,0,0,0,0,0,0,0],"sum_hessian":[5.506297E2,3.8105835E2,1.6957135E2,3.2614572E2,5.4912647E1,1.3803825E2,1.8810745E2,4.907154E1,5.8411064E0,1.11784256E2,2.6254004E1,4.4857655E0,4.4585773E1,9.676449E1,1.5019769E1,1.4138978E1,1.2115026E1,1.4179617E1,8.258487E1,7.750758E0,7.2690105E0,1.1515894E1,2.6230845E0,8.216413E0,3.8986132E0,9.3368225E0,4.842794E0,7.4695526E1,7.889346E0,5.553428E0,2.19733E0,4.7216234E0,2.5473874E0,2.3532462E0,5.8631663E0],"tree_param":{"num_deleted":"0","num_feature":"11","num_nodes":"35","size_leaf_vector":"1"}},{"base_weights":[8.509434E-3,-7.3971176E-1,2.3321778E-2,-5.4746795E-1,-1.3539095E0,-5.3441126E-2,-9.013487E-1,-1.4042702E0,6.858361E-5,3.1313658E-1,-6.917117E-1,-1.1037382E0,-4.412882E-2,-5.560461E-1,-2.8118059E-2,-6.153109E-2,5.705014E-1,-2.4193862E-2,3.235721E-1,1.7049152E-2,-1.2158313E0,3.5348222E-1,-2.2139285E-2,-0E0,-1.7838413E-2,1.4373744E-1,-1.3698129E-2,7.815993E-1,-0E0,-1.06665315E-2,6.964277E-1,-2.7332084E-2,-9.3755263E-1,-5.4971415E-1,7.3070043E-1,-4.4336016E-3,6.0290005E-3,-7.1500423E-3,7.0050033E-3,1.5655372E-2,6.20108E-4,6.5905927E-3,-7.2761895E-3,1.668389E-2,3.4008499E-3,-1.0921748E-3,-2.387081E-2,-0E0,-1.2984764E-2,9.134722E-4,1.5329286E-2],"categories":[],"categories_nodes":[],"categories_segments":[],"categories_sizes":[],"default_left":[0,0,0,0,0,0,0,0,0,0,0,0,0,0,0,0,0,0,0,0,0,0,0,0,0,0,0,0,0,0,0,0,0,0,0,0,0,0,0,0,0,0,0,0,0,0,0,0,0,0,0],"id":31,"left_children":[1,3,-1,5,7,9,11,13,-1,15,17,19,21,23,-1,25,27,-1,29,-1,31,33,-1,35,-1,37,-1,39,41,-1,43,-1,45,47,49,-1,-1,-1,-1,-1,-1,-1,-1,-1,-1,-1,-1,-1,-1,-1,-1],"loss_changes":[5.140526E2,3.770862E1,0E0,4.5975792E1,6.2795105E0,2.7573687E1,2.6036064E1,3.816803E0,0E0,7.5111365E0,2.8309439E1,3.1072388E1,1.638624E1,3.4470391E0,0E0,4.952149E0,5.0539513E0,0E0,6.990752E0,0E0,3.6704712E0,9.84396E0,0E0,8.069496E-1,0E0,3.476548E0,0E0,8.7498856E-1,2.424796E0,0E0,4.2376757E-1,0E0,1.8726692E1,5.234716E-1,6.441107E-1,0E0,0E0,0E0,0E0,0E0,0E0,0E0,0E0,0E0,0E0,0E0,0E0,0E0,0E0,0E0,0E0],"parents":[2147483647,0,0,1,1,3,3,4,4,5,5,6,6,7,7,9,9,10,10,11,11,12,12,13,13,15,15,16,16,18,18,20,20,21,21,23,23,25,25,27,27,28,28,30,30,32,32,33,33,34,34],"right_children":[2,4,-1,6,8,10,12,14,-1,16,18,20,22,24,-1,26,28,-1,30,-1,32,34,-1,36,-1,38,-1,40,42,-1,44,-1,46,48,50,-1,-1,-1,-1,-1,-1,-1,-1,-1,-1,-1,-1,-1,-1,-1,-1],"split_conditions":[-3.1647444E-1,1.826229E-1,2.3321778E-2,4.0224496E-1,3.1298974E0,-5.35259E-1,1.3380675E0,-9.1074616E-1,6.858361E-5,-2.4903888E-1,-6.8613124E-1,-8.294541E-1,3.817743E-1,6.6020334E-1,-2.8118059E-2,-4.2383873E-1,1.3402525E0,-2.4193862E-2,-2.9482895E-1,1.7049152E-2,-2.864041E-1,-7.8352517E-1,-2.2139285E-2,-9.62756E-1,-1.7838413E-2,-7.9196024E-1,-1.3698129E-2,-6.6781706E-1,-4.6266335E-1,-1.06665315E-2,-2.553414E-1,-2.7332084E-2,-2.1598254E-1,1.5469484E0,-4.399167E-1,-4.4336016E-3,6.0290005E-3,-7.1500423E-3,7.0050033E-3,1.5655372E-2,6.20108E-4,6.5905927E-3,-7.2761895E-3,1.668389E-2,3.4008499E-3,-1.0921748E-3,-2.387081E-2,-0E0,-1.2984764E-2,9.134722E-4,1.5329286E-2],"split_indices":[7,4,0,1,5,5,5,5,0,4,1,4,6,4,0,4,6,0,4,0,4,6,0,5,0,4,0,5,7,0,4,0,4,5,4,0,0,0,0,0,0,0,0,0,0,0,0,0,0,0,0],"split_type":[0,0,0,0,0,0,0,0,0,0,0,0,0,0,0,0,0,0,0,0,0,0,0,0,0,0,0,0,0,0,0,0,0,0,0,0,0,0,0,0,0,0,0,0,0,0,0,0,0,0,0],"sum_hessian":[5.463016E2,3.4163513E2,2.0466644E2,2.64423E2,7.721212E1,1.1221857E2,1.5220444E2,7.478652E1,2.4255977E0,7.1482735E1,4.0735836E1,1.220136E2,3.0190842E1,1.0748704E1,6.403782E1,2.8932634E1,4.25501E1,2.5387959E1,1.5347877E1,5.220347E0,1.1679325E2,2.3285463E1,6.905377E0,5.0073385E0,5.7413654E0,2.2988064E1,5.9445696E0,2.9807096E1,1.2743001E1,3.6592858E0,1.168859E1,5.4498367E1,6.2294888E1,6.0743585E0,1.7211105E1,2.3463662E0,2.660972E0,5.781493E0,1.7206572E1,2.6573496E1,3.2336001E0,7.4296546E0,5.3133464E0,6.2748184E0,5.413772E0,1.8891075E1,4.3403812E1,2.1619005E0,3.9124582E0,3.2859602E0,1.3925145E1],"tree_param":{"num_deleted":"0","num_feature":"11","num_nodes":"51","size_leaf_vector":"1"}},{"base_weights":[-1.4534408E-3,6.932491E-1,-2.8231125E-2,9.447072E-1,-1.1289093E0,5.4768556E-1,2.2999788E-2,-1.3036124E0,1.1671938E-2,7.3678106E-1,-1.8086624E-1,3.908248E-3,-2.6216777E-2,9.27794E-1,-1.3061039E-1,-6.438087E-1,7.094119E-1,1.0612433E0,5.7895476E-1,-6.9267774E-1,3.9733627E-1,-9.279379E-2,-2.109724E-2,-3.0569322E-3,1.9240154E-2,1.22003075E-4,2.037939E-2,1.6176647E-2,-8.994629E-3,-3.4264326E-3,-1.9882321E-2,1.5002678E-2,-6.9888025E-3,-7.3675155E-3,6.3959504E-3],"categories":[],"categories_nodes":[],"categories_segments":[],"categories_sizes":[],"default_left":[0,0,0,0,0,0,0,0,0,0,0,0,0,0,0,0,0,0,0,0,0,0,0,0,0,0,0,0,0,0,0,0,0,0,0],"id":32,"left_children":[1,3,-1,5,7,9,-1,11,-1,13,15,-1,-1,17,19,21,23,25,27,29,31,33,-1,-1,-1,-1,-1,-1,-1,-1,-1,-1,-1,-1,-1],"loss_changes":[5.734531E2,1.7323802E2,0E0,3.5494904E1,1.6507545E1,2.059227E1,0E0,8.342392E0,0E0,1.9988773E1,1.3906238E1,0E0,0E0,2.0112305E0,7.524536E0,5.027133E0,4.1587768E0,1.7328415E0,1.1493306E1,1.14679E0,4.9859056E0,2.173466E0,0E0,0E0,0E0,0E0,0E0,0E0,0E0,0E0,0E0,0E0,0E0,0E0,0E0],"parents":[2147483647,0,0,1,1,3,3,4,4,5,5,7,7,9,9,10,10,13,13,14,14,15,15,16,16,17,17,18,18,19,19,20,20,21,21],"right_children":[2,4,-1,6,8,10,-1,12,-1,14,16,-1,-1,18,20,22,24,26,28,30,32,34,-1,-1,-1,-1,-1,-1,-1,-1,-1,-1,-1,-1,-1],"split_conditions":[1.2895836E0,-1.0809999E-1,-2.8231125E-2,-2.694516E-1,-2.645416E-1,-6.6400146E-1,2.2999788E-2,-9.7798926E-1,1.1671938E-2,-3.8793945E-1,2.0425853E-1,3.908248E-3,-2.6216777E-2,-5.646128E-1,-1.131014E-1,-5.331996E-1,-4.7700438E-1,-6.586085E-1,-2.9035294E-1,-4.53397E-1,-1.03372246E-1,-2.2987148E-1,-2.109724E-2,-3.0569322E-3,1.9240154E-2,1.22003075E-4,2.037939E-2,1.6176647E-2,-8.994629E-3,-3.4264326E-3,-1.9882321E-2,1.5002678E-2,-6.9888025E-3,-7.3675155E-3,6.3959504E-3],"split_indices":[2,3,0,8,8,2,0,5,0,3,2,0,0,3,0,3,3,3,5,5,0,2,0,0,0,0,0,0,0,0,0,0,0,0,0],"split_type":[0,0,0,0,0,0,0,0,0,0,0,0,0,0,0,0,0,0,0,0,0,0,0,0,0,0,0,0,0,0,0,0,0,0,0],"sum_hessian":[5.3885974E2,3.702349E2,1.6862486E2,3.266496E2,4.3585274E1,1.4232376E2,1.8432584E2,4.0516678E1,3.068597E0,1.1361336E2,2.871041E1,2.1431093E0,3.837357E1,9.352493E1,2.0088427E1,1.9764736E1,8.945673E0,6.283978E1,3.0685152E1,9.90078E0,1.0187648E1,1.1236594E1,8.528142E0,2.264224E0,6.6814494E0,2.6394558E0,6.020032E1,2.4866936E1,5.8182163E0,6.4169416E0,3.4838376E0,7.0868793E0,3.100768E0,7.5560308E0,3.6805634E0],"tree_param":{"num_deleted":"0","num_feature":"11","num_nodes":"35","size_leaf_vector":"1"}},{"base_weights":[5.0222487E-3,-7.0972407E-1,2.309203E-2,1.574868E-1,-1.3840729E0,5.410662E-1,-2.2350396E-1,-1.4119107E0,2.4532448E-3,-7.937659E-3,6.235867E-1,1.4397204E-1,-8.287824E-1,-1.0976745E0,-2.810381E-2,-2.4387144E-1,7.0188E-1,-6.587618E-2,5.699888E-1,-1.7474608E-1,-9.6145713E-1,-2.7575257E-1,-2.2413172E-2,4.0133316E-3,-1.3389988E-2,3.777006E-1,8.005625E-1,-4.9878123E-1,2.4386504E-1,1.3640765E-2,-1.8781901E-4,2.7833362E-3,-1.0782291E-2,-2.127746E-2,-1.2264561E-1,-1.2311215E-2,1.2768428E-3,1.0657396E-2,-0E0,1.7055027E-2,-0E0,-0E0,-1.39649445E-2,-6.086436E-3,9.024499E-3,1.6167212E-3,-8.270387E-3],"categories":[],"categories_nodes":[],"categories_segments":[],"categories_sizes":[],"default_left":[0,0,0,0,0,0,0,0,0,0,0,0,0,0,0,0,0,0,0,0,0,0,0,0,0,0,0,0,0,0,0,0,0,0,0,0,0,0,0,0,0,0,0,0,0,0,0],"id":33,"left_children":[1,3,-1,5,7,9,11,13,-1,-1,15,17,19,21,-1,23,25,27,29,31,33,35,-1,-1,-1,37,39,41,43,-1,-1,-1,-1,-1,45,-1,-1,-1,-1,-1,-1,-1,-1,-1,-1,-1,-1],"loss_changes":[4.760571E2,2.0052429E2,0E0,2.2527512E1,9.320251E0,6.8854427E0,1.7738462E1,3.656311E-1,0E0,0E0,5.586899E0,4.7814813E0,1.5208282E0,3.2738647E0,0E0,2.2411604E0,7.315483E-1,5.0295644E0,2.0941062E0,1.6150899E0,2.5339546E0,1.8243438E0,0E0,0E0,0E0,1.2727604E0,4.295141E0,2.219372E0,3.3443303E0,0E0,0E0,0E0,0E0,0E0,8.116709E-1,0E0,0E0,0E0,0E0,0E0,0E0,0E0,0E0,0E0,0E0,0E0,0E0],"parents":[2147483647,0,0,1,1,3,3,4,4,5,5,6,6,7,7,10,10,11,11,12,12,13,13,15,15,16,16,17,17,18,18,19,19,20,20,21,21,25,25,26,26,27,27,28,28,34,34],"right_children":[2,4,-1,6,8,10,12,14,-1,-1,16,18,20,22,-1,24,26,28,30,32,34,36,-1,-1,-1,38,40,42,44,-1,-1,-1,-1,-1,46,-1,-1,-1,-1,-1,-1,-1,-1,-1,-1,-1,-1],"split_conditions":[-3.1647444E-1,-3.175713E-1,2.309203E-2,-5.712428E-1,2.1788137E0,-8.5578585E-1,4.0224496E-1,2.7364565E-2,2.4532448E-3,-7.937659E-3,-6.586085E-1,-6.8613124E-1,-5.331996E-1,1.4398044E0,-2.810381E-2,-5.3650224E-1,-6.436975E-1,-4.3054107E-1,5.480706E-2,2.8210785E0,-3.8987082E-1,-3.2068554E-1,-2.2413172E-2,4.0133316E-3,-1.3389988E-2,2.1922183E0,-3.596084E-1,-1.0768987E0,1.7410548E0,1.3640765E-2,-1.8781901E-4,2.7833362E-3,-1.0782291E-2,-2.127746E-2,2.1922183E0,-1.2311215E-2,1.2768428E-3,1.0657396E-2,-0E0,1.7055027E-2,-0E0,-0E0,-1.39649445E-2,-6.086436E-3,9.024499E-3,1.6167212E-3,-8.270387E-3],"split_indices":[7,3,0,3,6,6,1,3,0,0,3,1,3,10,0,8,3,3,6,10,8,6,0,0,0,10,8,6,10,0,0,0,0,0,10,0,0,0,0,0,0,0,0,0,0,0,0],"split_type":[0,0,0,0,0,0,0,0,0,0,0,0,0,0,0,0,0,0,0,0,0,0,0,0,0,0,0,0,0,0,0,0,0,0,0,0,0,0,0,0,0,0,0,0,0,0,0],"sum_hessian":[5.332594E2,3.3832513E2,1.949343E2,1.4843321E2,1.8989192E2,7.422388E1,7.420933E1,1.8701187E2,2.880049E0,4.4751954E0,6.974868E1,4.6724808E1,2.748452E1,5.3458878E1,1.33553E2,4.728157E0,6.502052E1,3.1758514E1,1.4966295E1,6.3307147E0,2.1153805E1,7.831061E0,4.5627815E1,2.455312E0,2.2728453E0,1.9299435E1,4.572109E1,1.3417166E1,1.8341349E1,1.1960207E1,3.0060878E0,3.5623567E0,2.768358E0,1.6065649E1,5.088157E0,3.4369693E0,4.3940916E0,1.0878802E1,8.420633E0,3.935216E1,6.3689284E0,4.9244504E0,8.492715E0,4.4715014E0,1.3869847E1,3.0542703E0,2.0338871E0],"tree_param":{"num_deleted":"0","num_feature":"11","num_nodes":"47","size_leaf_vector":"1"}},{"base_weights":[-6.3193557E-3,9.023801E-1,-1.1159679E0,1.0453856E0,-8.936567E-1,-1.3435026E0,2.0949977E-2,6.8984765E-1,2.2797508E-2,-1.2745235E0,1.2146072E-2,7.519945E-3,-1.3950773E0,8.601127E-1,-4.9861472E-2,-2.5404539E-2,-1.9421537E-3,-1.4288167E0,1.05988696E-1,1.2466684E-1,9.469968E-1,-5.75111E-1,4.8886654E-1,-1.0284941E0,-2.8272675E-2,5.944916E-3,-5.8173557E-4,9.706952E-3,-8.302608E-3,2.0398859E-2,4.6025395E-1,-1.8237378E-2,-0E0,1.20905265E-2,-0E0,-1.3476597E0,-2.481519E-1,1.4817602E-2,7.9930614E-4,3.5406316E-3,-3.2597468E-3,-5.0859884E-3,-2.614335E-2,8.085676E-3,-2.0547323E-2],"categories":[],"categories_nodes":[],"categories_segments":[],"categories_sizes":[],"default_left":[0,0,0,0,0,0,0,0,0,0,0,0,0,0,0,0,0,0,0,0,0,0,0,0,0,0,0,0,0,0,0,0,0,0,0,0,0,0,0,0,0,0,0,0,0],"id":34,"left_children":[1,3,5,7,9,11,-1,13,-1,15,-1,-1,17,19,21,-1,-1,23,25,27,29,31,33,35,-1,-1,-1,-1,-1,-1,37,-1,39,-1,-1,41,43,-1,-1,-1,-1,-1,-1,-1,-1],"loss_changes":[5.383696E2,7.766307E1,1.26588684E2,1.4361786E1,1.5721319E1,2.1766937E1,0E0,1.300481E1,0E0,8.621197E-1,0E0,0E0,1.2000793E1,4.258316E0,6.4248877E0,0E0,0E0,2.426117E0,3.8700876E-1,3.350317E0,3.07135E0,2.7679636E0,1.0399139E0,1.0182159E1,0E0,0E0,0E0,0E0,0E0,0E0,2.5038195E0,0E0,3.2591578E-1,0E0,0E0,1.4495087E-1,1.1756827E1,0E0,0E0,0E0,0E0,0E0,0E0,0E0,0E0],"parents":[2147483647,0,0,1,1,2,2,3,3,4,4,5,5,7,7,9,9,12,12,13,13,14,14,17,17,18,18,19,19,20,20,21,21,22,22,23,23,30,30,32,32,35,35,36,36],"right_children":[2,4,6,8,10,12,-1,14,-1,16,-1,-1,18,20,22,-1,-1,24,26,28,30,32,34,36,-1,-1,-1,-1,-1,-1,38,-1,40,-1,-1,42,44,-1,-1,-1,-1,-1,-1,-1,-1],"split_conditions":[-6.6400146E-1,-2.0846054E-1,-3.1647444E-1,-3.6537388E-1,-3.1647444E-1,-8.294541E-1,2.0949977E-2,-3.8793945E-1,2.2797508E-2,2.0153062E-1,1.2146072E-2,7.519945E-3,2.0896745E0,-5.3053224E-1,-4.4141024E-2,-2.5404539E-2,-1.9421537E-3,1.2895836E0,1.2895836E0,-4.6506712E-1,-5.60062E-1,1.4376749E0,1.6001433E0,2.0425853E-1,-2.8272675E-2,5.944916E-3,-5.8173557E-4,9.706952E-3,-8.302608E-3,2.0398859E-2,-5.68427E-1,-1.8237378E-2,-5.5135775E-1,1.20905265E-2,-0E0,-6.2689626E-1,8.2124037E-1,1.4817602E-2,7.9930614E-4,3.5406316E-3,-3.2597468E-3,-5.0859884E-3,-2.614335E-2,8.085676E-3,-2.0547323E-2],"split_indices":[2,3,7,7,7,4,0,3,0,4,0,0,6,4,4,0,0,2,2,6,3,6,6,2,0,0,0,0,0,0,9,0,9,0,0,3,4,0,0,0,0,0,0,0,0],"split_type":[0,0,0,0,0,0,0,0,0,0,0,0,0,0,0,0,0,0,0,0,0,0,0,0,0,0,0,0,0,0,0,0,0,0,0,0,0,0,0,0,0,0,0,0,0],"sum_hessian":[5.289362E2,2.9075775E2,2.3817848E2,2.705577E2,2.0200047E1,2.1736221E2,2.0816277E1,9.62237E1,1.74334E2,1.6856956E1,3.3430915E0,5.4269853E0,2.1193523E2,7.854251E1,1.7681189E1,1.4787455E1,2.069501E0,2.0777301E2,4.162214E0,9.6372795E0,6.890523E1,9.420945E0,8.260243E0,4.5475227E1,1.6229779E2,2.0359108E0,2.126303E0,6.4123406E0,3.224939E0,4.941246E1,1.949277E1,4.5208564E0,4.900089E0,6.0711594E0,2.1890843E0,3.0486929E1,1.4988298E1,8.785878E0,1.0706891E1,2.2551293E0,2.6449597E0,2.8028967E0,2.7684032E1,8.625669E0,6.3626304E0],"tree_param":{"num_deleted":"0","num_feature":"11","num_nodes":"45","size_leaf_vector":"1"}},{"base_weights":[1.6480029E-2,-6.8783367E-1,2.2873767E-2,8.782326E-2,-1.363842E0,6.149583E-1,-1.859223E-1,1.2560175E-2,-1.4230181E0,1.820885E-1,8.1606233E-1,3.7518796E-1,-7.793943E-1,-4.0634072E-1,-2.7058791E-2,-2.7417356E-1,1.4873706E-2,2.0924191E-1,1.6565658E-2,5.964183E-1,-5.822485E-1,-2.8757757E-1,-1.0991278E0,1.4369478E-3,-1.5645295E-2,1.4006547E-2,-1.3784381E-2,-0E0,5.5293753E-3,-4.7357734E-3,7.009696E-1,-0E0,-1.5404679E-2,-1.2552992E-2,6.3407426E-3,-2.2121642E-2,-4.742503E-3,-1.7950932E-3,4.1467836E-3,1.3976252E-2,-0E0,