{"learner":{"attributes":{"scikit_learn":"{\"_estimator_type\": \"classifier\"}"},"feature_names":["elev_1","slope_1","log_flowacc","geol_1","lulc_1","distriver_1","twi_1","rain_1h","rain_3h","rain_6h","cluster_id"],"feature_types":["float","float","float","c","c","float","float","float","float","float","c"],"gradient_booster":{"model":{"cats":{"enc":[{"offsets":[],"values":[]},{"offsets":[],"values":[]},{"offsets":[],"values":[]},{"type":15,"values":[-1,1,2,3,4,5,6,7]},{"type":15,"values":[-1,1,2,3,4,5,6,7,9,10,11]},{"offsets":[],"values":[]},{"offsets":[],"values":[]},{"offsets":[],"values":[]},{"offsets":[],"values":[]},{"offsets":[],"values":[]},{"type":15,"values":[0,1,2,3,5,6]}],"feature_segments":[0,0,0,0,8,19,19,19,19,19,19,25],"sorted_idx":[0,1,2,3,4,5,6,7,0,1,2,3,4,5,6,7,8,9,10,0,1,2,3,4,5]},"gbtree_model_param":{"num_parallel_tree":"1","num_trees":"500"},"iteration_indptr":[0,1,2,3,4,5,6,7,8,9,10,11,12,13,14,15,16,17,18,19,20,21,22,23,24,25,26,27,28,29,30,31,32,33,34,35,36,37,38,39,40,41,42,43,44,45,46,47,48,49,50,51,52,53,54,55,56,57,58,59,60,61,62,63,64,65,66,67,68,69,70,71,72,73,74,75,76,77,78,79,80,81,82,83,84,85,86,87,88,89,90,91,92,93,94,95,96,97,98,99,100,101,102,103,104,105,106,107,108,109,110,111,112,113,114,115,116,117,118,119,120,121,122,123,124,125,126,127,128,129,130,131,132,133,134,135,136,137,138,139,140,141,142,143,144,145,146,147,148,149,150,151,152,153,154,155,156,157,158,159,160,161,162,163,164,165,166,167,168,169,170,171,172,173,174,175,176,177,178,179,180,181,182,183,184,185,186,187,188,189,190,191,192,193,194,195,196,197,198,199,200,201,202,203,204,205,206,207,208,209,210,211,212,213,214,215,216,217,218,219,220,221,222,223,224,225,226,227,228,229,230,231,232,233,234,235,236,237,238,239,240,241,242,243,244,245,246,247,248,249,250,251,252,253,254,255,256,257,258,259,260,261,262,263,264,265,266,267,268,269,270,271,272,273,274,275,276,277,278,279,280,281,282,283,284,285,286,287,288,289,290,291,292,293,294,295,296,297,298,299,300,301,302,303,304,305,306,307,308,309,310,311,312,313,314,315,316,317,318,319,320,321,322,323,324,325,326,327,328,329,330,331,332,333,334,335,336,337,338,339,340,341,342,343,344,345,346,347,348,349,350,351,352,353,354,355,356,357,358,359,360,361,362,363,364,365,366,367,368,369,370,371,372,373,374,375,376,377,378,379,380,381,382,383,384,385,386,387,388,389,390,391,392,393,394,395,396,397,398,399,400,401,402,403,404,405,406,407,408,409,410,411,412,413,414,415,416,417,418,419,420,421,422,423,424,425,426,427,428,429,430,431,432,433,434,435,436,437,438,439,440,441,442,443,444,445,446,447,448,449,450,451,452,453,454,455,456,457,458,459,460,461,462,463,464,465,466,467,468,469,470,471,472,473,474,475,476,477,478,479,480,481,482,483,484,485,486,487,488,489,490,491,492,493,494,495,496,497,498,499,500],"tree_info":[0,0,0,0,0,0,0,0,0,0,0,0,0,0,0,0,0,0,0,0,0,0,0,0,0,0,0,0,0,0,0,0,0,0,0,0,0,0,0,0,0,0,0,0,0,0,0,0,0,0,0,0,0,0,0,0,0,0,0,0,0,0,0,0,0,0,0,0,0,0,0,0,0,0,0,0,0,0,0,0,0,0,0,0,0,0,0,0,0,0,0,0,0,0,0,0,0,0,0,0,0,0,0,0,0,0,0,0,0,0,0,0,0,0,0,0,0,0,0,0,0,0,0,0,0,0,0,0,0,0,0,0,0,0,0,0,0,0,0,0,0,0,0,0,0,0,0,0,0,0,0,0,0,0,0,0,0,0,0,0,0,0,0,0,0,0,0,0,0,0,0,0,0,0,0,0,0,0,0,0,0,0,0,0,0,0,0,0,0,0,0,0,0,0,0,0,0,0,0,0,0,0,0,0,0,0,0,0,0,0,0,0,0,0,0,0,0,0,0,0,0,0,0,0,0,0,0,0,0,0,0,0,0,0,0,0,0,0,0,0,0,0,0,0,0,0,0,0,0,0,0,0,0,0,0,0,0,0,0,0,0,0,0,0,0,0,0,0,0,0,0,0,0,0,0,0,0,0,0,0,0,0,0,0,0,0,0,0,0,0,0,0,0,0,0,0,0,0,0,0,0,0,0,0,0,0,0,0,0,0,0,0,0,0,0,0,0,0,0,0,0,0,0,0,0,0,0,0,0,0,0,0,0,0,0,0,0,0,0,0,0,0,0,0,0,0,0,0,0,0,0,0,0,0,0,0,0,0,0,0,0,0,0,0,0,0,0,0,0,0,0,0,0,0,0,0,0,0,0,0,0,0,0,0,0,0,0,0,0,0,0,0,0,0,0,0,0,0,0,0,0,0,0,0,0,0,0,0,0,0,0,0,0,0,0,0,0,0,0,0,0,0,0,0,0,0,0,0,0,0,0,0,0,0,0,0,0,0,0,0,0,0,0,0,0,0,0,0,0,0,0,0,0,0,0,0,0,0,0,0,0,0,0,0,0,0,0,0,0,0,0,0,0,0,0,0,0,0,0,0,0,0,0,0,0,0,0,0,0,0,0,0,0,0,0,0,0,0,0,0],"trees":[{"base_weights":[-6.2091327E-3,-1.0396671E-1,9.430726E-1,1.2374693E0,-8.166863E-1,1.3799218E0,-5.7624376E-1,4.5921284E-1,-1.4377519E0,1.5356169E0,7.1216846E-1,7.7372724E-1,-9.7649586E-1,-6.773593E-2,9.4348036E-2,1.3057231E0,-1.5647789E0,1.4130704E0,9.551948E-2,1.4080693E0,-3.0082902E-1,9.051648E-1,-3.7259642E-2,-5.9741163E-1,-1.5968413E0,9.382685E-2,-8.495828E-1,-2.3169398E-2,1.5405276E0,-1.1411151E0,-1.861718E0,1.5644906E0,-8.028896E-2,9.560423E-2,1.0542135E0,-1.1740583E0,9.488117E-2,4.6424355E-2,6.0432935E-3,4.3887094E-1,-5.1593393E-1,-1.6755326E-1,-7.399058E-1,-1.1831176E0,-1.7670871E0,-1.7396294E0,3.172553E-1,8.1655465E-2,2.351687E-2,-9.814473E-2,-8.612166E-1,-1.9246969E0,7.904043E-1,9.579676E-2,1.4090285E0,8.5942096E-1,-4.3015015E-1,-1.2887087E0,1.6315625E0,-1.8395787E0,-6.8841237E-1,3.4249477E-2,1.896748E-3,-0E0,-4.1551184E-2,3.064289E-1,-5.7387286E-1,-9.526745E-1,-4.0089032E-1,-4.706923E-1,-1.3476326E0,-5.7970732E-2,-9.242432E-2,-9.953837E-3,-1.777114E0,9.63137E-1,-7.782202E-2,9.057986E-2,-1.3083774E0,-1.9506888E0,3.6268093E-2,7.1085654E-2,-2.1646325E-2,3.528903E-2,9.092066E-2,6.31485E-2,-0E0,2.282477E-4,-5.1247574E-2,-8.297123E-3,-7.57723E-2,6.1534982E-2,9.528967E-2,-6.689735E-2,-9.984528E-2,9.1835104E-2,-6.773397E-2,2.5384976E-2,-7.014211E-3,-1.9519232E-2,-5.8527865E-2,-2.503807E-2,-5.196769E-2,-3.0469716E-2,1.6912518E-2,-7.3313676E-3,-2.8113607E-2,-7.666534E-2,-3.9967827E-2,-6.7057095E-2,-9.6449755E-2,7.171766E-2,-1.8153135E-2,-7.62945E-2,-1.4121455E-2,-6.3587725E-2,-9.884282E-2],"categories":[6,0,1,3,4,6,7,0,1,2,3,5,6,7,2,4,5,7,7,4,5,6,0,1,2,3,4,5,7],"categories_nodes":[40,41,55,56,66,67,75],"categories_segments":[0,1,7,14,18,19,22],"categories_sizes":[1,6,7,4,1,3,7],"default_left":[0,0,1,0,0,1,1,0,1,0,0,0,0,0,0,0,0,0,0,0,0,0,0,0,0,0,0,0,0,0,0,0,1,0,0,0,0,0,0,0,1,1,0,0,0,1,0,0,0,0,0,0,0,0,0,1,1,0,0,0,0,0,0,0,0,0,1,1,0,0,0,0,0,0,0,1,0,0,0,0,0,0,0,0,0,0,0,0,0,0,0,0,0,0,0,0,0,0,0,0,0,0,0,0,0,0,0,0,0,0,0,0,0,0,0,0,0],"id":0,"left_children":[1,-1,3,5,7,9,11,13,15,17,19,21,23,25,-1,27,29,31,-1,33,35,37,39,41,43,-1,45,-1,47,49,51,53,55,-1,57,59,-1,-1,-1,61,63,65,67,69,71,73,75,-1,-1,-1,77,79,81,-1,83,85,87,89,91,93,95,-1,-1,-1,-1,97,99,101,103,105,107,-1,-1,-1,109,111,-1,-1,113,115,-1,-1,-1,-1,-1,-1,-1,-1,-1,-1,-1,-1,-1,-1,-1,-1,-1,-1,-1,-1,-1,-1,-1,-1,-1,-1,-1,-1,-1,-1,-1,-1,-1,-1,-1,-1,-1],"loss_changes":[2.3109773E4,0E0,4.17489E3,1.7846875E3,9.170747E2,6.628828E2,2.738097E2,2.8616577E2,2.7515186E2,2.3250977E2,8.566115E2,1.2550781E1,8.949597E1,4.2762415E2,0E0,1.6270527E1,8.908179E1,8.8613525E2,0E0,1.2406824E2,9.563312E2,1.5045853E0,4.570813E0,1.4676079E1,5.841278E0,0E0,2.0957251E2,0E0,1.40699E0,6.810062E1,7.569153E1,1.8858594E2,1.1985728E2,0E0,5.8256433E2,1.1233124E2,0E0,0E0,0E0,8.642132E-1,1.5743494E0,1.2663322E1,1.2325569E1,4.2841797E0,3.3740234E-1,5.6867676E0,1.0997215E2,0E0,0E0,0E0,2.8721063E2,3.221399E1,1.0175966E1,0E0,7.093203E2,3.4202675E1,6.876799E1,2.112268E1,3.2803223E1,6.0802E0,3.5687704E2,0E0,0E0,0E0,0E0,2.9333947E0,2.778945E0,3.1535034E0,1.18948145E1,1.3123417E-1,1.2410583E0,0E0,0E0,0E0,1.8570862E0,4.3047962E1,0E0,0E0,4.441382E1,2.1314697E0,0E0,0E0,0E0,0E0,0E0,0E0,0E0,0E0,0E0,0E0,0E0,0E0,0E0,0E0,0E0,0E0,0E0,0E0,0E0,0E0,0E0,0E0,0E0,0E0,0E0,0E0,0E0,0E0,0E0,0E0,0E0,0E0,0E0,0E0,0E0,0E0,0E0],"parents":[2147483647,0,0,2,2,3,3,4,4,5,5,6,6,7,7,8,8,9,9,10,10,11,11,12,12,13,13,15,15,16,16,17,17,19,19,20,20,21,21,22,22,23,23,24,24,26,26,28,28,29,29,30,30,31,31,32,32,34,34,35,35,39,39,40,40,41,41,42,42,43,43,44,44,45,45,46,46,50,50,51,51,52,52,54,54,55,55,56,56,57,57,58,58,59,59,60,60,65,65,66,66,67,67,68,68,69,69,70,70,74,74,75,75,78,78,79,79],"right_children":[2,-1,4,6,8,10,12,14,16,18,20,22,24,26,-1,28,30,32,-1,34,36,38,40,42,44,-1,46,-1,48,50,52,54,56,-1,58,60,-1,-1,-1,62,64,66,68,70,72,74,76,-1,-1,-1,78,80,82,-1,84,86,88,90,92,94,96,-1,-1,-1,-1,98,100,102,104,106,108,-1,-1,-1,110,112,-1,-1,114,116,-1,-1,-1,-1,-1,-1,-1,-1,-1,-1,-1,-1,-1,-1,-1,-1,-1,-1,-1,-1,-1,-1,-1,-1,-1,-1,-1,-1,-1,-1,-1,-1,-1,-1,-1,-1,-1],"split_conditions":[5.02E0,-1.0396671E-1,5.6065626E0,5.288E1,1.573E1,1.0393E2,3.23E1,1.417E1,1.214E1,3.849E1,1.573E1,2.5766988E0,1.1433E2,8.3E0,9.4348036E-2,2.039E1,1.1551E2,3.752E1,9.551948E-2,8.3E0,3.849E1,2.0950424E1,1.602E1,2.1E2,1.3767E2,9.382685E-2,1.284E1,-2.3169398E-2,1.7278847E1,2.039E1,2.242004E1,8.3E0,1.976E1,9.560423E-2,1.284E1,2.039E1,9.488117E-2,4.6424355E-2,6.0432935E-3,7.24E0,1E-45,1E-45,8.984E1,2.0124611E2,8.485281E1,1.274E1,1.3827E2,8.1655465E-2,2.351687E-2,-9.814473E-2,3.752E1,6.7719355E0,6.5395284E0,9.579676E-2,5.866E1,1E-45,1E-45,1.1199E2,1.417E1,1.6970563E2,3.752E1,3.4249477E-2,1.896748E-3,-0E0,-4.1551184E-2,8.704E1,1E-45,1E-45,1.7564738E3,1.0986123E0,1.1160646E3,-5.7970732E-2,-9.242432E-2,-9.953837E-3,9.946E1,1E-45,-7.782202E-2,9.057986E-2,1.3606248E3,5.917081E0,3.6268093E-2,7.1085654E-2,-2.1646325E-2,3.528903E-2,9.092066E-2,6.31485E-2,-0E0,2.282477E-4,-5.1247574E-2,-8.297123E-3,-7.57723E-2,6.1534982E-2,9.528967E-2,-6.689735E-2,-9.984528E-2,9.1835104E-2,-6.773397E-2,2.5384976E-2,-7.014211E-3,-1.9519232E-2,-5.8527865E-2,-2.503807E-2,-5.196769E-2,-3.0469716E-2,1.6912518E-2,-7.3313676E-3,-2.8113607E-2,-7.666534E-2,-3.9967827E-2,-6.7057095E-2,-9.6449755E-2,7.171766E-2,-1.8153135E-2,-7.62945E-2,-1.4121455E-2,-6.3587725E-2,-9.884282E-2],"split_indices":[7,0,1,7,7,0,0,7,0,7,7,1,0,7,0,7,0,7,0,7,7,6,0,5,0,0,7,0,6,7,6,7,0,0,7,7,0,0,0,0,3,3,0,5,5,0,0,0,0,0,7,2,1,0,9,3,3,0,7,5,7,0,0,0,0,0,3,3,5,2,5,0,0,0,0,3,0,0,5,1,0,0,0,0,0,0,0,0,0,0,0,0,0,0,0,0,0,0,0,0,0,0,0,0,0,0,0,0,0,0,0,0,0,0,0,0,0],"split_type":[0,0,0,0,0,0,0,0,0,0,0,0,0,0,0,0,0,0,0,0,0,0,0,0,0,0,0,0,0,0,0,0,0,0,0,0,0,0,0,0,1,1,0,0,0,0,0,0,0,0,0,0,0,0,0,1,1,0,0,0,0,0,0,0,0,0,1,1,0,0,0,0,0,0,0,1,0,0,0,0,0,0,0,0,0,0,0,0,0,0,0,0,0,0,0,0,0,0,0,0,0,0,0,0,0,0,0,0,0,0,0,0,0,0,0,0,0],"sum_hessian":[1.1738842E4,3.6862368E3,8.0526045E3,6.8990815E3,1.1535228E3,6.3971694E3,5.019124E2,3.777809E2,7.757419E2,5.185383E3,1.2117865E3,1.1429659E2,3.876158E2,2.772788E2,1.0050213E2,3.3472473E1,7.422694E2,3.9150232E3,1.2703596E3,7.179166E2,4.9386984E2,9.8262184E1,1.6034414E1,2.4312988E2,1.4448593E2,7.8683334E1,1.9859546E2,3.6440256E0,2.982845E1,3.099972E2,4.3227225E2,3.5545764E3,3.604466E2,2.9237778E2,4.2553885E2,3.541702E2,1.3969965E2,9.49437E1,3.3184776E0,8.017207E0,8.017207E0,6.1788292E1,1.813416E2,4.6928562E1,9.755737E1,1.12151726E2,8.644374E1,2.6399225E1,3.429224E0,7.561353E1,2.3438367E2,4.2281802E2,9.454223E0,1.0830017E3,2.471575E3,9.692149E1,2.6352512E2,8.360926E1,3.419296E2,1.469757E2,2.071945E2,3.935186E0,4.082021E0,3.876452E0,4.140755E0,2.8632883E1,3.315541E1,1.0901053E2,7.233107E1,1.0366572E1,3.656199E1,1.5270871E1,8.22865E1,3.0272317E0,1.091245E2,6.5046776E1,2.1396965E1,3.2685627E1,2.0169804E2,4.1927133E2,3.5466921E0,6.0760465E0,3.3781757E0,9.114914E2,1.5600835E3,6.52478E1,3.167369E1,1.5330066E2,1.1022444E2,1.4703697E1,6.890556E1,1.435023E2,1.9842729E2,3.9780613E1,1.0719508E2,4.2491318E1,1.6470319E2,1.9705297E1,8.927586E0,2.8016174E1,5.1392355E0,1.9910866E1,8.9099655E1,5.6795895E1,1.5535174E1,3.6708825E0,6.6956897E0,2.4492128E1,1.2069861E1,3.3443703E1,7.568079E1,4.79292E1,1.7117573E1,1.6553146E2,3.6166576E1,1.9383257E1,3.9988806E2],"tree_param":{"num_deleted":"0","num_feature":"11","num_nodes":"117","size_leaf_vector":"1"}},{"base_weights":[-1.3593428E-3,-9.863493E-2,9.026453E-1,9.1541186E-2,3.9011285E-1,1.0331447E0,-8.763216E-1,1.2011967E0,-3.7384677E-1,-1.475164E-1,-1.3624567E0,1.3315263E0,2.8453195E-2,-1.622658E0,5.3575713E-2,-1.2476735E0,2.8319573E-1,-9.239555E-1,-1.745977E0,1.4718258E0,2.1859135E-2,3.2587308E-1,-9.1908514E-1,-8.673064E-2,-1.0583729E0,5.825535E-1,-1.3769164E0,-6.7985404E-1,-1.6452338E0,7.571933E-1,-1.0112594E0,8.344405E-2,-1.294144E0,-1.8175566E0,-2.538493E-1,8.6455303E-1,1.762079E0,8.5414165E-1,-4.92757E-1,5.249747E-1,-1.6336259E0,-1.2110273E0,6.673459E-1,-6.18693E-2,-7.023779E-3,1.6056896E0,-1.1830934E0,-9.51612E-1,-8.283826E-2,-1.536252E-1,-1.4929239E0,-2.4334017E-2,-8.367621E-2,1.5559117E0,-9.128902E-1,-5.2165896E-1,-7.804204E-2,-1.2268026E0,1.0210904E0,1.3112948E0,-1.3983897E0,-1.5031674E0,-9.287003E-2,6.681852E-1,-8.061943E-2,6.378233E-2,1.0833444E-2,7.916137E-2,9.128554E-2,4.4458132E-2,6.1524333E-3,-3.2567184E-2,-1.2654381E-2,5.1886242E-2,1.1851459E-2,-9.053521E-2,-3.0965865E-2,2.1196129E-2,-6.9432855E-2,-3.3284706E-4,6.74388E-2,8.238089E-2,3.24348E-2,6.132939E-3,-6.60466E-2,-5.008647E-2,-1.479585E-2,1.1698375E-2,-3.2901317E-2,-7.7849634E-2,-2.4878312E-2,8.0296405E-2,-4.4990852E-2,-1.3195238E-2,-7.11318E-2,1.9447884E-2,-3.0113613E-2,-9.750097E-3,-6.573932E-2,7.159777E-2,-9.980452E-3,7.3189266E-2,2.3013761E-2,-5.541569E-2,-9.005296E-2,-4.2539876E-2,-9.156566E-2,5.8537718E-2,-4.9267452E-2],"categories":[1,2,3,0,2,4,5,2,5,7,2,2,0,1,2,3,4,5,7,2,5,7,0,1,3,4,5,6,7],"categories_nodes":[2,7,12,25,29,58,60,63],"categories_segments":[0,3,7,10,11,12,19,22],"categories_sizes":[3,4,3,1,1,7,3,7],"default_left":[0,0,1,0,1,1,0,1,0,0,1,0,1,0,0,0,0,0,0,0,1,1,0,0,0,1,0,0,0,1,0,0,1,0,0,0,0,0,0,0,0,0,0,0,0,0,0,0,0,0,0,0,0,1,0,0,0,1,1,0,1,0,0,1,0,0,0,0,0,0,0,0,0,0,0,0,0,0,0,0,0,0,0,0,0,0,0,0,0,0,0,0,0,0,0,0,0,0,0,0,0,0,0,0,0,0,0,0,0],"id":1,"left_children":[1,-1,3,-1,5,7,9,11,13,15,17,19,21,23,25,27,29,31,33,35,37,39,41,-1,43,45,47,49,51,53,55,57,59,61,63,65,67,69,71,73,75,77,79,-1,-1,81,83,85,-1,87,89,-1,-1,91,93,95,-1,97,99,101,103,105,-1,107,-1,-1,-1,-1,-1,-1,-1,-1,-1,-1,-1,-1,-1,-1,-1,-1,-1,-1,-1,-1,-1,-1,-1,-1,-1,-1,-1,-1,-1,-1,-1,-1,-1,-1,-1,-1,-1,-1,-1,-1,-1,-1,-1,-1,-1],"loss_changes":[2.08841E4,0E0,3.8204668E3,0E0,4.2191807E3,8.1334985E2,6.1770557E2,4.6896875E2,1.9678078E2,3.3276587E2,1.7249438E2,5.073911E2,8.7660835E1,1.9855042E0,2.1042798E2,4.2123566E1,3.1137274E2,1.8404285E2,5.823877E1,4.3649023E2,1.162653E2,9.400666E1,3.6080997E1,0E0,2.9381409E0,3.7056052E2,5.5210876E0,3.568594E1,1.9137268E0,4.9760858E2,3.4800873E1,1.6733134E2,1.0156946E2,7.1936035E-1,3.711371E1,2.1528632E2,1.3067871E1,2.3360367E0,5.9525642E0,3.135418E1,1.516983E0,1.9719086E1,6.023512E0,0E0,0E0,2.8252563E0,1.4049042E1,4.1550827E-1,0E0,1.0872811E1,3.5211182E-1,0E0,0E0,3.3871216E1,3.9176613E1,6.0035324E0,0E0,4.495697E0,4.0490555E1,3.8869286E-1,3.6313843E1,1.1683319E1,0E0,1.7242868E1,0E0,0E0,0E0,0E0,0E0,0E0,0E0,0E0,0E0,0E0,0E0,0E0,0E0,0E0,0E0,0E0,0E0,0E0,0E0,0E0,0E0,0E0,0E0,0E0,0E0,0E0,0E0,0E0,0E0,0E0,0E0,0E0,0E0,0E0,0E0,0E0,0E0,0E0,0E0,0E0,0E0,0E0,0E0,0E0,0E0],"parents":[2147483647,0,0,2,2,4,4,5,5,6,6,7,7,8,8,9,9,10,10,11,11,12,12,13,13,14,14,15,15,16,16,17,17,18,18,19,19,20,20,21,21,22,22,24,24,25,25,26,26,27,27,28,28,29,29,30,30,31,31,32,32,33,33,34,34,35,35,36,36,37,37,38,38,39,39,40,40,41,41,42,42,45,45,46,46,47,47,49,49,50,50,53,53,54,54,55,55,57,57,58,58,59,59,60,60,61,61,63,63],"right_children":[2,-1,4,-1,6,8,10,12,14,16,18,20,22,24,26,28,30,32,34,36,38,40,42,-1,44,46,48,50,52,54,56,58,60,62,64,66,68,70,72,74,76,78,80,-1,-1,82,84,86,-1,88,90,-1,-1,92,94,96,-1,98,100,102,104,106,-1,108,-1,-1,-1,-1,-1,-1,-1,-1,-1,-1,-1,-1,-1,-1,-1,-1,-1,-1,-1,-1,-1,-1,-1,-1,-1,-1,-1,-1,-1,-1,-1,-1,-1,-1,-1,-1,-1,-1,-1,-1,-1,-1,-1,-1,-1],"split_conditions":[5.02E0,-9.863493E-2,1E-45,9.1541186E-2,2.8465078E0,1.1091E2,4.9297E0,1E-45,5.866E1,5.866E1,1.2075E2,5.288E1,1E-45,2.4666805E0,5.288E1,1.284E1,5.288E1,1.417E1,2.0950424E1,5.866E1,3.23E1,9.301E1,1.9080292E1,-8.673064E-2,2.034673E1,1E-45,1.3767E2,1.1433E2,1.976E1,1E-45,1.1622E2,1.284E1,1.54E0,6.008275E0,6.5395284E0,1.284E1,1.417E1,2.0073544E1,1.616553E1,1.976E1,1.7968338E1,6.71E0,2.2059498E0,-6.18693E-2,-7.023779E-3,1.6211E2,1.1724E2,5.267858E0,-8.283826E-2,3.8614385E0,1.9417624E1,-2.4334017E-2,-8.367621E-2,1.8811E2,1.0054E2,1.602E1,-7.804204E-2,1.976E1,1E-45,2.0794415E0,1E-45,1.6443E2,-9.287003E-2,1E-45,-8.061943E-2,6.378233E-2,1.0833444E-2,7.916137E-2,9.128554E-2,4.4458132E-2,6.1524333E-3,-3.2567184E-2,-1.2654381E-2,5.1886242E-2,1.1851459E-2,-9.053521E-2,-3.0965865E-2,2.1196129E-2,-6.9432855E-2,-3.3284706E-4,6.74388E-2,8.238089E-2,3.24348E-2,6.132939E-3,-6.60466E-2,-5.008647E-2,-1.479585E-2,1.1698375E-2,-3.2901317E-2,-7.7849634E-2,-2.4878312E-2,8.0296405E-2,-4.4990852E-2,-1.3195238E-2,-7.11318E-2,1.9447884E-2,-3.0113613E-2,-9.750097E-3,-6.573932E-2,7.159777E-2,-9.980452E-3,7.3189266E-2,2.3013761E-2,-5.541569E-2,-9.005296E-2,-4.2539876E-2,-9.156566E-2,5.8537718E-2,-4.9267452E-2],"split_indices":[7,0,10,0,1,0,1,10,9,9,0,7,3,1,7,7,7,7,6,9,0,0,6,0,6,10,0,0,0,10,0,7,0,1,1,7,7,6,6,0,6,0,1,0,0,0,0,2,0,1,6,0,0,0,0,0,0,0,3,2,3,0,0,3,0,0,0,0,0,0,0,0,0,0,0,0,0,0,0,0,0,0,0,0,0,0,0,0,0,0,0,0,0,0,0,0,0,0,0,0,0,0,0,0,0,0,0,0,0],"split_type":[0,0,1,0,0,0,0,1,0,0,0,0,1,0,0,0,0,0,0,0,0,0,0,0,0,1,0,0,0,1,0,0,0,0,0,0,0,0,0,0,0,0,0,0,0,0,0,0,0,0,0,0,0,0,0,0,0,0,1,0,1,0,0,1,0,0,0,0,0,0,0,0,0,0,0,0,0,0,0,0,0,0,0,0,0,0,0,0,0,0,0,0,0,0,0,0,0,0,0,0,0,0,0,0,0,0,0,0,0],"sum_hessian":[1.1714758E4,3.6823972E3,8.0323604E3,2.8556106E3,5.17675E3,3.4337246E3,1.7430254E3,3.0676821E3,3.6604245E2,6.985636E2,1.0444618E3,2.760541E3,3.0714114E2,9.197064E1,2.740718E2,1.9553983E2,5.0302377E2,4.9060437E2,5.538574E2,2.493137E3,2.6740408E2,2.3484428E2,7.2296844E1,7.3135315E1,1.883533E1,2.0099998E2,7.3071815E1,8.2862404E1,1.12677414E2,3.688627E2,1.3416109E2,1.3218001E2,3.5842438E2,5.280242E2,2.5833292E1,8.0894653E2,1.6841903E3,1.0173847E2,1.6566562E2,2.1455853E2,2.028575E1,6.151321E1,1.0783632E1,1.508776E1,3.7475698E0,1.2740859E2,7.359139E1,3.2634007E1,4.0437805E1,5.182288E1,3.1039526E1,3.6379232E0,1.0903949E2,2.496595E2,1.19203186E2,7.3110306E1,6.1050774E1,5.4833473E1,7.734653E1,1.2861307E1,3.4556308E2,6.8385994E1,4.5963815E2,1.5950481E1,9.882811E0,4.9363467E2,3.1531183E2,4.5595578E2,1.2282346E3,9.654457E1,5.193899E0,9.7378624E1,6.8287E1,7.516165E1,1.3939688E2,1.5849779E1,4.435971E0,5.7012644E0,5.5811947E1,6.3432417E0,4.440391E0,1.20577965E2,6.830632E0,6.9784937E0,6.66129E1,2.919457E1,3.4394364E0,2.9798845E1,2.2024036E1,2.8007757E1,3.0317676E0,2.4539432E2,4.2651877E0,5.386118E1,6.534201E1,5.2227817E0,6.788753E1,4.9031076E0,4.9930367E1,5.7671246E1,1.9675282E1,9.586046E0,3.275261E0,2.053708E2,1.4019226E2,2.5393234E1,4.299276E1,1.2726768E1,3.223714E0],"tree_param":{"num_deleted":"0","num_feature":"11","num_nodes":"109","size_leaf_vector":"1"}},{"base_weights":[8.988733E-3,-9.406377E-2,8.7044996E-1,1.4146125E0,-1.4456137E-1,1.4923298E0,-1.1097866E-1,8.822869E-2,-8.088515E-1,8.7755784E-2,8.641969E-1,5.247522E-1,-4.957248E-1,1.0887943E-1,-1.1846125E0,1.3637176E0,1.6293518E-1,7.1673304E-1,-5.4529625E-1,-3.0450052E-1,-6.5703645E-2,-1.1464303E0,1.0011995E0,-1.5764005E0,-6.4125127E-1,1.4343083E0,1.0922884E-1,6.237145E-1,-5.312488E-1,7.6440066E-1,1.4205627E-1,-8.7189267E-4,-4.0977478E-2,2.0311177E-2,-5.220219E-1,-4.780628E-1,-1.537991E0,1.2442391E0,2.2247761E-1,-9.146366E-2,-1.3385043E0,8.957713E-2,-1.3465761E0,1.5316428E0,1.1124619E0,-8.208904E-1,5.4167893E-2,2.4752982E-1,1.077701E0,9.581003E-2,-9.6322805E-1,3.937429E-2,8.445273E-3,1.0982009E-2,-0E0,-1.7353559E-1,1.13187924E-1,-7.037795E-1,-3.915219E-1,-3.4930695E-2,-6.6314465E-1,-6.0473163E-2,-8.3966345E-2,1.365268E0,9.1660166E-1,4.234272E-1,-6.828906E-1,-6.063399E-1,-1.5165677E0,-9.412327E-1,-8.6540915E-2,6.897313E-2,8.4641255E-2,3.5279147E-2,7.401335E-2,-2.5306184E-2,-7.0136175E-2,1.6587073E-2,-4.194154E-2,6.2289115E-2,3.62569E-2,-1.7231891E-3,5.5682916E-2,-2.079269E-2,-6.641062E-2,2.021189E-3,-1.36316465E-2,9.80806E-3,2.2333984E-3,-1.0224657E-2,-4.317013E-2,-5.616629E-3,-3.3222135E-2,-3.929712E-2,5.4625045E-3,-3.7753105E-2,-1.7860619E-3,7.501634E-2,5.7445865E-2,4.775452E-2,8.893506E-3,4.425531E-2,1.4408797E-2,3.6324486E-2,-5.836454E-2,-4.597637E-2,1.6775897E-2,-7.876887E-2,-3.078658E-2,-1.2777305E-2,-5.191308E-2],"categories":[2,5,8,10,1,2,3,1,2,1,6,9,10],"categories_nodes":[2,4,5,6,69],"categories_segments":[0,4,7,9,12],"categories_sizes":[4,3,2,3,1],"default_left":[0,0,1,0,1,1,1,0,0,0,0,1,1,0,0,1,0,0,0,0,0,0,1,0,0,1,0,0,0,1,0,0,0,0,0,0,1,1,0,0,0,0,1,0,0,0,0,0,0,0,0,0,0,0,0,0,0,0,0,0,0,0,0,0,0,0,0,0,0,1,0,0,0,0,0,0,0,0,0,0,0,0,0,0,0,0,0,0,0,0,0,0,0,0,0,0,0,0,0,0,0,0,0,0,0,0,0,0,0,0,0],"id":2,"left_children":[1,-1,3,5,7,9,11,-1,13,-1,15,17,19,21,23,25,27,29,31,33,-1,35,37,39,41,43,45,47,49,51,53,-1,-1,55,57,59,61,63,65,-1,67,-1,69,71,73,75,-1,77,79,81,83,-1,-1,-1,-1,85,87,89,91,93,95,-1,-1,97,99,101,103,105,107,109,-1,-1,-1,-1,-1,-1,-1,-1,-1,-1,-1,-1,-1,-1,-1,-1,-1,-1,-1,-1,-1,-1,-1,-1,-1,-1,-1,-1,-1,-1,-1,-1,-1,-1,-1,-1,-1,-1,-1,-1,-1],"loss_changes":[1.9034225E4,0E0,4.4355747E3,6.202676E2,3.559053E3,8.1778613E2,6.293625E1,0E0,7.182423E2,0E0,5.147842E2,2.074344E1,2.4092377E1,6.816414E2,3.1223145E2,7.5590454E1,1.971977E2,1.9730186E0,2.1787534E0,9.4316635E0,0E0,6.450815E1,6.660394E1,4.6332275E1,1.0727163E3,2.1792725E1,4.5291203E1,6.2572876E1,6.693732E1,6.867943E-1,1.021411E-1,0E0,0E0,1.0212475E0,1.2275505E0,7.7914677E0,3.006897E0,7.995117E0,1.6402702E1,0E0,5.6506226E1,0E0,7.180493E1,1.0195557E1,2.7069122E1,3.0845108E0,0E0,1.9279535E1,7.896988E0,1.3724797E1,2.7889038E1,0E0,0E0,0E0,0E0,4.3150908E-1,1.7818901E-1,1.9661446E0,3.6715536E0,3.5610383E0,3.7736092E0,0E0,0E0,1.9335022E0,1.800972E0,3.9072485E0,1.3004549E1,2.7609531E1,1.690503E1,1.5299438E1,0E0,0E0,0E0,0E0,0E0,0E0,0E0,0E0,0E0,0E0,0E0,0E0,0E0,0E0,0E0,0E0,0E0,0E0,0E0,0E0,0E0,0E0,0E0,0E0,0E0,0E0,0E0,0E0,0E0,0E0,0E0,0E0,0E0,0E0,0E0,0E0,0E0,0E0,0E0,0E0,0E0],"parents":[2147483647,0,0,2,2,3,3,4,4,5,5,6,6,8,8,10,10,11,11,12,12,13,13,14,14,15,15,16,16,17,17,18,18,19,19,21,21,22,22,23,23,24,24,25,25,26,26,27,27,28,28,29,29,30,30,33,33,34,34,35,35,36,36,37,37,38,38,40,40,42,42,43,43,44,44,45,45,47,47,48,48,49,49,50,50,55,55,56,56,57,57,58,58,59,59,60,60,63,63,64,64,65,65,66,66,67,67,68,68,69,69],"right_children":[2,-1,4,6,8,10,12,-1,14,-1,16,18,20,22,24,26,28,30,32,34,-1,36,38,40,42,44,46,48,50,52,54,-1,-1,56,58,60,62,64,66,-1,68,-1,70,72,74,76,-1,78,80,82,84,-1,-1,-1,-1,86,88,90,92,94,96,-1,-1,98,100,102,104,106,108,110,-1,-1,-1,-1,-1,-1,-1,-1,-1,-1,-1,-1,-1,-1,-1,-1,-1,-1,-1,-1,-1,-1,-1,-1,-1,-1,-1,-1,-1,-1,-1,-1,-1,-1,-1,-1,-1,-1,-1,-1,-1],"split_conditions":[5.02E0,-9.406377E-2,1E-45,5.288E1,1E-45,1E-45,1E-45,8.822869E-2,1.417E1,8.7755784E-2,1.417E1,3.233204E0,4.365252E0,1.284E1,3.849E1,4.365252E0,1.623089E0,1.3606248E3,4.438831E0,1.8973666E2,-6.5703645E-2,2.9937105E0,5.0364985E0,2.039E1,5.288E1,1.578409E0,1.284E1,7.080254E2,1.6155495E2,2.6524897E0,3.322303E0,-8.7189267E-4,-4.0977478E-2,5.2493567E0,5.366563E2,7.1870875E-1,5.2781415E0,2.7977893E0,1.3829316E3,-9.146366E-2,1.7444121E0,8.957713E-2,4.640031E0,1.02E3,1.284E1,9.494407E0,5.4167893E-2,5.731492E2,2.039E1,2.4073555E1,2.7168944E0,3.937429E-2,8.445273E-3,1.0982009E-2,-0E0,1.3153028E0,4.2426407E1,9.386618E-1,1.1384199E3,2.4186774E2,2.224455E3,-6.0473163E-2,-8.3966345E-2,9.9904956E2,2.034673E1,1.2E2,6.0970182E0,1.2583079E0,1.995224E1,1E-45,-8.6540915E-2,6.897313E-2,8.4641255E-2,3.5279147E-2,7.401335E-2,-2.5306184E-2,-7.0136175E-2,1.6587073E-2,-4.194154E-2,6.2289115E-2,3.62569E-2,-1.7231891E-3,5.5682916E-2,-2.079269E-2,-6.641062E-2,2.021189E-3,-1.36316465E-2,9.80806E-3,2.2333984E-3,-1.0224657E-2,-4.317013E-2,-5.616629E-3,-3.3222135E-2,-3.929712E-2,5.4625045E-3,-3.7753105E-2,-1.7860619E-3,7.501634E-2,5.7445865E-2,4.775452E-2,8.893506E-3,4.425531E-2,1.4408797E-2,3.6324486E-2,-5.836454E-2,-4.597637E-2,1.6775897E-2,-7.876887E-2,-3.078658E-2,-1.2777305E-2,-5.191308E-2],"split_indices":[7,0,4,7,10,10,4,0,7,0,7,1,1,7,7,1,1,5,1,5,0,1,1,7,7,1,7,5,5,1,6,0,0,6,5,1,1,1,5,0,1,0,1,5,7,1,0,5,7,6,1,0,0,0,0,6,5,1,5,5,5,0,0,5,6,5,1,1,6,4,0,0,0,0,0,0,0,0,0,0,0,0,0,0,0,0,0,0,0,0,0,0,0,0,0,0,0,0,0,0,0,0,0,0,0,0,0,0,0,0,0],"split_type":[0,0,1,0,1,1,1,0,0,0,0,0,0,0,0,0,0,0,0,0,0,0,0,0,0,0,0,0,0,0,0,0,0,0,0,0,0,0,0,0,0,0,0,0,0,0,0,0,0,0,0,0,0,0,0,0,0,0,0,0,0,0,0,0,0,0,0,0,0,1,0,0,0,0,0,0,0,0,0,0,0,0,0,0,0,0,0,0,0,0,0,0,0,0,0,0,0,0,0,0,0,0,0,0,0,0,0,0,0,0,0],"sum_hessian":[1.168504E4,3.6573672E3,8.027673E3,5.2255107E3,2.8021624E3,4.972318E3,2.5319281E2,7.2244116E2,2.0797212E3,3.5030388E3,1.469279E3,9.508783E1,1.5810498E2,6.04497E2,1.4752242E3,8.568782E2,6.124008E2,8.126215E1,1.3825676E1,1.304816E2,2.762339E1,2.5087964E2,3.5361734E2,8.548514E2,6.2037286E2,8.10883E2,4.5995174E1,3.6828857E2,2.4411226E2,7.42676E1,6.9945498E0,5.5791726E0,8.246504E0,5.287702E1,7.7604576E1,9.44157E1,1.5646393E2,2.6849567E2,8.512167E1,4.076932E2,4.471582E2,1.3871112E2,4.8166174E2,6.1658374E2,1.9429926E2,2.3637522E1,2.2357653E1,2.0321239E2,1.6507619E2,1.0011327E2,1.43999E2,7.071357E1,3.5540333E0,3.879775E0,3.1147747E0,1.6216766E1,3.6660255E1,2.844074E1,4.9163834E1,2.8675991E1,6.5739716E1,5.302724E1,1.0343669E2,1.9121999E2,7.727569E1,7.062196E1,1.4499705E1,8.930878E1,3.578494E2,2.3787881E2,2.4378293E2,3.2730032E2,2.8928342E2,9.514982E1,9.9149445E1,1.7877546E1,5.759975E0,1.8996791E2,1.3244472E1,1.0816086E2,5.6915333E1,9.037966E1,9.733606E0,5.9427364E1,8.457163E1,5.18879E0,1.1027976E1,1.4236127E1,2.2424128E1,8.146841E0,2.02939E1,2.5879507E1,2.3284327E1,3.2965014E0,2.537949E1,5.6845592E1,8.894122E0,1.1013538E2,8.1084595E1,7.276351E1,4.5121813E0,1.3321487E1,5.730048E1,3.4003315E0,1.1099374E1,6.713768E1,2.2171099E1,3.3440945E2,2.3439949E1,3.051716E1,2.0736165E2],"tree_param":{"num_deleted":"0","num_feature":"11","num_nodes":"111","size_leaf_vector":"1"}},{"base_weights":[5.2645824E-5,-9.0105385E-2,8.343551E-1,1.3568561E0,-1.4383726E-1,1.4315691E0,-9.607575E-2,8.735142E-1,-8.7236226E-1,1.4623028E0,5.888968E-1,5.6385946E-1,-8.0595726E-1,3.4776977E-1,1.3034087E0,-3.9220372E-1,-1.5469542E0,1.3757572E0,8.489178E-2,-4.2122993E-1,1.0716187E0,8.305732E-1,7.5637154E-2,-4.2805204E-1,-1.2719144E0,8.449281E-2,-1.0812714E0,9.944291E-1,8.4565714E-2,-1.727272E0,-4.736071E-2,-1.7266337E0,-1.2445105E0,1.4796922E0,7.9622336E-2,7.109477E-2,-8.8539773E-1,8.236828E-2,5.3133965E-1,4.4021323E-2,4.6611276E-1,4.0878147E-1,-5.8330506E-1,-2.5901702E-1,-9.6750134E-1,-7.6830786E-1,-7.491371E-2,-6.078662E-1,-1.5887358E0,1.2473277E0,-9.0267235E-1,-2.2843784E-2,-8.7942965E-2,8.407124E-2,-4.4880763E-1,-1.0514442E0,-1.7448919E0,8.325348E-2,-8.323009E-2,8.470481E-2,1.3634154E0,9.2162603E-1,-3.5748243E-1,-2.818313E-1,-1.3225346E0,-5.8233345E-1,8.15128E-2,3.570501E-2,1.2907428E-2,6.270401E-1,4.8515677E-2,1.5015706E-2,-5.0190955E-2,1.7458473E-1,-4.1948283E-1,-6.1979193E-2,-1.1378738E-2,-2.4406707E-1,-5.514585E-2,-4.423079E-1,-1.2927846E0,-8.200546E-2,-1.3821499E-2,1.2943106E0,-3.1948918E-1,1.6426347E-1,-1.4870572E0,-2.3219152E-1,-1.6269212E0,-7.410758E-3,-6.188946E-2,-8.765332E-2,-3.0526256E-2,5.496446E-2,8.352764E-2,5.1460743E-2,-6.0469378E-2,-3.404206E-2,2.2141328E-2,-3.5147343E-2,2.8068197E-3,-3.850862E-2,-7.9089515E-2,4.1105177E-2,-6.039386E-2,4.1851196E-2,1.3864613E-2,1.4893681E-2,-1.8345188E-2,4.396603E-4,2.3267677E-2,-2.4212362E-2,7.641931E-3,1.5257575E-2,-4.2169046E-2,-2.755983E-2,1.7319104E-2,-1.729365E-2,-8.4213965E-2,7.667727E-2,5.8792677E-2,-6.523967E-2,2.0634336E-2,3.8795993E-2,-6.503803E-2,-3.38093E-3,-9.171732E-2,8.755953E-3,-4.0878724E-2,-3.845278E-2,-8.516804E-2],"categories":[2,5,8,10,0,1,3,6,7,4,1,0,1,2,4,5,6,7,8,9,0,1,5,7,7,5,7,2,0,1,2,3,6,7,0,1,3,4,5],"categories_nodes":[2,22,23,24,42,43,47,49,54,61,69,70],"categories_segments":[0,4,9,10,11,20,22,24,25,27,28,34],"categories_sizes":[4,5,1,1,9,2,2,1,2,1,6,5],"default_left":[0,0,1,0,0,1,1,0,1,0,0,1,0,0,0,0,0,0,0,0,0,0,1,1,1,0,0,1,0,0,0,0,0,0,0,0,0,0,0,0,1,0,1,1,0,0,0,1,1,1,0,0,0,0,1,0,0,0,0,0,0,1,0,0,0,0,0,0,0,1,1,0,0,0,0,0,0,0,0,0,0,0,0,0,0,0,0,0,0,0,0,0,0,0,0,0,0,0,0,0,0,0,0,0,0,0,0,0,0,0,0,0,0,0,0,0,0,0,0,0,0,0,0,0,0,0,0,0,0,0,0],"id":3,"left_children":[1,-1,3,5,7,9,11,13,15,17,19,21,23,25,27,29,31,33,-1,35,37,39,41,43,45,-1,47,49,-1,51,53,55,57,59,61,-1,63,-1,65,-1,67,69,71,73,75,77,-1,79,81,83,85,-1,-1,-1,87,89,91,-1,-1,-1,93,95,97,99,101,103,-1,-1,-1,105,107,-1,-1,109,111,-1,-1,113,-1,115,117,-1,-1,119,121,123,125,127,129,-1,-1,-1,-1,-1,-1,-1,-1,-1,-1,-1,-1,-1,-1,-1,-1,-1,-1,-1,-1,-1,-1,-1,-1,-1,-1,-1,-1,-1,-1,-1,-1,-1,-1,-1,-1,-1,-1,-1,-1,-1,-1],"loss_changes":[1.739648E4,0E0,4.0428457E3,5.600576E2,2.0437604E3,1.2506836E2,1.1990377E2,2.5901245E2,5.1901953E2,9.142969E1,8.679319E1,1.7064636E1,2.0442635E1,1.0019675E3,7.2145386E1,4.330599E2,3.1669067E1,4.670044E2,0E0,5.2326748E1,3.5274826E1,5.979347E-1,1.1263986E1,5.867141E0,3.633545E0,0E0,5.8692078E1,1.7352893E2,0E0,5.9210815E0,5.220743E2,1.1455078E0,3.1853305E2,7.514551E1,9.631443E1,0E0,1.1714695E1,0E0,8.131863E1,0E0,2.9624557E-1,2.5425005E0,7.0832596E0,4.1419945E0,2.53263E0,3.0116053E0,0E0,1.3919682E1,7.051941E0,2.4173584E1,2.749229E1,0E0,0E0,0E0,1.5485541E2,2.1971436E0,1.324585E0,0E0,0E0,0E0,1.6583984E2,2.296849E1,4.5228455E1,3.378605E0,1.2096977E0,3.1558065E1,0E0,0E0,0E0,9.528341E-1,1.7815984E0,0E0,0E0,7.475344E-1,1.7532415E0,0E0,0E0,4.1459618E0,0E0,9.966801E0,7.899494E0,0E0,0E0,4.8251953E0,8.911839E0,1.7192755E1,1.3416431E1,1.23878204E2,3.3238068E0,0E0,0E0,0E0,0E0,0E0,0E0,0E0,0E0,0E0,0E0,0E0,0E0,0E0,0E0,0E0,0E0,0E0,0E0,0E0,0E0,0E0,0E0,0E0,0E0,0E0,0E0,0E0,0E0,0E0,0E0,0E0,0E0,0E0,0E0,0E0,0E0,0E0,0E0,0E0,0E0,0E0,0E0],"parents":[2147483647,0,0,2,2,3,3,4,4,5,5,6,6,7,7,8,8,9,9,10,10,11,11,12,12,13,13,14,14,15,15,16,16,17,17,19,19,20,20,21,21,22,22,23,23,24,24,26,26,27,27,29,29,30,30,31,31,32,32,33,33,34,34,36,36,38,38,40,40,41,41,42,42,43,43,44,44,45,45,47,47,48,48,49,49,50,50,54,54,55,55,56,56,60,60,61,61,62,62,63,63,64,64,65,65,69,69,70,70,73,73,74,74,77,77,79,79,80,80,83,83,84,84,85,85,86,86,87,87,88,88],"right_children":[2,-1,4,6,8,10,12,14,16,18,20,22,24,26,28,30,32,34,-1,36,38,40,42,44,46,-1,48,50,-1,52,54,56,58,60,62,-1,64,-1,66,-1,68,70,72,74,76,78,-1,80,82,84,86,-1,-1,-1,88,90,92,-1,-1,-1,94,96,98,100,102,104,-1,-1,-1,106,108,-1,-1,110,112,-1,-1,114,-1,116,118,-1,-1,120,122,124,126,128,130,-1,-1,-1,-1,-1,-1,-1,-1,-1,-1,-1,-1,-1,-1,-1,-1,-1,-1,-1,-1,-1,-1,-1,-1,-1,-1,-1,-1,-1,-1,-1,-1,-1,-1,-1,-1,-1,-1,-1,-1,-1,-1],"split_conditions":[5.02E0,-9.0105385E-2,1E-45,5.288E1,1.573E1,1.4632E2,6.757E1,1.284E1,1.2075E2,3.849E1,3.818E1,2.901E1,1.1433E2,8.3E0,1.417E1,2.039E1,3.849E1,3.752E1,8.489178E-2,8.3E0,3.752E1,1.6740892E1,1E-45,1E-45,1E-45,8.449281E-2,1.0647E2,1.3827E2,8.4565714E-2,1.274E1,3.752E1,4.2426407E1,5.288E1,8.3E0,2.309E1,7.109477E-2,1.08166534E2,8.236828E-2,3.849E1,4.4021323E-2,4.3E0,2.2847319E2,1E-45,1E-45,7.2062476E2,1.6044E2,-7.491371E-2,1E-45,5.525453E0,1E-45,2.2847319E2,-2.2843784E-2,-8.7942965E-2,8.407124E-2,1E-45,1.6211E2,2.1614307E1,8.325348E-2,-8.323009E-2,8.470481E-2,3.818E1,1E-45,1.1160646E3,7.7151437E0,1.6044E2,1.5582E2,8.15128E-2,3.570501E-2,1.2907428E-2,1E-45,1E-45,1.5015706E-2,-5.0190955E-2,1.4179563E3,2.1637468E3,-6.1979193E-2,-1.1378738E-2,3.0594116E2,-5.514585E-2,2.0719556E3,4.837E1,-8.200546E-2,-1.3821499E-2,3.624914E2,1.1336E2,2.6444E2,1.453E2,5.288E1,1.976E1,-7.410758E-3,-6.188946E-2,-8.765332E-2,-3.0526256E-2,5.496446E-2,8.352764E-2,5.1460743E-2,-6.0469378E-2,-3.404206E-2,2.2141328E-2,-3.5147343E-2,2.8068197E-3,-3.850862E-2,-7.9089515E-2,4.1105177E-2,-6.039386E-2,4.1851196E-2,1.3864613E-2,1.4893681E-2,-1.8345188E-2,4.396603E-4,2.3267677E-2,-2.4212362E-2,7.641931E-3,1.5257575E-2,-4.2169046E-2,-2.755983E-2,1.7319104E-2,-1.729365E-2,-8.4213965E-2,7.667727E-2,5.8792677E-2,-6.523967E-2,2.0634336E-2,3.8795993E-2,-6.503803E-2,-3.38093E-3,-9.171732E-2,8.755953E-3,-4.0878724E-2,-3.845278E-2,-8.516804E-2],"split_indices":[7,0,4,7,7,0,0,7,0,7,8,0,0,7,7,7,7,7,0,7,7,6,3,3,4,0,0,0,0,0,7,5,7,7,0,0,5,0,7,0,0,5,4,4,5,0,0,3,2,3,5,0,0,0,3,0,6,0,0,0,8,3,5,6,0,0,0,0,0,3,3,0,0,5,5,0,0,5,0,5,0,0,0,5,0,0,0,7,0,0,0,0,0,0,0,0,0,0,0,0,0,0,0,0,0,0,0,0,0,0,0,0,0,0,0,0,0,0,0,0,0,0,0,0,0,0,0,0,0,0,0],"split_type":[0,0,1,0,0,0,0,0,0,0,0,0,0,0,0,0,0,0,0,0,0,0,1,1,1,0,0,0,0,0,0,0,0,0,0,0,0,0,0,0,0,0,1,1,0,0,0,1,0,1,0,0,0,0,1,0,0,0,0,0,0,1,0,0,0,0,0,0,0,1,1,0,0,0,0,0,0,0,0,0,0,0,0,0,0,0,0,0,0,0,0,0,0,0,0,0,0,0,0,0,0,0,0,0,0,0,0,0,0,0,0,0,0,0,0,0,0,0,0,0,0,0,0,0,0,0,0,0,0,0,0],"sum_hessian":[1.156636E4,3.6593757E3,7.906985E3,5.153548E3,2.7534373E3,4.901595E3,2.5195264E2,1.1487399E3,1.6046974E3,4.727583E3,1.7401219E2,1.3070987E2,1.2124277E2,5.184933E2,6.3024664E2,9.3937994E2,6.6531744E2,3.4675518E3,1.2600311E3,5.6283325E1,1.17728874E2,8.349153E1,4.7218334E1,6.9184204E1,5.205856E1,2.6722934E2,2.5126392E2,3.5492337E2,2.7532327E2,1.9112541E2,7.482545E2,4.112489E2,2.5406854E2,3.2098025E3,2.577492E2,1.0449237E1,4.5834087E1,5.492012E1,6.2808754E1,7.071316E1,1.27783785E1,3.196745E1,1.5250886E1,5.5072926E1,1.4111281E1,1.9005394E1,3.3053165E1,1.3237047E2,1.1889345E2,3.1382568E2,4.1097706E1,5.4640107E0,1.8566139E2,1.3976152E2,6.08493E2,1.4057421E1,3.9719147E2,3.1276962E1,2.2279158E2,1.1188126E3,2.09099E3,8.740022E1,1.7034897E2,2.0729927E1,2.510416E1,3.161668E1,3.1192074E1,3.388897E0,9.389482E0,1.881205E1,1.3155399E1,5.025263E0,1.0225623E1,1.4660089E1,4.0412838E1,9.231139E0,4.8801417E0,8.868523E0,1.0136871E1,1.0937091E2,2.2999554E1,1.1386033E2,5.0331225E0,3.050889E2,8.736783E0,1.4992315E1,2.610539E1,5.160817E2,9.241129E1,3.1100693E0,1.0947351E1,3.931792E2,4.0122766E0,1.1293105E3,9.616794E2,8.422874E1,3.1714828E0,1.2162914E2,4.871983E1,8.399721E0,1.2330206E1,1.0678981E1,1.4425179E1,9.499842E0,2.2116838E1,9.834929E0,8.977121E0,8.724875E0,4.4305234E0,1.086783E1,3.792258E0,3.6738033E1,3.6748035E0,5.0528426E0,3.8156803E0,9.674331E1,1.2627605E1,7.90413E0,1.5095425E1,9.2844604E1,2.122443E2,3.1159763E0,5.6208067E0,1.1288358E1,3.7039578E0,5.65788E0,2.0447512E1,3.0505484E2,2.1102686E2,9.477489E0,8.29338E1],"tree_param":{"num_deleted":"0","num_feature":"11","num_nodes":"131","size_leaf_vector":"1"}},{"base_weights":[-3.070518E-3,-8.664634E-2,7.928272E-1,8.158712E-2,3.3254558E-1,7.864222E-1,-9.89809E-1,9.30564E-1,-3.6893517E-1,-2.2724856E-1,-1.2634494E0,4.8287168E-1,8.200635E-2,5.7691944E-1,-7.4209154E-1,2.9328942E-1,-8.350014E-2,-9.208283E-1,-1.681295E0,1.096792E0,-3.0673078E-1,4.0828604E-2,2.4326582E-1,-6.7863715E-1,-7.884654E-2,-1.0233325E0,6.758527E-1,-1.6034938E0,-5.8128357E-1,-1.1176816E0,-8.5007995E-2,1.1318494E0,-6.893974E-2,1.4016771E-1,-5.901361E-1,4.495938E-2,-3.4992328E-1,-2.4425176E-1,-8.063542E-1,-1.1995596E0,1.769299E-2,1.0086906E0,-7.5644934E-1,-1.2945685E0,-8.720545E-2,7.1541977E-1,-9.095743E-1,-7.802733E-3,-7.066133E-2,4.4421952E-2,6.8743706E-2,2.7065668E-2,-1.021692E-2,-2.1432053E-2,-7.8889765E-2,4.002718E-3,-3.0281339E-2,5.926692E-3,-2.7591212E-2,-4.952466E-2,-2.3176868E-2,-7.064465E-2,-3.3670396E-2,7.6029055E-2,-1.9393925E-2,-1.8803664E-2,-4.6919663E-2,-2.2352234E-2,-6.77936E-2,5.349615E-2,-2.0404975E-3,-2.1215199E-2,-6.869178E-2],"categories":[1,2,3,0,1,3,5,6,7,7,7,0,1,3,5,6,7,5,7,0,1,2,3,4,6,7,0,1,3,4,6,2],"categories_nodes":[2,13,14,19,33,34,36,37,41],"categories_segments":[0,3,9,10,11,17,19,26,31],"categories_sizes":[3,6,1,1,6,2,7,5,1],"default_left":[0,0,1,0,1,0,0,0,1,0,0,0,0,1,1,0,0,0,0,1,1,0,0,0,0,0,0,0,0,0,0,0,0,1,1,0,1,1,0,0,0,1,0,0,0,0,0,0,0,0,0,0,0,0,0,0,0,0,0,0,0,0,0,0,0,0,0,0,0,0,0,0,0],"id":4,"left_children":[1,-1,3,-1,5,7,9,11,13,15,17,19,-1,21,23,25,-1,27,29,31,33,-1,35,37,-1,39,41,43,45,47,-1,49,-1,51,53,-1,55,57,59,61,-1,63,65,67,-1,69,71,-1,-1,-1,-1,-1,-1,-1,-1,-1,-1,-1,-1,-1,-1,-1,-1,-1,-1,-1,-1,-1,-1,-1,-1,-1,-1],"loss_changes":[1.5710496E4,0E0,3.016438E3,0E0,3.031858E3,6.2691406E2,2.6866272E2,1.0603428E3,1.4855383E2,2.5905734E2,1.3257983E2,9.959541E2,0E0,9.045845E0,1.3579086E1,1.293091E2,0E0,1.1990625E2,4.390869E-1,1.03380005E2,1.1413595E2,0E0,2.1283886E1,1.5221161E1,0E0,1.4993977E1,9.599607E1,2.7205505E0,1.5231552E2,5.02409E0,0E0,6.4797E1,0E0,4.869937E1,8.632599E1,0E0,3.3556843E0,7.6980734E0,1.26931305E1,3.711937E0,0E0,1.1686871E2,1.8232422E0,1.8430862E0,0E0,1.9684547E1,6.2633835E1,0E0,0E0,0E0,0E0,0E0,0E0,0E0,0E0,0E0,0E0,0E0,0E0,0E0,0E0,0E0,0E0,0E0,0E0,0E0,0E0,0E0,0E0,0E0,0E0,0E0,0E0],"parents":[2147483647,0,0,2,2,4,4,5,5,6,6,7,7,8,8,9,9,10,10,11,11,13,13,14,14,15,15,17,17,18,18,19,19,20,20,22,22,23,23,25,25,26,26,27,27,28,28,29,29,31,31,33,33,34,34,36,36,37,37,38,38,39,39,41,41,42,42,43,43,45,45,46,46],"right_children":[2,-1,4,-1,6,8,10,12,14,16,18,20,-1,22,24,26,-1,28,30,32,34,-1,36,38,-1,40,42,44,46,48,-1,50,-1,52,54,-1,56,58,60,62,-1,64,66,68,-1,70,72,-1,-1,-1,-1,-1,-1,-1,-1,-1,-1,-1,-1,-1,-1,-1,-1,-1,-1,-1,-1,-1,-1,-1,-1,-1,-1],"split_conditions":[5.02E0,-8.664634E-2,1E-45,8.158712E-2,1.0874E2,5.288E1,1.6970563E2,3.849E1,2.901E1,2.2501E2,1.5732E2,1.417E1,8.200635E-2,1E-45,1E-45,5.866E1,-8.350014E-2,5.866E1,1.9209373E2,1E-45,5.173E1,4.0828604E-2,8.3E0,2.1E2,-7.884654E-2,2.0805E2,5.288E1,1.284E1,1.417E1,1.417E1,-8.5007995E-2,1.284E1,-6.893974E-2,1E-45,1E-45,4.495938E-2,1E-45,1E-45,8.889E1,1.6443E2,1.769299E-2,1E-45,6E1,1.1199E2,-8.720545E-2,1.2842E2,6.9260376E2,-7.802733E-3,-7.066133E-2,4.4421952E-2,6.8743706E-2,2.7065668E-2,-1.021692E-2,-2.1432053E-2,-7.8889765E-2,4.002718E-3,-3.0281339E-2,5.926692E-3,-2.7591212E-2,-4.952466E-2,-2.3176868E-2,-7.064465E-2,-3.3670396E-2,7.6029055E-2,-1.9393925E-2,-1.8803664E-2,-4.6919663E-2,-2.2352234E-2,-6.77936E-2,5.349615E-2,-2.0404975E-3,-2.1215199E-2,-6.869178E-2],"split_indices":[7,0,10,0,0,7,5,7,0,0,0,7,0,3,3,9,0,9,5,3,0,0,0,5,0,0,7,7,7,7,0,7,0,3,3,0,3,3,0,0,0,10,5,0,0,0,5,0,0,0,0,0,0,0,0,0,0,0,0,0,0,0,0,0,0,0,0,0,0,0,0,0,0],"split_type":[0,0,1,0,0,0,0,0,0,0,0,0,0,1,1,0,0,0,0,1,0,0,0,0,0,0,0,0,0,0,0,0,0,1,1,0,1,1,0,0,0,1,0,0,0,0,0,0,0,0,0,0,0,0,0,0,0,0,0,0,0,0,0,0,0,0,0,0,0,0,0,0,0],"sum_hessian":[1.1406907E4,3.5937612E3,7.813146E3,2.7661738E3,5.046972E3,3.7579897E3,1.2889823E3,3.3415725E3,4.164173E2,3.4145834E2,9.47524E2,2.051009E3,1.2905635E3,1.1742224E2,2.9899506E2,2.5204573E2,8.941263E1,5.2427814E2,4.2324585E2,1.1535027E3,8.975062E2,6.647846E1,5.0943775E1,2.8135538E2,1.7639654E1,5.593381E1,1.9611191E2,1.7157718E2,3.5270093E2,1.7781918E1,4.0546396E2,1.138506E3,1.4996701E1,3.4854608E2,5.4896014E2,2.3782753E1,2.7161022E1,6.542904E1,2.1592635E2,4.9881496E1,6.052317E0,1.5966933E2,3.644258E1,6.027646E1,1.1130072E2,7.071668E1,2.8198425E2,4.9782815E0,1.2803636E1,5.7365936E2,5.648467E2,1.6064153E2,1.8790454E2,4.7436462E2,7.4595505E1,1.0495355E1,1.6665668E1,3.043485E1,3.499419E1,1.3782529E2,7.810106E1,3.295773E1,1.6923765E1,1.1676498E2,4.290435E1,1.3953867E1,2.2488714E1,5.2945747E0,5.4981884E1,4.767183E1,2.3044853E1,1.398495E2,1.4213474E2],"tree_param":{"num_deleted":"0","num_feature":"11","num_nodes":"73","size_leaf_vector":"1"}},{"base_weights":[3.661642E-3,-8.360165E-2,7.696592E-1,1.2647601E0,-1.4126492E-1,1.3360572E0,-8.7924555E-2,8.068235E-1,-8.006637E-1,1.3715808E0,2.5680196E-1,5.109143E-1,-7.420834E-1,3.027785E-1,1.2211959E0,-3.718737E-1,-1.3881618E0,1.2920601E0,7.9406105E-2,9.1862804E-1,-5.779154E-1,6.3072515E-1,-6.109116E-1,-3.7842208E-1,-1.1791233E0,7.9133175E-2,-1.0123637E0,9.172156E-1,7.9218626E-2,-1.6157995E0,-5.9832793E-2,-5.5690044E-1,-1.4595366E0,1.380749E0,2.2486396E-1,1.3159148E0,4.965328E-1,1.0014161E0,-1.3148745E0,7.1123517E-1,-2.497767E-2,1.7048931E-3,-4.5435365E-2,-2.0202905E-1,-9.425184E-1,-6.809681E-1,-7.00243E-2,-4.0247372E-1,-1.3685156E0,1.1667086E0,-9.0454686E-1,-2.9807394E-2,-8.249016E-2,7.862793E-2,-3.9381424E-1,7.3249954E-1,-7.4750446E-2,-1.0749549E0,-1.5525066E0,7.9312496E-2,1.2726376E0,8.4125656E-1,-2.9871303E-1,7.0844233E-1,7.2803184E-2,8.1400985E-1,-4.4748032E-1,2.2309229E-2,5.8793228E-2,-2.9942247E-1,-1.5094048E0,4.4343766E-2,5.025549E-1,2.191263E-1,-3.644361E-1,-5.9073742E-2,-1.3709942E-2,-2.2729814E-1,-5.0072547E-2,-1.2093653E-1,-1.1861693E0,-1.0925994E0,-7.605653E-2,1.210047E0,-5.96815E-1,1.3256301E-1,-1.4383093E0,-3.226487E-2,-1.0873388E0,6.2855296E-2,-5.6216028E-2,-2.752322E-1,-7.583814E-2,-3.7342858E-2,-7.803144E-2,4.2275652E-2,7.599013E-2,5.4278787E-2,1.6155714E-2,4.038192E-3,-4.797813E-2,5.9298422E-2,-6.2911543E-3,-0E0,6.803778E-2,-5.9432156E-2,5.447151E-2,-5.4701794E-2,4.500296E-2,-2.1896668E-2,-8.133664E-2,3.547891E-2,6.1704977E-3,2.1923298E-2,-1.55122345E-2,-3.7452444E-2,-1.2361764E-2,1.2507102E-2,-4.7133576E-2,-2.7617157E-2,2.2245168E-3,-6.4921826E-2,-1.41575625E-2,-1.8233301E-2,-5.753209E-2,6.398809E-2,4.302841E-2,-5.5162072E-2,7.907679E-3,3.6955636E-2,-6.0677923E-2,1.2861596E-3,-8.535746E-2,4.043499E-2,-1.1248853E-2,-6.433844E-2,-1.19063025E-2,8.150575E-3,-7.009163E-2],"categories":[2,5,8,10,4,1,0,1,2,4,5,7,8,9,10,0,1,2,4,5,6,7,8,9,10,0,1,7,0,1,3,4,5,6,7,0,1,2,3,5,7,0,1,2,6,7,2,5,6,7],"categories_nodes":[2,23,24,34,39,43,49,55,61,81,87],"categories_segments":[0,4,5,6,15,25,27,28,35,41,46],"categories_sizes":[4,1,1,9,10,2,1,7,6,5,4],"default_left":[0,0,1,0,0,1,1,0,1,0,1,1,0,0,0,0,0,0,0,1,0,0,0,1,1,0,0,1,0,0,0,0,0,0,1,0,0,0,0,1,0,0,0,1,0,0,0,1,1,1,0,0,0,0,0,1,0,0,0,0,0,1,0,0,0,0,0,0,0,0,0,0,1,0,0,0,0,0,0,0,0,1,0,1,0,0,0,1,0,0,0,0,0,0,0,0,0,0,0,0,0,0,0,0,0,0,0,0,0,0,0,0,0,0,0,0,0,0,0,0,0,0,0,0,0,0,0,0,0,0,0,0,0,0,0,0,0,0,0],"id":5,"left_children":[1,-1,3,5,7,9,11,13,15,17,19,21,23,25,27,29,31,33,-1,35,37,39,41,43,45,-1,47,49,-1,51,53,55,57,59,61,63,65,67,69,71,-1,-1,-1,73,75,77,-1,79,81,83,85,-1,-1,-1,87,89,-1,91,93,-1,95,97,99,101,-1,103,105,-1,-1,107,109,-1,111,113,115,-1,-1,117,-1,119,121,123,-1,125,127,129,131,133,135,-1,-1,137,-1,-1,-1,-1,-1,-1,-1,-1,-1,-1,-1,-1,-1,-1,-1,-1,-1,-1,-1,-1,-1,-1,-1,-1,-1,-1,-1,-1,-1,-1,-1,-1,-1,-1,-1,-1,-1,-1,-1,-1,-1,-1,-1,-1,-1,-1,-1],"loss_changes":[1.4510446E4,0E0,3.499463E3,4.8514355E2,1.7102808E3,1.8220898E2,1.0008061E2,2.3351184E2,4.0521777E2,7.52041E1,8.6567154E1,1.8708275E1,1.8348557E1,8.6023376E2,6.4756836E1,3.6275244E2,3.851062E1,3.202622E2,0E0,1.3123795E1,8.365172E1,1.1800053E1,2.8024364E0,6.4383936E0,3.8787918E0,0E0,5.3520874E1,1.5656982E2,0E0,4.3081055E0,4.1002213E2,7.134033E1,1.8737915E1,6.5243164E1,8.5348755E1,1.4283752E0,1.4426244E1,1.0385952E0,8.4663925E0,3.1645813E0,0E0,0E0,0E0,3.988473E0,1.7487144E0,2.4395895E0,0E0,2.0752024E1,3.0820923E0,2.4416443E1,2.3765018E1,0E0,0E0,0E0,1.5635217E2,2.7530525E1,0E0,4.4332123E1,6.9958496E-1,0E0,2.149043E2,1.451107E1,3.6217125E1,5.262046E0,0E0,1.5436731E1,1.704687E1,0E0,0E0,1.185467E1,3.3973389E0,0E0,4.2298307E0,2.2120109E0,1.3856978E0,0E0,0E0,4.4033365E0,0E0,5.303196E0,1.6448097E0,1.7015915E0,0E0,4.7290955E0,3.6834335E0,1.4843429E1,1.1262775E1,6.715862E1,3.5438538E1,0E0,0E0,2.4376184E1,0E0,0E0,0E0,0E0,0E0,0E0,0E0,0E0,0E0,0E0,0E0,0E0,0E0,0E0,0E0,0E0,0E0,0E0,0E0,0E0,0E0,0E0,0E0,0E0,0E0,0E0,0E0,0E0,0E0,0E0,0E0,0E0,0E0,0E0,0E0,0E0,0E0,0E0,0E0,0E0,0E0,0E0,0E0,0E0,0E0,0E0,0E0],"parents":[2147483647,0,0,2,2,3,3,4,4,5,5,6,6,7,7,8,8,9,9,10,10,11,11,12,12,13,13,14,14,15,15,16,16,17,17,19,19,20,20,21,21,22,22,23,23,24,24,26,26,27,27,29,29,30,30,31,31,32,32,33,33,34,34,35,35,36,36,37,37,38,38,39,39,43,43,44,44,45,45,47,47,48,48,49,49,50,50,54,54,55,55,57,57,58,58,60,60,61,61,62,62,63,63,65,65,66,66,69,69,70,70,72,72,73,73,74,74,77,77,79,79,80,80,81,81,83,83,84,84,85,85,86,86,87,87,88,88,91,91],"right_children":[2,-1,4,6,8,10,12,14,16,18,20,22,24,26,28,30,32,34,-1,36,38,40,42,44,46,-1,48,50,-1,52,54,56,58,60,62,64,66,68,70,72,-1,-1,-1,74,76,78,-1,80,82,84,86,-1,-1,-1,88,90,-1,92,94,-1,96,98,100,102,-1,104,106,-1,-1,108,110,-1,112,114,116,-1,-1,118,-1,120,122,124,-1,126,128,130,132,134,136,-1,-1,138,-1,-1,-1,-1,-1,-1,-1,-1,-1,-1,-1,-1,-1,-1,-1,-1,-1,-1,-1,-1,-1,-1,-1,-1,-1,-1,-1,-1,-1,-1,-1,-1,-1,-1,-1,-1,-1,-1,-1,-1,-1,-1,-1,-1,-1,-1,-1],"split_conditions":[5.02E0,-8.360165E-2,1E-45,5.288E1,1.573E1,6.0970182E0,6.858E1,1.284E1,1.1808E2,3.849E1,7.846E1,3.9093814E0,1.1433E2,8.3E0,1.417E1,2.039E1,1.3331048E0,3.752E1,7.9406105E-2,2.483E1,4.2426407E1,1.2955693E3,2.483E1,1E-45,1E-45,7.9133175E-2,2.9937105E0,1.3827E2,7.9218626E-2,1.471E1,3.752E1,5.660389E2,1.6970563E2,8.3E0,1E-45,5.866E1,3.752E1,5.866E1,1.0545E2,1E-45,-2.497767E-2,1.7048931E-3,-4.5435365E-2,1E-45,7.2062476E2,1.6443E2,-7.00243E-2,1.0647E2,5.7944484E0,1E-45,2.2847319E2,-2.9807394E-2,-8.249016E-2,7.862793E-2,4.8270636E0,1E-45,-7.4750446E-2,1.8112E2,1.1963E2,7.9312496E-2,5.866E1,1E-45,9.265E1,6.41E0,7.2803184E-2,5.866E1,7.743E1,2.2309229E-2,5.8793228E-2,1.0551302E3,1.5E2,4.4343766E-2,3.388E1,3.2953286E0,4.0021032E-1,-5.9073742E-2,-1.3709942E-2,5.028916E2,-5.0072547E-2,3.4985712E2,2.6909401E0,1E-45,-7.605653E-2,5.2781415E0,4.579301E2,2.6444E2,1.4449E2,1E-45,1.3606248E3,6.2855296E-2,-5.6216028E-2,5.5519576E0,-7.583814E-2,-3.7342858E-2,-7.803144E-2,4.2275652E-2,7.599013E-2,5.4278787E-2,1.6155714E-2,4.038192E-3,-4.797813E-2,5.9298422E-2,-6.2911543E-3,-0E0,6.803778E-2,-5.9432156E-2,5.447151E-2,-5.4701794E-2,4.500296E-2,-2.1896668E-2,-8.133664E-2,3.547891E-2,6.1704977E-3,2.1923298E-2,-1.55122345E-2,-3.7452444E-2,-1.2361764E-2,1.2507102E-2,-4.7133576E-2,-2.7617157E-2,2.2245168E-3,-6.4921826E-2,-1.41575625E-2,-1.8233301E-2,-5.753209E-2,6.398809E-2,4.302841E-2,-5.5162072E-2,7.907679E-3,3.6955636E-2,-6.0677923E-2,1.2861596E-3,-8.535746E-2,4.043499E-2,-1.1248853E-2,-6.433844E-2,-1.19063025E-2,8.150575E-3,-7.009163E-2],"split_indices":[7,0,4,7,7,1,0,7,0,7,0,1,0,7,7,7,1,7,0,0,5,5,0,3,4,0,1,0,0,0,7,5,5,7,4,9,7,9,0,4,0,0,0,4,5,0,0,0,1,3,5,0,0,0,1,3,0,0,0,0,9,3,0,7,0,9,0,0,0,5,5,0,0,1,1,0,0,5,0,5,1,3,0,1,5,0,0,3,5,0,0,1,0,0,0,0,0,0,0,0,0,0,0,0,0,0,0,0,0,0,0,0,0,0,0,0,0,0,0,0,0,0,0,0,0,0,0,0,0,0,0,0,0,0,0,0,0,0,0],"split_type":[0,0,1,0,0,0,0,0,0,0,0,0,0,0,0,0,0,0,0,0,0,0,0,1,1,0,0,0,0,0,0,0,0,0,1,0,0,0,0,1,0,0,0,1,0,0,0,0,0,1,0,0,0,0,0,1,0,0,0,0,0,1,0,0,0,0,0,0,0,0,0,0,0,0,0,0,0,0,0,0,0,1,0,0,0,0,0,1,0,0,0,0,0,0,0,0,0,0,0,0,0,0,0,0,0,0,0,0,0,0,0,0,0,0,0,0,0,0,0,0,0,0,0,0,0,0,0,0,0,0,0,0,0,0,0,0,0,0,0],"sum_hessian":[1.130075E4,3.5444414E3,7.756309E3,5.0246626E3,2.7316465E3,4.7731772E3,2.5148523E2,1.1202886E3,1.6113579E3,4.6204604E3,1.5271663E2,1.31443E2,1.2004223E2,5.0712344E2,6.1316516E2,9.3348376E2,6.778742E2,3.3899575E3,1.2305032E3,8.5134445E1,6.7582184E1,1.19631096E2,1.1811904E1,6.768338E1,5.235885E1,2.5683908E2,2.5028435E2,3.3777362E2,2.753915E2,1.8546515E2,7.480186E2,5.510488E1,6.227693E2,3.1292234E3,2.6073413E2,4.15523E1,4.3582146E1,2.1230669E1,4.6351517E1,1.12451126E2,7.1799626E0,4.1842475E0,7.627656E0,5.376471E1,1.391867E1,1.8755554E1,3.3603294E1,9.3946754E1,1.563376E2,2.977679E2,4.000572E1,7.276367E0,1.7818878E2,1.2573769E2,6.222809E2,2.3346972E1,3.175791E1,1.2634188E2,4.9642743E2,1.0689899E3,2.0602334E3,1.19283035E2,1.4145108E2,1.0193246E1,3.1359055E1,3.2899284E1,1.0682861E1,6.9138846E0,1.4316784E1,8.351093E0,3.8000423E1,5.726978E1,5.518135E1,1.4597117E1,3.9167595E1,9.01138E0,4.9072895E0,9.308749E0,9.446806E0,7.09093E1,2.3037447E1,6.1722233E1,9.461537E1,2.912938E2,6.4741206E0,1.4040574E1,2.5965145E1,4.1051028E2,2.1177063E2,1.87495E1,4.5974717E0,4.6195343E1,8.014654E1,6.933199E0,4.8949423E2,7.5858044E2,1.301653E3,7.944102E1,3.984202E1,9.087345E1,5.0577633E1,6.0226545E0,4.1705914E0,1.40739155E1,1.882537E1,7.556885E0,3.125977E0,5.1792293E0,3.1718645E0,4.7687087E0,3.3231712E1,3.439433E1,2.078702E1,1.069719E1,3.8999264E0,6.4302316E0,3.2737362E1,6.2790146E0,3.0297344E0,1.852522E1,5.2384087E1,1.9612608E1,3.4248383E0,5.7608953E0,5.5961338E1,2.3817262E2,5.312117E1,3.4019573E0,3.0721633E0,1.0352145E1,3.6884284E0,4.2511497E0,2.1713995E1,7.524436E1,3.352659E2,1.705664E2,4.1204224E1,3.4425713E1,1.1769632E1],"tree_param":{"num_deleted":"0","num_feature":"11","num_nodes":"139","size_leaf_vector":"1"}},{"base_weights":[-7.300675E-4,-8.090355E-2,7.421659E-1,1.2252969E0,-1.4185478E-1,1.4253335E0,7.3440605E-1,7.744207E-2,-6.883696E-1,7.712957E-2,-8.7977424E-2,1.1841272E0,1.10846676E-1,-2.7728638E-1,-1.3125457E0,4.87493E-1,-7.183327E-1,1.2513933E0,-2.6369253E-1,4.7419253E-1,-9.2984176E-1,5.0614816E-1,-6.943825E-1,-1.0692356E0,-7.735659E-2,5.8749914E-1,-7.739633E-1,-3.756432E-1,-1.1374863E0,1.3565145E0,9.39881E-1,-1.1150143E0,6.95137E-1,6.382649E-1,-6.9109917E-1,-4.9758235E-1,-1.4811434E0,-6.3789123E-1,1.117019E0,-1.16188E0,-1.22722164E-1,-7.7108043E-1,-7.670723E-2,6.604112E-1,-2.2631135E-2,-3.0643777E-3,-5.4440845E-2,-2.1385023E-1,-8.951208E-1,-7.228022E-1,-6.949631E-2,1.2070764E0,1.5100082E0,5.102757E-1,6.615132E-2,-2.4487631E-2,-6.308816E-2,1.0058045E0,-2.3453956E-2,8.489409E-1,1.4004382E-1,-8.497635E-2,-1.2971181E0,-1.2029989E0,-6.126173E-2,-7.040583E-1,-8.40501E-2,-2.7443883E-1,-6.080259E-2,1.1597903E0,-3.8292702E-2,-7.858806E-2,-8.39829E-1,8.2570545E-2,-8.353745E-1,-2.4503854E-1,-1.1925985E0,4.2271268E-2,2.231864E-2,8.237748E-3,-1.7774161E-2,-5.757868E-2,-1.09843E-2,1.9183196E-3,-4.267129E-2,5.082782E-2,6.8500146E-2,7.645239E-2,3.1219719E-2,3.2994296E-2,-5.035246E-2,1.5702885E-2,5.829523E-2,5.4790985E-2,1.38338925E-2,-5.270597E-2,3.478537E-2,-1.7535368E-2,4.4111744E-2,-7.425228E-2,-1.5113625E-2,-7.5617366E-2,-3.1467244E-2,1.072486E-2,-7.1236886E-2,-7.2717786E-2,1.25817405E-2,3.2832564E-3,-2.2996517E-2,6.2090944E-2,3.7671085E-2,-2.730292E-2,-7.534803E-2,-2.6479105E-2,-7.261174E-2,-3.693367E-2,2.0735096E-2,-2.4774384E-2,-7.030786E-2],"categories":[2,5,8,10,1,2,1,2,3,1,4,5,6,7,4,1,3,2,3,4,5,7,8,9,10,7,0,1,2,4,5,6,7,8,9,10,0,1,0,1,2,4,5,6,9,6,7,2,5,7],"categories_nodes":[2,3,4,20,27,31,33,38,43,47,49,67,72],"categories_segments":[0,4,6,9,14,15,17,25,26,36,38,45,47],"categories_sizes":[4,2,3,5,1,2,8,1,10,2,7,2,3],"default_left":[0,0,1,1,1,0,0,0,1,0,1,1,0,0,0,1,0,1,0,0,1,0,0,0,0,0,1,1,0,0,0,1,0,1,0,0,0,0,1,0,0,0,0,1,0,0,0,1,0,1,0,0,1,1,0,0,0,0,0,0,0,0,0,1,0,0,0,1,0,1,0,0,1,0,1,0,0,0,0,0,0,0,0,0,0,0,0,0,0,0,0,0,0,0,0,0,0,0,0,0,0,0,0,0,0,0,0,0,0,0,0,0,0,0,0,0,0,0,0],"id":6,"left_children":[1,-1,3,5,7,9,11,-1,13,-1,15,17,19,21,23,25,27,29,31,33,35,37,39,41,-1,43,45,47,49,51,53,55,57,59,61,63,65,67,69,71,73,75,-1,77,-1,-1,-1,79,81,83,-1,85,87,89,-1,-1,-1,91,-1,93,95,97,99,101,103,105,-1,107,-1,109,-1,-1,111,-1,113,115,117,-1,-1,-1,-1,-1,-1,-1,-1,-1,-1,-1,-1,-1,-1,-1,-1,-1,-1,-1,-1,-1,-1,-1,-1,-1,-1,-1,-1,-1,-1,-1,-1,-1,-1,-1,-1,-1,-1,-1,-1,-1,-1],"loss_changes":[1.331356E4,0E0,3.243349E3,4.7982715E2,2.4828884E3,6.190254E2,3.994394E2,0E0,5.2010754E2,0E0,9.232798E1,8.1403076E1,2.2761131E2,4.016123E2,4.2412964E1,1.7684204E1,1.6433132E1,2.314624E1,3.2896114E1,8.613372E1,3.545755E1,3.0010242E2,2.1379459E2,5.3147034E1,0E0,1.006427E1,2.1228347E0,5.382395E0,3.3793335E0,9.552124E0,3.2458176E1,5.2840424E-1,7.946251E0,4.0808945E1,2.0182518E1,2.7564116E1,7.856064E0,3.069497E1,2.4312714E1,5.5279602E1,4.6153778E2,5.4520874E1,0E0,3.760994E0,0E0,0E0,0E0,3.1436553E0,2.0987806E0,2.5888014E0,0E0,6.5313416E0,2.6195679E0,2.4161032E1,0E0,0E0,0E0,8.772354E-1,0E0,3.810353E1,8.041635E1,8.322732E0,4.1098137E0,3.981388E0,2.2568277E1,1.3274504E1,0E0,6.078251E0,0E0,7.0625E0,0E0,0E0,4.73739E1,0E0,4.7362045E1,3.75967E1,1.8916733E1,0E0,0E0,0E0,0E0,0E0,0E0,0E0,0E0,0E0,0E0,0E0,0E0,0E0,0E0,0E0,0E0,0E0,0E0,0E0,0E0,0E0,0E0,0E0,0E0,0E0,0E0,0E0,0E0,0E0,0E0,0E0,0E0,0E0,0E0,0E0,0E0,0E0,0E0,0E0,0E0,0E0,0E0],"parents":[2147483647,0,0,2,2,3,3,4,4,5,5,6,6,8,8,10,10,11,11,12,12,13,13,14,14,15,15,16,16,17,17,18,18,19,19,20,20,21,21,22,22,23,23,25,25,26,26,27,27,28,28,29,29,30,30,31,31,32,32,33,33,34,34,35,35,36,36,37,37,38,38,39,39,40,40,41,41,43,43,47,47,48,48,49,49,51,51,52,52,53,53,57,57,59,59,60,60,61,61,62,62,63,63,64,64,65,65,67,67,69,69,72,72,74,74,75,75,76,76],"right_children":[2,-1,4,6,8,10,12,-1,14,-1,16,18,20,22,24,26,28,30,32,34,36,38,40,42,-1,44,46,48,50,52,54,56,58,60,62,64,66,68,70,72,74,76,-1,78,-1,-1,-1,80,82,84,-1,86,88,90,-1,-1,-1,92,-1,94,96,98,100,102,104,106,-1,108,-1,110,-1,-1,112,-1,114,116,118,-1,-1,-1,-1,-1,-1,-1,-1,-1,-1,-1,-1,-1,-1,-1,-1,-1,-1,-1,-1,-1,-1,-1,-1,-1,-1,-1,-1,-1,-1,-1,-1,-1,-1,-1,-1,-1,-1,-1,-1,-1,-1],"split_conditions":[1.222E1,-8.090355E-2,1E-45,1E-45,1E-45,1.072E2,3.477E1,7.744207E-2,1.2175E2,7.712957E-2,6.858E1,1.3353E2,9.539E1,3.477E1,6.008275E0,4.882886E0,1.1433E2,1.578409E0,3.427E1,2.7168944E0,1E-45,3.427E1,8.274E1,1.8811E2,-7.735659E-2,1.2955693E3,2.483E1,1E-45,2.4E2,9.758074E2,3.427E1,1E-45,2.5806976E2,1E-45,5.767E1,3.818E1,9.946E1,4.066072E0,1E-45,3.818E1,1.072E2,5.307542E2,-7.670723E-2,1E-45,-2.2631135E-2,-3.0643777E-3,-5.4440845E-2,1E-45,7.2062476E2,1E-45,-6.949631E-2,3.427E1,9.645E1,1.1199E2,6.615132E-2,-2.4487631E-2,-6.308816E-2,7.328908E0,-2.3453956E-2,3.818E1,3.818E1,1.7771044E3,8.871E1,3.0761874E0,5.028916E2,6.847627E2,-8.40501E-2,1E-45,-6.080259E-2,5.2781415E0,-3.8292702E-2,-7.858806E-2,1E-45,8.2570545E-2,5.4748683E0,8.274E1,3.477E1,4.2271268E-2,2.231864E-2,8.237748E-3,-1.7774161E-2,-5.757868E-2,-1.09843E-2,1.9183196E-3,-4.267129E-2,5.082782E-2,6.8500146E-2,7.645239E-2,3.1219719E-2,3.2994296E-2,-5.035246E-2,1.5702885E-2,5.829523E-2,5.4790985E-2,1.38338925E-2,-5.270597E-2,3.478537E-2,-1.7535368E-2,4.4111744E-2,-7.425228E-2,-1.5113625E-2,-7.5617366E-2,-3.1467244E-2,1.072486E-2,-7.1236886E-2,-7.2717786E-2,1.25817405E-2,3.2832564E-3,-2.2996517E-2,6.2090944E-2,3.7671085E-2,-2.730292E-2,-7.534803E-2,-2.6479105E-2,-7.261174E-2,-3.693367E-2,2.0735096E-2,-2.4774384E-2,-7.030786E-2],"split_indices":[8,0,4,10,10,8,8,0,0,0,0,0,0,8,1,1,0,1,8,1,3,8,8,0,0,5,0,3,5,5,8,4,5,4,0,8,0,1,3,8,8,5,0,4,0,0,0,4,5,4,0,8,0,0,0,0,0,6,0,8,8,5,0,1,5,5,0,3,0,1,0,0,3,0,1,8,8,0,0,0,0,0,0,0,0,0,0,0,0,0,0,0,0,0,0,0,0,0,0,0,0,0,0,0,0,0,0,0,0,0,0,0,0,0,0,0,0,0,0],"split_type":[0,0,1,1,1,0,0,0,0,0,0,0,0,0,0,0,0,0,0,0,1,0,0,0,0,0,0,1,0,0,0,1,0,1,0,0,0,0,1,0,0,0,0,1,0,0,0,1,0,1,0,0,0,0,0,0,0,0,0,0,0,0,0,0,0,0,0,1,0,0,0,0,1,0,0,0,0,0,0,0,0,0,0,0,0,0,0,0,0,0,0,0,0,0,0,0,0,0,0,0,0,0,0,0,0,0,0,0,0,0,0,0,0,0,0,0,0,0,0],"sum_hessian":[1.107656E4,3.4857014E3,7.5908584E3,4.9079365E3,2.682922E3,3.484146E3,1.4237904E3,6.544541E2,2.0284679E3,3.2336187E3,2.5052742E2,8.2606244E2,5.97728E2,1.2248373E3,8.036307E2,1.3111928E2,1.19408134E2,7.897125E2,3.6349884E1,4.4392194E2,1.5380608E2,4.2530923E2,7.99528E2,4.0014603E2,4.0348468E2,1.2255142E2,8.56786E0,6.791418E1,5.1493958E1,5.8520306E2,2.0450948E2,1.913706E1,1.7212824E1,3.9000046E2,5.3921474E1,8.844525E1,6.536082E1,1.479591E2,2.773501E2,4.3860327E2,3.6092477E2,2.4716592E2,1.529801E2,1.1529553E2,7.2558885E0,3.4547958E0,5.113064E0,5.4085045E1,1.3829131E1,2.2558945E1,2.8935015E1,3.0583176E2,2.793713E2,9.873102E1,1.0577846E2,5.416176E0,1.3720883E1,1.3869752E1,3.3430715E0,2.729663E2,1.17034164E2,2.8181047E1,2.5740429E1,3.2369213E1,5.6076042E1,1.5324072E1,5.0036747E1,9.2765625E1,5.519348E1,2.719927E2,5.3573956E0,1.8943451E2,2.4916876E2,1.0263706E2,2.582877E2,1.1146314E2,1.3570277E2,5.8425625E1,5.686991E1,1.444335E1,3.9641697E1,8.894206E0,4.934925E0,3.3990464E0,1.9159899E1,1.4793477E2,1.5789699E2,2.719586E2,7.412726E0,9.0958496E1,7.7725205E0,3.8373845E0,1.0032368E1,1.8929738E2,8.3668915E1,3.6537735E1,8.049642E1,2.3188461E1,4.992586E0,2.0737156E1,5.0032716E0,1.8789684E1,1.3579527E1,4.798354E1,8.092502E0,8.058535E0,7.2655373E0,3.300426E1,5.9761368E1,2.2268427E2,4.9308453E1,1.7562112E2,7.3547646E1,1.7527756E2,8.301014E1,6.370769E1,4.775545E1,3.3490295E1,1.0221248E2],"tree_param":{"num_deleted":"0","num_feature":"11","num_nodes":"119","size_leaf_vector":"1"}},{"base_weights":[3.743256E-3,-7.8498565E-2,7.174988E-1,1.1847247E0,-1.3324314E-1,1.3785871E0,7.113053E-1,7.537769E-2,-6.6065174E-1,7.4670576E-2,-9.164522E-2,1.1449251E0,1.24098405E-1,-2.5269324E-1,-1.2974838E0,4.357514E-1,-7.092285E-1,1.2169269E0,-2.8708065E-1,4.733668E-1,-9.0253425E-1,-1.1126804E0,7.892701E-2,-1.0727556E0,-7.562376E-2,5.530696E-1,-6.195388E-1,-3.9875296E-1,-1.1234866E0,1.3044429E0,8.966425E-1,-5.5583846E-2,6.3269925E-1,6.260165E-1,-5.791396E-1,8.594156E-1,-1.066016E0,-6.036842E-1,-1.5049956E0,1.083267E0,-3.622425E-1,-8.1765896E-1,-7.3918276E-2,6.232746E-1,-1.938784E-2,-0E0,-4.4532668E-2,-1.7933194E-2,-5.3964883E-1,-7.427313E-1,-6.9422126E-2,1.1740602E0,1.4618294E0,4.737383E-1,6.3908175E-2,1.0028065E0,-2.9915616E-2,4.4793606E-1,1.0709293E0,-6.4016566E-2,-1.1534852E0,6.908889E-2,-2.4446143E-2,-5.2377325E-1,-1.4166036E0,-2.3484741E-1,-6.1095234E-2,-3.075838E-2,-7.6326564E-2,5.9161343E-2,6.0567695E-1,-4.5729924E-2,-9.9455625E-1,-1.3920131E0,-5.328624E-1,3.8920313E-2,2.223194E-2,-9.720792E-3,2.0593379E-2,-3.0188328E-2,7.401624E-3,-1.9821068E-2,-4.9047098E-2,4.9949378E-2,6.6892974E-2,7.390198E-2,3.104645E-2,3.0274574E-2,-4.824341E-2,5.965976E-2,2.2965003E-2,3.3237625E-2,-2.027922E-2,1.0579036E-3,6.2250525E-2,-3.4433823E-2,2.3128016E-2,-6.492434E-2,-6.8435236E-3,-4.9173698E-2,6.387458E-3,-2.0289792E-2,-7.588369E-2,8.863034E-3,-1.9112812E-2,3.71137E-2,-1.8689442E-2,-2.4596348E-2,1.2511413E-2,-5.756172E-2,-1.6183984E-2,-4.6558555E-2,-7.390559E-2,-7.2116437E-3,-6.8812214E-2],"categories":[2,5,8,10,1,2,1,2,3,0,1,3,9,1,0,1,2,4,5,6,7,8,9,10,1,2],"categories_nodes":[2,3,4,20,27,43,49,74],"categories_segments":[0,4,6,9,13,14,24,25],"categories_sizes":[4,2,3,4,1,10,1,1],"default_left":[0,0,1,1,1,0,0,0,1,0,1,1,0,0,0,1,0,1,0,0,1,0,0,0,0,0,1,1,0,0,0,0,0,0,0,0,0,1,0,1,0,0,0,1,0,0,0,0,0,1,0,0,0,1,0,0,0,0,0,0,0,0,0,0,0,0,0,0,0,0,0,0,0,0,1,0,0,0,0,0,0,0,0,0,0,0,0,0,0,0,0,0,0,0,0,0,0,0,0,0,0,0,0,0,0,0,0,0,0,0,0,0,0,0,0],"id":7,"left_children":[1,-1,3,5,7,9,11,-1,13,-1,15,17,19,21,23,25,27,29,31,33,35,37,39,41,-1,43,45,47,49,51,53,-1,55,57,59,61,63,65,67,69,71,73,-1,75,-1,-1,-1,77,79,81,-1,83,85,87,-1,89,-1,91,93,95,97,-1,-1,99,101,103,-1,-1,-1,-1,105,107,109,111,113,-1,-1,-1,-1,-1,-1,-1,-1,-1,-1,-1,-1,-1,-1,-1,-1,-1,-1,-1,-1,-1,-1,-1,-1,-1,-1,-1,-1,-1,-1,-1,-1,-1,-1,-1,-1,-1,-1,-1,-1],"loss_changes":[1.231419E4,0E0,2.9984153E3,4.4468213E2,2.3172205E3,5.831782E2,3.608499E2,0E0,5.255835E2,0E0,8.2689415E1,8.4905396E1,2.1774979E2,3.5322238E2,3.4692383E1,1.7642088E1,1.3983772E1,1.9224976E1,3.225238E1,7.3481026E1,4.6268326E1,6.67901E1,3.9739362E2,3.8082336E1,0E0,8.727001E0,2.437005E0,3.6831398E0,2.6505775E0,8.734131E0,2.6596207E1,0E0,1.0540527E1,3.0303726E1,1.6982397E1,1.1404858E1,2.532576E1,3.427226E1,1.609375E0,1.145459E1,1.24537025E2,3.86093E1,0E0,2.4187927E0,0E0,0E0,0E0,1.7446955E0,2.467187E0,1.1049929E0,0E0,6.8952026E0,1.579773E0,1.7348911E1,0E0,4.4646454E-1,0E0,5.3632595E1,2.0240753E1,1.1497912E1,3.5343742E0,0E0,0E0,1.8026562E1,7.258148E0,6.151396E0,0E0,0E0,0E0,0E0,7.5011578E0,5.5408672E1,2.0938965E1,1.9174194E-1,5.4515E1,0E0,0E0,0E0,0E0,0E0,0E0,0E0,0E0,0E0,0E0,0E0,0E0,0E0,0E0,0E0,0E0,0E0,0E0,0E0,0E0,0E0,0E0,0E0,0E0,0E0,0E0,0E0,0E0,0E0,0E0,0E0,0E0,0E0,0E0,0E0,0E0,0E0,0E0,0E0,0E0],"parents":[2147483647,0,0,2,2,3,3,4,4,5,5,6,6,8,8,10,10,11,11,12,12,13,13,14,14,15,15,16,16,17,17,18,18,19,19,20,20,21,21,22,22,23,23,25,25,26,26,27,27,28,28,29,29,30,30,32,32,33,33,34,34,35,35,36,36,37,37,38,38,39,39,40,40,41,41,43,43,47,47,48,48,49,49,51,51,52,52,53,53,55,55,57,57,58,58,59,59,60,60,63,63,64,64,65,65,70,70,71,71,72,72,73,73,74,74],"right_children":[2,-1,4,6,8,10,12,-1,14,-1,16,18,20,22,24,26,28,30,32,34,36,38,40,42,-1,44,46,48,50,52,54,-1,56,58,60,62,64,66,68,70,72,74,-1,76,-1,-1,-1,78,80,82,-1,84,86,88,-1,90,-1,92,94,96,98,-1,-1,100,102,104,-1,-1,-1,-1,106,108,110,112,114,-1,-1,-1,-1,-1,-1,-1,-1,-1,-1,-1,-1,-1,-1,-1,-1,-1,-1,-1,-1,-1,-1,-1,-1,-1,-1,-1,-1,-1,-1,-1,-1,-1,-1,-1,-1,-1,-1,-1,-1],"split_conditions":[5.02E0,-7.8498565E-2,1E-45,1E-45,1E-45,5.288E1,1.417E1,7.537769E-2,1.2175E2,7.4670576E-2,7.15E1,1.3225E2,9.539E1,5.866E1,6.008275E0,3.9093814E0,1.2075E2,1.7705842E0,1.284E1,2.7168944E0,1E-45,1.284E1,1.417E1,1.8811E2,-7.562376E-2,1.2955693E3,2.483E1,1E-45,2.8460498E2,1.1943617E3,1.284E1,-5.5583846E-2,2.5806976E2,8.704E1,5.767E1,1.9312E2,1.8248288E2,4.1925135E0,1.471E1,5.5519576E0,4.8270636E0,5.866E1,-7.3918276E-2,1E-45,-1.938784E-2,-0E0,-4.4532668E-2,1.2182363E3,2.1637468E3,1E-45,-6.9422126E-2,1.284E1,1.578409E0,1.1199E2,6.3908175E-2,2.8465078E0,-2.9915616E-2,5.972E1,5.307542E2,2.039E1,8.889E1,6.908889E-2,-2.4446143E-2,3.0395076E0,9.738E1,7.1870875E-1,-6.1095234E-2,-3.075838E-2,-7.6326564E-2,5.9161343E-2,1.3829316E3,3.849E1,1.3606248E3,2.1213203E2,1E-45,3.8920313E-2,2.223194E-2,-9.720792E-3,2.0593379E-2,-3.0188328E-2,7.401624E-3,-1.9821068E-2,-4.9047098E-2,4.9949378E-2,6.6892974E-2,7.390198E-2,3.104645E-2,3.0274574E-2,-4.824341E-2,5.965976E-2,2.2965003E-2,3.3237625E-2,-2.027922E-2,1.0579036E-3,6.2250525E-2,-3.4433823E-2,2.3128016E-2,-6.492434E-2,-6.8435236E-3,-4.9173698E-2,6.387458E-3,-2.0289792E-2,-7.588369E-2,8.863034E-3,-1.9112812E-2,3.71137E-2,-1.8689442E-2,-2.4596348E-2,1.2511413E-2,-5.756172E-2,-1.6183984E-2,-4.6558555E-2,-7.390559E-2,-7.2116437E-3,-6.8812214E-2],"split_indices":[7,0,4,10,10,7,7,0,0,0,0,0,0,9,1,1,0,1,7,1,4,7,7,0,0,5,0,4,5,5,7,0,5,0,0,0,5,1,0,1,1,9,0,4,0,0,0,5,5,4,0,7,1,0,0,1,0,0,5,7,0,0,0,1,0,1,0,0,0,0,5,7,5,5,10,0,0,0,0,0,0,0,0,0,0,0,0,0,0,0,0,0,0,0,0,0,0,0,0,0,0,0,0,0,0,0,0,0,0,0,0,0,0,0,0],"split_type":[0,0,1,1,1,0,0,0,0,0,0,0,0,0,0,0,0,0,0,0,1,0,0,0,0,0,0,1,0,0,0,0,0,0,0,0,0,0,0,0,0,0,0,1,0,0,0,0,0,1,0,0,0,0,0,0,0,0,0,0,0,0,0,0,0,0,0,0,0,0,0,0,0,0,1,0,0,0,0,0,0,0,0,0,0,0,0,0,0,0,0,0,0,0,0,0,0,0,0,0,0,0,0,0,0,0,0,0,0,0,0,0,0,0,0],"sum_hessian":[1.0959096E4,3.4187566E3,7.540339E3,4.866822E3,2.673517E3,3.4500227E3,1.4167992E3,6.493737E2,2.0241434E3,3.200131E3,2.4989166E2,8.1379034E2,6.030089E2,1.2355764E3,7.885671E2,1.3501772E2,1.1487395E2,7.7518396E2,3.860635E1,4.5081378E2,1.5219511E2,3.4262964E2,8.929467E2,3.9163724E2,3.9692984E2,1.2245121E2,1.2566507E1,6.80436E1,4.683034E1,6.037538E2,1.714302E2,2.019378E1,1.8412569E1,3.9450272E2,5.631106E1,1.2147535E1,1.4004758E2,1.5145796E2,1.9117168E2,2.7170813E2,6.212386E2,2.4428163E2,1.4735559E2,1.146754E2,7.7758117E0,4.4462323E0,8.1202755E0,1.9176577E1,4.8867027E1,2.2492016E1,2.4338327E1,3.3980557E2,2.6394818E2,8.355624E1,8.787397E1,1.4503918E1,3.9086509E0,2.8476233E2,1.097404E2,3.0949707E1,2.5361355E1,8.773242E0,3.3742929E0,5.706311E1,8.298447E1,9.669201E1,5.4765957E1,6.024408E0,1.8514728E2,2.2206534E2,4.9642796E1,4.1553842E2,2.0570016E2,7.8282104E1,1.6599953E2,5.748193E1,5.719347E1,1.4535903E1,4.6406736E0,4.505562E1,3.8114107E0,1.1508753E1,1.0983262E1,1.7140828E2,1.683973E2,2.573528E2,6.595349E0,7.76706E1,5.8856378E0,8.834497E0,5.6694202E0,2.2752463E2,5.72377E1,1.6010284E1,9.373012E1,1.3961682E1,1.6988026E1,2.1624165E1,3.7371905E0,3.2949272E1,2.4113838E1,8.544985E0,7.443948E1,2.5188786E1,7.150322E1,4.408157E1,5.5612254E0,1.653159E2,2.5022253E2,1.6547389E2,4.0226265E1,1.6225742E1,6.2056362E1,1.1532054E2,5.0678993E1],"tree_param":{"num_deleted":"0","num_feature":"11","num_nodes":"115","size_leaf_vector":"1"}},{"base_weights":[-2.8906928E-3,-7.634337E-2,6.87101E-1,1.1396606E0,-1.2148823E-1,1.2073956E0,-7.673059E-2,7.270943E-1,-7.1526486E-1,1.2397488E0,3.0827644E-1,4.2574325E-1,-6.6580033E-1,7.301588E-2,4.9774614E-1,-3.1275362E-1,-1.2783847E0,1.1606923E0,7.29131E-2,9.801442E-1,-4.0515223E-1,5.394482E-1,-6.0511434E-1,-3.4891236E-1,-1.03161E0,-8.794867E-1,1.0795854E0,-1.4522868E0,-2.0705126E-2,-1.4455926E0,-1.002107E0,1.2536212E0,1.4682579E-1,6.6390105E-2,7.214393E-1,8.095036E-1,-9.8707885E-1,6.048566E-1,-1.8331943E-2,-0E0,-4.3052007E-2,-4.9971712E-1,-2.3071816E-2,-5.6496614E-1,-6.2341865E-2,-3.0954444E-1,-1.2080897E0,7.8670645E-1,7.303035E-2,-7.8614956E-1,-1.4823419E0,7.249856E-2,-3.2031593E-1,-1.458022E0,-2.2980278E-2,8.207385E-2,-1.4039776E0,7.313331E-2,1.1478975E0,7.4026525E-1,-3.4900862E-1,1.0670539E0,1.0032246E-1,-1.2826011E-2,9.737317E-1,-1.2385403E0,5.8459144E-2,3.727631E-2,4.4034854E-1,-6.432643E-1,1.8957166E-2,2.749107E-1,-3.106908E-1,-2.5690308E-1,-5.640579E-2,-5.4302584E-2,-1.0969586E0,-9.4091773E-1,-1.4261363E0,9.962026E-1,-8.9498216E-1,-6.4545027E-3,-5.2165326E-2,-7.688143E-2,-1.092287E0,1.3378333E-2,-9.39032E-1,-8.246587E-1,-7.374202E-2,-1.0983795E0,-7.3534004E-2,4.566954E-2,7.163303E-2,5.4039657E-2,1.719923E-2,2.7229978E-2,-2.7961155E-2,6.811919E-2,2.5644446E-2,-4.777907E-2,3.529489E-2,5.5095244E-2,8.227142E-3,-1.2303012E-2,-7.5626016E-2,3.147971E-2,5.646237E-3,-1.13618225E-2,-3.9059784E-2,-2.1871781E-2,1.9406518E-2,2.2491803E-2,2.370346E-3,-2.6756784E-2,5.9945453E-3,6.205168E-3,-3.9750885E-2,-7.916414E-3,2.3048379E-2,-2.566781E-2,-6.632522E-2,-2.301035E-2,-5.5258017E-2,-7.328596E-2,-2.2137186E-2,5.4537423E-2,2.3994958E-2,6.3648163E-3,-7.5994164E-2,-1.9952038E-2,-6.053247E-2,1.6082404E-2,-2.2969358E-2,-3.203973E-2,-6.447002E-2,-3.2809568E-3,-5.0133538E-2,-3.2922097E-3,-6.334329E-2],"categories":[2,5,8,10,1,0,1,2,4,5,7,8,9,10,0,1,2,4,5,6,7,8,9,10,0,1,2,4,5,6,7,8,9,10,1,10],"categories_nodes":[2,24,32,34,37,69,89],"categories_segments":[0,4,5,14,24,34,35],"categories_sizes":[4,1,9,10,10,1,1],"default_left":[0,0,1,0,0,1,1,0,1,0,1,1,0,0,0,0,0,0,0,1,0,0,1,0,1,0,0,0,0,0,0,0,1,0,1,0,0,1,0,0,0,0,0,0,0,1,1,1,0,0,1,0,0,0,0,0,0,0,0,0,0,0,0,0,0,0,0,0,1,1,0,0,0,0,0,0,0,0,0,1,0,0,0,0,0,0,0,0,0,1,0,0,0,0,0,0,0,0,0,0,0,0,0,0,0,0,0,0,0,0,0,0,0,0,0,0,0,0,0,0,0,0,0,0,0,0,0,0,0,0,0,0,0,0,0,0,0,0,0],"id":8,"left_children":[1,-1,3,5,7,9,11,13,15,17,19,21,23,-1,25,27,29,31,-1,33,35,37,39,41,43,45,47,49,51,53,55,57,59,-1,61,63,65,67,-1,-1,-1,69,71,73,-1,75,77,79,-1,81,83,-1,85,87,-1,-1,89,-1,91,93,95,97,99,-1,101,103,-1,-1,105,107,109,111,113,115,-1,117,119,121,123,125,127,-1,-1,-1,129,131,133,135,-1,137,-1,-1,-1,-1,-1,-1,-1,-1,-1,-1,-1,-1,-1,-1,-1,-1,-1,-1,-1,-1,-1,-1,-1,-1,-1,-1,-1,-1,-1,-1,-1,-1,-1,-1,-1,-1,-1,-1,-1,-1,-1,-1,-1,-1,-1,-1,-1,-1,-1],"loss_changes":[1.1218524E4,0E0,2.6876934E3,3.8825977E2,1.3297365E3,1.2883545E2,7.464135E1,1.8105908E2,3.5093372E2,7.071826E1,7.6441536E1,1.660381E1,1.2593098E1,0E0,6.676284E2,3.0201062E2,2.6718384E1,2.982827E2,0E0,5.2428665E0,5.6626972E1,7.802105E0,2.2293262E0,3.1355782E0,3.702076E0,4.55065E1,6.2756287E1,1.1495056E0,3.202513E2,3.3447266E0,2.7066174E2,6.057715E1,7.959768E1,0E0,1.0721489E1,5.167225E0,3.1952309E1,1.9158363E0,0E0,0E0,0E0,3.3898811E0,2.143981E0,2.8271465E0,0E0,1.8540638E1,6.1888885E0,1.1989577E2,0E0,1.7078371E0,1.4672852E-1,0E0,1.2481073E2,1.5127563E0,0E0,0E0,9.6661377E-1,0E0,1.2660986E2,1.5713417E1,2.8339806E1,3.7778702E0,1.4571578E1,0E0,1.9216995E0,1.2401779E1,0E0,0E0,3.4279194E0,1.5499792E0,2.256791E0,3.9223826E-1,1.4071859E0,3.5272017E0,0E0,4.015098E0,1.4907856E0,4.8545456E0,1.7037659E0,1.3395935E1,2.488792E1,0E0,0E0,0E0,1.2381287E0,5.7734085E1,2.0279678E1,1.7653046E0,0E0,7.931862E0,0E0,0E0,0E0,0E0,0E0,0E0,0E0,0E0,0E0,0E0,0E0,0E0,0E0,0E0,0E0,0E0,0E0,0E0,0E0,0E0,0E0,0E0,0E0,0E0,0E0,0E0,0E0,0E0,0E0,0E0,0E0,0E0,0E0,0E0,0E0,0E0,0E0,0E0,0E0,0E0,0E0,0E0,0E0,0E0,0E0,0E0,0E0,0E0,0E0],"parents":[2147483647,0,0,2,2,3,3,4,4,5,5,6,6,7,7,8,8,9,9,10,10,11,11,12,12,14,14,15,15,16,16,17,17,19,19,20,20,21,21,22,22,23,23,24,24,25,25,26,26,27,27,28,28,29,29,30,30,31,31,32,32,34,34,35,35,36,36,37,37,41,41,42,42,43,43,45,45,46,46,47,47,49,49,50,50,52,52,53,53,56,56,58,58,59,59,60,60,61,61,62,62,64,64,65,65,68,68,69,69,70,70,71,71,72,72,73,73,75,75,76,76,77,77,78,78,79,79,80,80,84,84,85,85,86,86,87,87,89,89],"right_children":[2,-1,4,6,8,10,12,14,16,18,20,22,24,-1,26,28,30,32,-1,34,36,38,40,42,44,46,48,50,52,54,56,58,60,-1,62,64,66,68,-1,-1,-1,70,72,74,-1,76,78,80,-1,82,84,-1,86,88,-1,-1,90,-1,92,94,96,98,100,-1,102,104,-1,-1,106,108,110,112,114,116,-1,118,120,122,124,126,128,-1,-1,-1,130,132,134,136,-1,138,-1,-1,-1,-1,-1,-1,-1,-1,-1,-1,-1,-1,-1,-1,-1,-1,-1,-1,-1,-1,-1,-1,-1,-1,-1,-1,-1,-1,-1,-1,-1,-1,-1,-1,-1,-1,-1,-1,-1,-1,-1,-1,-1,-1,-1,-1,-1,-1,-1],"split_conditions":[5.02E0,-7.634337E-2,1E-45,5.288E1,1.573E1,6.008275E0,7.15E1,8.3E0,1.1808E2,3.849E1,6.858E1,3.9093814E0,1.1433E2,7.301588E-2,1.284E1,2.039E1,3.849E1,3.752E1,7.29131E-2,8.71E0,4.2426407E1,1.3396268E3,2.483E1,1.641931E1,1E-45,2.8862517E0,1.417E1,1.976E1,3.752E1,2.1614307E1,5.288E1,8.3E0,1E-45,6.6390105E-2,1E-45,1.8811E2,3.849E1,1E-45,-1.8331943E-2,-0E0,-4.3052007E-2,1.7564738E3,2.4186774E2,2.3182E2,-6.2341865E-2,1.0647E2,1.2075E2,1.4449E2,7.303035E-2,1.0986123E0,2.8903718E0,7.249856E-2,4.640031E0,4.2426407E1,-2.2980278E-2,8.207385E-2,1.3767E2,7.313331E-2,3.818E1,2.1633307E2,6.708204E1,1.7492856E2,1.0551302E3,-1.2826011E-2,6.424869E0,1.0545E2,5.8459144E-2,3.727631E-2,3.388E1,1E-45,8.889E1,6.708204E1,1.1063453E3,3.0594116E2,-5.640579E-2,2.0719556E3,5.239275E2,4.1925135E0,4.919981E0,6.0970182E0,2.2847319E2,-6.4545027E-3,-5.2165326E-2,-7.688143E-2,4.78E1,5.288E1,5.288E1,1.6211E2,-7.374202E-2,1E-45,-7.3534004E-2,4.566954E-2,7.163303E-2,5.4039657E-2,1.719923E-2,2.7229978E-2,-2.7961155E-2,6.811919E-2,2.5644446E-2,-4.777907E-2,3.529489E-2,5.5095244E-2,8.227142E-3,-1.2303012E-2,-7.5626016E-2,3.147971E-2,5.646237E-3,-1.13618225E-2,-3.9059784E-2,-2.1871781E-2,1.9406518E-2,2.2491803E-2,2.370346E-3,-2.6756784E-2,5.9945453E-3,6.205168E-3,-3.9750885E-2,-7.916414E-3,2.3048379E-2,-2.566781E-2,-6.632522E-2,-2.301035E-2,-5.5258017E-2,-7.328596E-2,-2.2137186E-2,5.4537423E-2,2.3994958E-2,6.3648163E-3,-7.5994164E-2,-1.9952038E-2,-6.053247E-2,1.6082404E-2,-2.2969358E-2,-3.203973E-2,-6.447002E-2,-3.2809568E-3,-5.0133538E-2,-3.2922097E-3,-6.334329E-2],"split_indices":[7,0,4,7,7,1,0,7,0,7,0,1,0,0,7,7,7,7,0,0,5,5,0,6,4,1,7,0,7,6,7,7,4,0,4,0,7,4,0,0,0,5,5,0,0,0,0,0,0,2,2,0,1,5,0,0,0,0,8,5,5,5,5,0,2,0,0,0,0,4,0,5,5,5,0,5,5,1,2,1,5,0,0,0,0,7,7,0,0,4,0,0,0,0,0,0,0,0,0,0,0,0,0,0,0,0,0,0,0,0,0,0,0,0,0,0,0,0,0,0,0,0,0,0,0,0,0,0,0,0,0,0,0,0,0,0,0,0,0],"split_type":[0,0,1,0,0,0,0,0,0,0,0,0,0,0,0,0,0,0,0,0,0,0,0,0,1,0,0,0,0,0,0,0,1,0,1,0,0,1,0,0,0,0,0,0,0,0,0,0,0,0,0,0,0,0,0,0,0,0,0,0,0,0,0,0,0,0,0,0,0,1,0,0,0,0,0,0,0,0,0,0,0,0,0,0,0,0,0,0,0,1,0,0,0,0,0,0,0,0,0,0,0,0,0,0,0,0,0,0,0,0,0,0,0,0,0,0,0,0,0,0,0,0,0,0,0,0,0,0,0,0,0,0,0,0,0,0,0,0,0],"sum_hessian":[1.0664675E4,3.3229758E3,7.3416987E3,4.706706E3,2.6349927E3,4.458529E3,2.48177E2,1.0844944E3,1.5504982E3,4.30283E3,1.5569899E2,1.3414052E2,1.1403649E2,2.557367E2,8.287577E2,9.0611E2,6.443882E2,3.169287E3,1.133543E3,7.9872215E1,7.5826775E1,1.21760574E2,1.2379946E1,6.3344437E1,5.069205E1,2.4578395E2,5.8297375E2,1.8315935E2,7.229506E2,3.9593484E2,2.4845337E2,2.9026636E3,2.6662347E2,3.038633E1,4.948589E1,2.425186E1,5.1574917E1,1.142858E2,7.474773E0,4.2709136E0,8.109033E0,4.2363644E1,2.0980791E1,1.843559E1,3.2256462E1,9.141626E1,1.5436768E2,3.3322583E2,2.4974792E2,1.0395515E1,1.7276384E2,1.2099908E2,6.019516E2,3.899601E2,5.974734E0,3.1938381E1,2.16515E2,9.659993E2,1.9366643E3,1.2100926E2,1.456142E2,3.076826E1,1.871763E1,3.0060935E0,2.1245766E1,4.6992306E1,4.582611E0,5.747113E1,5.681467E1,3.2955368E1,9.408275E0,1.0177382E1,1.080341E1,1.3914056E1,4.521536E0,7.074806E1,2.06682E1,7.435259E1,8.001508E1,2.970905E2,3.6135315E1,3.8784826E0,6.5170326E0,1.4593794E2,2.6825895E1,3.922131E2,2.097385E2,1.2829411E1,3.771307E2,4.5318916E1,1.7119608E2,1.0668575E3,8.698067E2,6.3089123E1,5.7920143E1,2.703464E1,1.1857956E2,1.8051027E1,1.2717232E1,6.340689E0,1.2376942E1,1.7609423E1,3.6363425E0,1.1066307E1,3.5926E1,3.4641365E1,2.2173306E1,9.704533E0,2.3250837E1,3.9206533E0,5.4876213E0,4.4000998E0,5.7772827E0,6.9350495E0,3.8683596E0,8.938299E0,4.975756E0,6.0178425E1,1.0569637E1,7.7846847E0,1.2883515E1,2.1025965E1,5.332663E1,7.5878235E1,4.13685E0,2.4906302E2,4.8027485E1,1.4252366E1,2.1882948E1,5.3104243E0,2.151547E1,2.3792403E2,1.5428906E2,1.1650845E2,9.3230034E1,3.0639207E0,9.76549E0,6.831078E0,3.848784E1],"tree_param":{"num_deleted":"0","num_feature":"11","num_nodes":"139","size_leaf_vector":"1"}},{"base_weights":[3.342884E-3,-7.440363E-2,6.739711E-1,1.0970644E0,-1.57719E-2,1.4359058E0,-7.088787E-1,6.5555906E-1,-6.759174E-1,1.3488168E0,7.253315E-2,4.9384895E-1,-9.446605E-1,8.656784E-1,-9.3714416E-1,-1.8230513E-1,-1.3310416E0,1.3655437E0,1.909172E-1,6.285393E-1,1.3065551E-1,-6.3219196E-1,-1.3003029E0,5.740383E-1,1.145543E0,-2.0900294E-1,-1.3161758E0,-6.7383505E-2,-8.994782E-1,-9.8983383E-1,-1.4531925E0,1.3796678E0,7.620618E-1,4.5747206E-2,-2.2205314E-2,3.389777E-2,2.8606766E-1,8.394354E-1,-6.16791E-1,-5.4404795E-1,-1.1000184E0,-1.0236765E0,-1.3905941E0,7.265811E-1,-8.376108E-1,1.1675363E0,-2.6957834E-1,-9.837935E-1,5.9916884E-1,-8.7965304E-1,-7.566285E-2,-2.4303909E-1,4.0808547E-1,-4.140822E-1,-1.3189971E0,-7.0143944E-1,-7.487531E-2,-5.612135E-1,-1.467889E0,7.061305E-2,1.1740499E0,6.1285324E-2,-2.9254496E-2,2.6049031E-2,-5.0947405E-3,-0E0,5.2411627E-2,-3.5919838E-2,-1.21870935E-2,-6.9432765E-1,-3.0990002E-1,-4.1156948E-1,-7.037263E-2,-3.2331157E-2,-1.1058569E0,-9.787457E-1,-7.21854E-2,4.329705E-1,1.0819669E0,-1.7794134E-1,-1.0252801E0,5.462324E-1,1.174126E0,-6.0280956E-2,2.0119762E-2,-5.836158E-1,-6.701601E-2,9.4552207E-1,-5.868692E-2,-1.1938134E0,-1.9168635E-1,1.09311506E-1,-9.023772E-1,-5.795201E-2,9.607385E-1,-7.960896E-1,5.423939E-2,-7.1346544E-2,-4.565748E-1,-1.0561098E0,-3.9183965E-1,-4.0879156E-2,-3.416766E-3,-7.3833905E-2,-7.1038914E-1,3.0507326E-2,6.974598E-2,-9.763437E-3,-4.804168E-2,-2.2827037E-2,1.9805692E-2,1.4710145E-2,-4.1608043E-2,-4.1850343E-2,-6.8192035E-2,-2.4364717E-2,-6.6511564E-2,2.499327E-2,-5.811453E-2,6.0897775E-2,-5.0465174E-2,1.0666838E-2,-5.1590126E-2,-1.9506304E-2,-5.5434596E-2,4.380512E-2,-1.060922E-3,6.467925E-2,5.6206316E-2,-4.1403364E-2,1.3766875E-2,5.7487633E-2,1.2424616E-2,-3.2584034E-2,-6.9817066E-2,-2.8659642E-2,2.1704277E-2,2.1404667E-2,-1.2058969E-2,-4.8180252E-2,3.4288485E-2,8.790514E-3,-3.4379046E-2,5.3359337E-2,1.4092973E-3,-9.200833E-3,-6.0023274E-2,2.9977132E-2,-6.936266E-2,6.41405E-3,-5.011619E-2,-7.0257366E-2,-3.475469E-2,6.163325E-3,-5.651365E-2,-0E0,-5.3185817E-2],"categories":[1,2,0,1,3,6,7,5,7,5,7,7,1,6,7,1,2,4,5,0,1,3,4,5,6,7,6,2,7,0,1,2,3,5,7,0,1,3,4,5,7,0,1,2,3,4,5,6,7],"categories_nodes":[2,11,15,21,24,29,31,36,48,69,74,78,79,81,91,98],"categories_segments":[0,2,7,9,11,12,15,18,19,26,27,29,35,41,47,48],"categories_sizes":[2,5,2,2,1,3,3,1,7,1,2,6,6,6,1,1],"default_left":[0,0,1,0,0,0,1,1,1,0,0,1,0,0,0,1,0,0,0,0,0,1,0,1,1,0,0,1,0,1,0,1,0,0,0,0,1,0,0,0,0,0,0,1,0,0,0,0,1,0,0,0,0,0,1,0,0,0,0,0,0,0,0,0,0,0,0,0,0,1,0,0,0,0,1,0,0,1,1,1,0,1,0,0,0,0,0,0,0,0,0,1,0,0,0,0,0,0,1,0,0,0,0,0,0,0,0,0,0,0,0,0,0,0,0,0,0,0,0,0,0,0,0,0,0,0,0,0,0,0,0,0,0,0,0,0,0,0,0,0,0,0,0,0,0,0,0,0,0,0,0,0,0,0,0,0,0],"id":9,"left_children":[1,-1,3,5,7,9,11,13,15,17,-1,19,21,23,25,27,29,31,33,35,37,39,41,43,45,47,49,51,53,55,57,59,61,-1,-1,-1,63,65,67,69,71,73,75,77,79,81,83,85,87,89,-1,91,93,95,97,99,-1,101,103,-1,105,-1,-1,-1,-1,-1,-1,-1,-1,107,109,111,-1,-1,113,115,-1,117,119,121,123,125,127,-1,-1,129,-1,131,-1,133,135,137,139,141,143,145,147,-1,149,151,153,-1,-1,-1,155,-1,-1,-1,-1,-1,-1,-1,-1,-1,-1,-1,-1,-1,-1,-1,-1,-1,-1,-1,-1,-1,-1,-1,-1,-1,-1,-1,-1,-1,-1,-1,-1,-1,-1,-1,-1,-1,-1,-1,-1,-1,-1,-1,-1,-1,-1,-1,-1,-1,-1,-1,-1],"loss_changes":[1.0465376E4,0E0,2.1065278E3,2.7397866E3,1.2178958E3,6.489258E-1,2.0177896E2,4.5757227E2,4.4745007E2,1.0467529E1,0E0,5.4982224E0,6.403705E1,9.684485E1,4.3372574E1,6.511032E1,2.16781E1,2.5142822E0,5.735235E0,9.515953E-1,1.9313625E1,1.18172E1,3.7850952E0,1.291487E2,1.9785645E1,3.6996212E1,6.09375E0,5.742966E1,2.096904E1,2.1594543E1,3.8343506E0,1.19262695E-1,1.2486303E1,0E0,0E0,0E0,1.4617208E0,3.2919416E0,2.30412E-1,9.0774765E0,8.931213E0,7.3633575E-1,1.3421936E0,5.4980682E1,6.795185E0,1.0168457E0,7.9257984E0,2.5222988E0,2.0094664E1,7.4995613E0,0E0,1.1688642E2,4.798055E1,9.757987E0,3.865097E0,1.0892838E1,0E0,1.1109662E0,5.147095E-1,0E0,9.019768E0,0E0,0E0,0E0,0E0,0E0,0E0,0E0,0E0,2.1380234E1,1.1819764E1,5.8594704E0,0E0,0E0,1.5900803E0,3.6101704E0,0E0,3.286834E1,7.119052E1,5.7215805E0,1.3821068E0,2.0384476E0,4.0649414E-1,0E0,0E0,4.25001E0,0E0,2.9242916E0,0E0,7.457237E-1,3.9075775E0,3.6963127E1,1.8378876E1,1.5368755E1,8.276016E0,6.7932453E0,2.1908186E1,0E0,3.3591852E0,4.0150375E0,2.359137E1,0E0,0E0,0E0,2.150713E0,0E0,0E0,0E0,0E0,0E0,0E0,0E0,0E0,0E0,0E0,0E0,0E0,0E0,0E0,0E0,0E0,0E0,0E0,0E0,0E0,0E0,0E0,0E0,0E0,0E0,0E0,0E0,0E0,0E0,0E0,0E0,0E0,0E0,0E0,0E0,0E0,0E0,0E0,0E0,0E0,0E0,0E0,0E0,0E0,0E0,0E0,0E0,0E0,0E0,0E0,0E0,0E0],"parents":[2147483647,0,0,2,2,3,3,4,4,5,5,6,6,7,7,8,8,9,9,11,11,12,12,13,13,14,14,15,15,16,16,17,17,18,18,19,19,20,20,21,21,22,22,23,23,24,24,25,25,26,26,27,27,28,28,29,29,30,30,31,31,32,32,36,36,37,37,38,38,39,39,40,40,41,41,42,42,43,43,44,44,45,45,46,46,47,47,48,48,49,49,51,51,52,52,53,53,54,54,55,55,57,57,58,58,60,60,69,69,70,70,71,71,74,74,75,75,77,77,78,78,79,79,80,80,81,81,82,82,85,85,87,87,89,89,90,90,91,91,92,92,93,93,94,94,95,95,96,96,98,98,99,99,100,100,104,104],"right_children":[2,-1,4,6,8,10,12,14,16,18,-1,20,22,24,26,28,30,32,34,36,38,40,42,44,46,48,50,52,54,56,58,60,62,-1,-1,-1,64,66,68,70,72,74,76,78,80,82,84,86,88,90,-1,92,94,96,98,100,-1,102,104,-1,106,-1,-1,-1,-1,-1,-1,-1,-1,108,110,112,-1,-1,114,116,-1,118,120,122,124,126,128,-1,-1,130,-1,132,-1,134,136,138,140,142,144,146,148,-1,150,152,154,-1,-1,-1,156,-1,-1,-1,-1,-1,-1,-1,-1,-1,-1,-1,-1,-1,-1,-1,-1,-1,-1,-1,-1,-1,-1,-1,-1,-1,-1,-1,-1,-1,-1,-1,-1,-1,-1,-1,-1,-1,-1,-1,-1,-1,-1,-1,-1,-1,-1,-1,-1,-1,-1,-1,-1],"split_conditions":[5.02E0,-7.440363E-2,1E-45,5.288E1,1.417E1,1.542E1,2.901E1,1.3353E2,9.738E1,9.642095E2,7.253315E-2,1E-45,1.1433E2,1.284E1,2.2847319E2,1E-45,1.9209373E2,1.471E1,3.2349627E0,6.3285065E2,9.31E0,1E-45,1.3767E2,1.0167E2,1E-45,1.284E1,1.5582E2,8.704E1,5.093E1,1E-45,9.869E1,1E-45,3.856E1,4.5747206E-2,-2.2205314E-2,3.389777E-2,1E-45,1.8973666E2,7.256032E2,8.933E1,6.196E1,2.7658633E2,9E1,8.561E1,1.0647E2,-1.7110802E0,9.583E1,2.3182E2,1E-45,1.284E1,-7.566285E-2,5.908E1,1.5026976E3,7.080254E2,9.363E1,2.039E1,-7.487531E-2,2.0793672E0,2.1614307E1,7.061305E-2,2.8131905E0,6.1285324E-2,-2.9254496E-2,2.6049031E-2,-5.0947405E-3,-0E0,5.2411627E-2,-3.5919838E-2,-1.21870935E-2,1E-45,1.7564738E3,2.1E2,-7.037263E-2,-3.2331157E-2,1E-45,2.3929E2,-7.21854E-2,7.846E1,1E-45,1E-45,1.2727921E2,1E-45,1.9209373E2,-6.0280956E-2,2.0119762E-2,2.0805E2,-6.701601E-2,1.8452E2,-5.868692E-2,6.7416614E2,1.3213629E3,1E-45,2.3034658E1,1.607244E1,1.0066201E1,1.2727921E2,2.039E1,-7.1346544E-2,1E-45,1.6211E2,1.6443E2,-4.0879156E-2,-3.416766E-3,-7.3833905E-2,8.0498444E2,3.0507326E-2,6.974598E-2,-9.763437E-3,-4.804168E-2,-2.2827037E-2,1.9805692E-2,1.4710145E-2,-4.1608043E-2,-4.1850343E-2,-6.8192035E-2,-2.4364717E-2,-6.6511564E-2,2.499327E-2,-5.811453E-2,6.0897775E-2,-5.0465174E-2,1.0666838E-2,-5.1590126E-2,-1.9506304E-2,-5.5434596E-2,4.380512E-2,-1.060922E-3,6.467925E-2,5.6206316E-2,-4.1403364E-2,1.3766875E-2,5.7487633E-2,1.2424616E-2,-3.2584034E-2,-6.9817066E-2,-2.8659642E-2,2.1704277E-2,2.1404667E-2,-1.2058969E-2,-4.8180252E-2,3.4288485E-2,8.790514E-3,-3.4379046E-2,5.3359337E-2,1.4092973E-3,-9.200833E-3,-6.0023274E-2,2.9977132E-2,-6.936266E-2,6.41405E-3,-5.011619E-2,-7.0257366E-2,-3.475469E-2,6.163325E-3,-5.651365E-2,-0E0,-5.3185817E-2],"split_indices":[7,0,10,7,7,0,0,0,0,5,0,3,0,7,5,3,5,0,6,5,0,3,0,0,3,7,0,0,0,3,0,10,7,0,0,0,3,5,5,0,0,5,5,0,0,6,0,0,3,7,0,0,5,5,0,7,0,6,6,0,6,0,0,0,0,0,0,0,0,3,5,5,0,0,3,0,0,0,3,3,5,3,5,0,0,0,0,0,0,5,5,3,6,6,6,5,7,0,3,0,0,0,0,0,5,0,0,0,0,0,0,0,0,0,0,0,0,0,0,0,0,0,0,0,0,0,0,0,0,0,0,0,0,0,0,0,0,0,0,0,0,0,0,0,0,0,0,0,0,0,0,0,0,0,0,0,0],"split_type":[0,0,1,0,0,0,0,0,0,0,0,1,0,0,0,1,0,0,0,0,0,1,0,0,1,0,0,0,0,1,0,1,0,0,0,0,1,0,0,0,0,0,0,0,0,0,0,0,1,0,0,0,0,0,0,0,0,0,0,0,0,0,0,0,0,0,0,0,0,1,0,0,0,0,1,0,0,0,1,1,0,1,0,0,0,0,0,0,0,0,0,1,0,0,0,0,0,0,1,0,0,0,0,0,0,0,0,0,0,0,0,0,0,0,0,0,0,0,0,0,0,0,0,0,0,0,0,0,0,0,0,0,0,0,0,0,0,0,0,0,0,0,0,0,0,0,0,0,0,0,0,0,0,0,0,0,0],"sum_hessian":[1.0459514E4,3.2435562E3,7.2159575E3,4.471854E3,2.7441035E3,3.7657646E3,7.060892E2,1.3604573E3,1.3836464E3,5.734057E2,3.192359E3,1.1530466E2,5.9078455E2,1.2027577E3,1.5769958E2,7.9063837E2,5.93008E2,5.648016E2,8.604092E0,8.284503E1,3.245962E1,3.1758752E2,2.7319702E2,5.921509E2,6.1060675E2,5.513972E1,1.0255986E2,6.8344824E2,1.07190125E2,1.6134459E2,4.3166342E2,5.492096E2,1.5591977E1,3.6819522E0,4.922139E0,7.0431175E1,1.2413859E1,1.6603086E1,1.5856535E1,2.7105685E2,4.653067E1,7.357309E1,1.9962395E2,5.3534314E2,5.6807735E1,6.016763E2,8.930466E0,2.799253E1,2.714719E1,3.5457623E1,6.710224E1,4.999401E2,1.8350812E2,5.164628E1,5.5543846E1,1.0605695E2,5.528764E1,8.377556E0,4.2328586E2,4.6351337E2,8.5696266E1,1.1789094E1,3.8028834E0,7.465498E0,4.948361E0,3.6770146E0,1.2926073E1,1.0796416E1,5.0601187E0,1.6244159E2,1.0861526E2,1.5908621E1,3.062205E1,1.6557734E1,5.7015358E1,2.7457052E1,1.7216689E2,2.9573367E2,2.396095E2,1.3562808E1,4.3244926E1,8.234691E0,5.934416E2,3.1304111E0,5.8000546E0,1.5805867E1,1.2186665E1,2.3538504E1,3.6086864E0,2.323255E1,1.2225071E1,3.2680963E2,1.7313046E2,1.0042866E2,8.307946E1,2.7791044E1,2.3855234E1,4.809908E1,7.444766E0,4.7032356E1,5.9024593E1,4.510796E0,3.8667593E0,4.1642337E2,6.8625126E0,2.6363977E1,5.9332287E1,5.7885605E1,1.04555984E2,9.063791E1,1.797735E1,6.076017E0,9.832603E0,3.2266384E1,2.4748974E1,1.3557735E1,1.3899317E1,2.852098E2,1.0523855E1,2.2580888E2,1.38006115E1,1.0249299E1,3.3135092E0,6.477084E0,3.676784E1,4.630985E0,3.6037054E0,1.598308E2,4.336108E2,1.24508E1,3.3550668E0,1.7088951E1,6.449552E0,8.747146E0,1.4485405E1,7.7985034E0,4.426568E0,1.7106418E2,1.5574545E2,1.6752148E2,5.608989E0,7.417313E1,2.6255533E1,7.421236E1,8.867102E0,1.2312289E1,1.5478756E1,1.8205717E1,5.6495166E0,4.2436666E0,3.2010996E0,2.0831062E1,2.6201294E1,3.567184E1,2.3352753E1,3.0089998E0,3.8535128E0],"tree_param":{"num_deleted":"0","num_feature":"11","num_nodes":"157","size_leaf_vector":"1"}},{"base_weights":[1.735333E-3,-7.2650366E-2,6.497985E-1,1.0821446E0,-1.3441285E-1,1.2796193E0,6.2429464E-1,7.030913E-2,-6.043154E-1,1.391526E0,-6.809791E-2,1.0363758E0,8.0760226E-2,-2.6395136E-1,-1.1444675E0,7.030613E-2,1.2939607E0,4.1808626E-1,-6.0204583E-1,1.0964589E0,-5.0628555E-1,4.081369E-1,-7.7582926E-1,-1.0540015E0,4.106687E-2,-9.5211434E-1,-6.848498E-2,1.1741512E0,6.8775944E-2,6.0308826E-1,9.292943E-2,-2.942016E-1,-9.9093574E-1,1.1601446E0,6.915109E-1,-5.302422E-2,3.6603075E-1,1.9679779E-1,1.0256065E0,-3.165166E-1,-1.3223196E0,-5.899601E-1,-1.4205251E0,9.631722E-1,-3.5674885E-1,-1.3425936E0,-7.278253E-1,6.342331E-2,7.614007E-2,3.230093E-2,1.4782284E-2,3.6888632E-1,-4.624028E-1,-1.2101475E-1,-4.261357E-2,-5.908826E-1,-1.1699646E0,1.0238029E0,1.3848286E0,7.909506E-3,1.1409283E0,-5.9675574E-3,5.012801E-2,4.294559E-1,-6.1586535E-1,1.1286738E0,-2.7317417E-1,-1.1101605E0,1.4551866E-1,-7.73105E-1,-7.780145E-2,-5.070758E-1,-6.7961276E-2,-4.6199414E-1,-7.268055E-2,1.0063564E0,-3.9616354E-2,-1.773788E-1,-1.3948214E0,-6.873244E-2,-1.712383E-2,-3.7587067E-1,-1.2340292E0,5.7452407E-2,-7.6086275E-2,3.2811623E-2,9.737096E-3,1.2928292E-2,-4.0435903E-2,1.0893745E-2,-1.2903747E-2,-7.3373066E-3,-4.4823706E-2,-6.106783E-2,-2.0743432E-2,5.229004E-2,-1.7640265E-2,7.035063E-2,4.1092493E-2,2.184656E-2,-4.8592787E-2,2.238956E-2,6.0713727E-2,3.6730614E-2,-1.0799725E-3,-3.7143797E-2,4.4248626E-2,5.949188E-2,1.0735322E-3,1.8217454E-2,-4.209585E-2,-6.462651E-2,-2.3489995E-2,2.4891762E-2,-3.9515927E-2,-1.1092099E-2,-7.322189E-2,-2.8192317E-2,8.5439375E-3,1.7281767E-2,-4.9159728E-2,5.2831423E-2,3.4471087E-2,6.6862376E-3,-3.149078E-2,-3.2730006E-2,-7.305708E-2,3.7052654E-2,-6.471547E-2,-3.0455617E-2,-6.458594E-2],"categories":[2,5,8,10,1,2,1,2,3,2,3,4,5,7,8,10,1,4,5,6,7,0,1,3,6,7,4,1,7,7,5,7,0,1,2,4,5,6,7,8,9,10,0,1,2,4,5,6,7,8,9,0,1,0,2,3,4,5,7,8,9,10,0,1,2,3,5,7,0,1,3,4,5,7,2,10],"categories_nodes":[2,3,4,9,22,30,31,32,41,43,44,51,52,53,63,65,75,81,82],"categories_segments":[0,4,6,9,16,21,26,27,28,29,30,32,42,51,53,62,68,74,75],"categories_sizes":[4,2,3,7,5,5,1,1,1,1,2,10,9,2,9,6,6,1,1],"default_left":[0,0,1,1,1,0,0,0,1,1,1,1,0,0,0,0,0,1,0,1,0,0,1,0,0,0,0,0,0,0,1,1,1,1,0,0,0,0,0,0,0,1,0,1,1,0,0,0,0,0,0,1,1,1,0,0,0,1,0,0,0,0,0,1,0,1,0,1,0,0,0,1,0,0,0,1,0,0,0,0,0,1,1,0,0,0,0,0,0,0,0,0,0,0,0,0,0,0,0,0,0,0,0,0,0,0,0,0,0,0,0,0,0,0,0,0,0,0,0,0,0,0,0,0,0,0,0,0,0,0,0],"id":10,"left_children":[1,-1,3,5,7,9,11,-1,13,15,17,19,21,23,25,-1,27,29,31,33,35,37,39,41,43,45,-1,47,-1,49,51,53,55,57,59,-1,61,63,65,67,69,71,73,75,77,79,81,-1,83,-1,-1,85,87,89,-1,91,93,95,97,99,101,-1,-1,103,105,107,109,111,113,115,-1,117,-1,119,-1,121,-1,123,125,-1,-1,127,129,-1,-1,-1,-1,-1,-1,-1,-1,-1,-1,-1,-1,-1,-1,-1,-1,-1,-1,-1,-1,-1,-1,-1,-1,-1,-1,-1,-1,-1,-1,-1,-1,-1,-1,-1,-1,-1,-1,-1,-1,-1,-1,-1,-1,-1,-1,-1,-1],"loss_changes":[9.690567E3,0E0,2.4114214E3,4.126919E2,1.8323557E3,4.8305908E2,3.1003882E2,0E0,3.55787E2,3.0029297E-1,6.470353E1,7.418457E1,1.687736E2,2.875221E2,2.960559E1,0E0,5.270386E-1,7.6677837E0,1.3504601E1,1.7782349E1,1.57534685E1,5.6276817E1,4.077507E1,5.4638367E1,3.1698117E2,3.381125E1,0E0,1.8360367E1,0E0,6.1416435E-1,7.9758043E0,6.3912144E0,2.128296E0,1.691571E1,3.313883E1,0E0,4.4667063E0,6.2315674E1,1.5480331E1,3.4579586E1,7.023102E0,8.010139E0,4.304077E0,2.1359985E1,1.1174425E2,3.6097107E0,4.6198395E1,0E0,3.1722925E1,0E0,0E0,1.3884101E0,4.7991095E0,2.6865048E0,0E0,2.3645349E0,1.17176056E-1,1.3347351E1,4.6826172E-1,1.9736069E1,2.0630112E0,0E0,0E0,3.5257618E1,1.5307848E1,6.7855988E0,4.1622877E0,2.6487236E0,2.0727621E1,9.30864E0,0E0,5.5770645E0,0E0,4.605713E0,0E0,2.4333496E0,0E0,7.2998474E1,2.2231598E0,0E0,0E0,1.6564944E2,2.1248932E0,0E0,0E0,0E0,0E0,0E0,0E0,0E0,0E0,0E0,0E0,0E0,0E0,0E0,0E0,0E0,0E0,0E0,0E0,0E0,0E0,0E0,0E0,0E0,0E0,0E0,0E0,0E0,0E0,0E0,0E0,0E0,0E0,0E0,0E0,0E0,0E0,0E0,0E0,0E0,0E0,0E0,0E0,0E0,0E0,0E0,0E0,0E0,0E0],"parents":[2147483647,0,0,2,2,3,3,4,4,5,5,6,6,8,8,9,9,10,10,11,11,12,12,13,13,14,14,16,16,17,17,18,18,19,19,20,20,21,21,22,22,23,23,24,24,25,25,27,27,29,29,30,30,31,31,32,32,33,33,34,34,36,36,37,37,38,38,39,39,40,40,41,41,42,42,43,43,44,44,45,45,46,46,48,48,51,51,52,52,53,53,55,55,56,56,57,57,58,58,59,59,60,60,63,63,64,64,65,65,66,66,67,67,68,68,69,69,71,71,73,73,75,75,77,77,78,78,81,81,82,82],"right_children":[2,-1,4,6,8,10,12,-1,14,16,18,20,22,24,26,-1,28,30,32,34,36,38,40,42,44,46,-1,48,-1,50,52,54,56,58,60,-1,62,64,66,68,70,72,74,76,78,80,82,-1,84,-1,-1,86,88,90,-1,92,94,96,98,100,102,-1,-1,104,106,108,110,112,114,116,-1,118,-1,120,-1,122,-1,124,126,-1,-1,128,130,-1,-1,-1,-1,-1,-1,-1,-1,-1,-1,-1,-1,-1,-1,-1,-1,-1,-1,-1,-1,-1,-1,-1,-1,-1,-1,-1,-1,-1,-1,-1,-1,-1,-1,-1,-1,-1,-1,-1,-1,-1,-1,-1,-1,-1,-1,-1,-1],"split_conditions":[5.02E0,-7.2650366E-2,1E-45,1E-45,1E-45,5.288E1,1.417E1,7.030913E-2,1.2175E2,1E-45,6.858E1,1.4097E2,9.411E1,5.866E1,1.8811E2,7.030613E-2,1.542E1,2.901E1,1.1433E2,9.411E1,1.284E1,8.675E1,1E-45,1.284E1,1.417E1,5.866E1,-6.848498E-2,1.169E1,6.8775944E-2,1.6702671E1,1E-45,1E-45,1E-45,8.561E1,1.284E1,-5.302422E-2,1.925657E1,5.908E1,1.732171E1,2.039E1,1.0054E2,1E-45,1.471E1,1E-45,1E-45,2.0674921E1,5.288E1,6.342331E-2,7.192E1,3.230093E-2,1.4782284E-2,1E-45,1E-45,1E-45,-4.261357E-2,1.6044E2,2.0073544E1,8.04E1,9.301E1,1.1199E2,1.3153028E0,-5.9675574E-3,5.012801E-2,1E-45,5.8833222E0,1E-45,2.039E1,1.6443E2,1.5582E2,2.039E1,-7.780145E-2,5.3423343E0,-6.7961276E-2,1.0986123E0,-7.268055E-2,1E-45,-3.9616354E-2,5.288E1,1.976E1,-6.873244E-2,-1.712383E-2,1E-45,1E-45,5.7452407E-2,-7.6086275E-2,3.2811623E-2,9.737096E-3,1.2928292E-2,-4.0435903E-2,1.0893745E-2,-1.2903747E-2,-7.3373066E-3,-4.4823706E-2,-6.106783E-2,-2.0743432E-2,5.229004E-2,-1.7640265E-2,7.035063E-2,4.1092493E-2,2.184656E-2,-4.8592787E-2,2.238956E-2,6.0713727E-2,3.6730614E-2,-1.0799725E-3,-3.7143797E-2,4.4248626E-2,5.949188E-2,1.0735322E-3,1.8217454E-2,-4.209585E-2,-6.462651E-2,-2.3489995E-2,2.4891762E-2,-3.9515927E-2,-1.1092099E-2,-7.322189E-2,-2.8192317E-2,8.5439375E-3,1.7281767E-2,-4.9159728E-2,5.2831423E-2,3.4471087E-2,6.6862376E-3,-3.149078E-2,-3.2730006E-2,-7.305708E-2,3.7052654E-2,-6.471547E-2,-3.0455617E-2,-6.458594E-2],"split_indices":[7,0,4,10,10,7,7,0,0,4,0,0,0,9,0,0,0,0,0,0,7,0,3,7,7,9,0,0,0,6,3,3,4,0,7,0,6,0,6,7,0,3,0,3,3,6,7,0,9,0,0,4,4,4,0,0,6,0,0,0,6,0,0,4,2,3,7,0,0,7,0,2,0,2,0,3,0,7,0,0,0,10,4,0,0,0,0,0,0,0,0,0,0,0,0,0,0,0,0,0,0,0,0,0,0,0,0,0,0,0,0,0,0,0,0,0,0,0,0,0,0,0,0,0,0,0,0,0,0,0,0],"split_type":[0,0,1,1,1,0,0,0,0,1,0,0,0,0,0,0,0,0,0,0,0,0,1,0,0,0,0,0,0,0,1,1,1,0,0,0,0,0,0,0,0,1,0,1,1,0,0,0,0,0,0,1,1,1,0,0,0,0,0,0,0,0,0,1,0,1,0,0,0,0,0,0,0,0,0,1,0,0,0,0,0,1,1,0,0,0,0,0,0,0,0,0,0,0,0,0,0,0,0,0,0,0,0,0,0,0,0,0,0,0,0,0,0,0,0,0,0,0,0,0,0,0,0,0,0,0,0,0,0,0,0],"sum_hessian":[1.0274961E4,3.1658247E3,7.109136E3,4.5822495E3,2.526887E3,3.198779E3,1.3834702E3,5.8961414E2,1.9372727E3,2.9535432E3,2.4523595E2,7.857533E2,5.977169E2,1.1903588E3,7.4691394E2,2.5449502E3,4.085931E2,1.2848822E2,1.16747734E2,7.5691644E2,2.8836887E1,4.3328513E2,1.644318E2,3.3028366E2,8.6007513E2,4.087396E2,3.3817435E2,1.7845735E2,2.3013574E2,8.060815E1,4.7880066E1,6.726841E1,4.9479324E1,6.506178E2,1.0629862E2,1.7440088E1,1.1396798E1,3.248867E2,1.0839844E2,9.115741E1,7.327438E1,1.4817593E2,1.8210771E2,2.5844022E2,6.0163495E2,1.4532178E2,2.6341782E2,1.6397128E2,1.4486079E1,6.851334E1,1.2094802E1,3.2554543E1,1.5325525E1,5.3330986E1,1.3937427E1,1.8128778E1,3.1350546E1,4.1210468E2,2.385131E2,4.30594E1,6.3239227E1,7.298931E0,4.097867E0,2.5340521E2,7.1481476E1,1.00742744E2,7.6556945E0,3.2589287E1,5.856812E1,2.4572683E1,4.87017E1,1.3687654E2,1.1299401E1,7.1754947E0,1.7493222E2,2.53124E2,5.3162327E0,5.150728E2,8.6562096E1,1.3998604E2,5.3357353E0,1.5755515E2,1.0586268E2,9.040242E0,5.445836E0,9.978568E0,2.2575974E1,5.0436087E0,1.0281917E1,1.48081255E1,3.8522858E1,8.729401E0,9.399379E0,2.8072517E1,3.278029E0,4.0616745E2,5.937236E0,2.2641519E2,1.2097916E1,3.0788025E1,1.2271372E1,7.5417576E0,5.569747E1,1.5053015E2,1.0287505E2,6.689691E1,4.584566E0,9.524184E1,5.5009055E0,3.8655725E0,3.790122E0,2.3658491E1,8.930797E0,4.330712E1,1.5261001E1,1.5221563E1,9.351121E0,1.2674711E2,1.0129429E1,3.0033948E0,4.1720996E0,2.1416917E2,3.8954826E1,3.0591092E2,2.0916193E2,9.029486E0,7.753261E1,7.122049E1,8.6334656E1,1.1047032E1,9.481564E1],"tree_param":{"num_deleted":"0","num_feature":"11","num_nodes":"131","size_leaf_vector":"1"}},{"base_weights":[-1.8354265E-3,-7.1059465E-2,6.299006E-1,1.0580195E0,-1.4215846E-1,1.2565131E0,6.0844004E-1,6.891944E-2,-5.81516E-1,6.8483725E-2,-5.9190083E-2,1.0191082E0,8.007849E-2,-2.4360248E-1,-1.1258216E0,3.9925268E-1,-5.676238E-1,1.0862764E0,-2.584653E-1,3.9050424E-1,-7.7707344E-1,-1.0029353E0,4.873356E-2,-9.035598E-1,-1.343296E0,4.8373696E-1,-3.6797445E-2,-2.933457E-1,-9.597178E-1,1.1922693E0,7.694374E-1,-5.1126964E-2,5.6984985E-1,5.3499967E-1,-5.680028E-1,5.5636287E-1,-8.906617E-1,-5.8246255E-1,-1.3412505E0,9.188099E-1,-3.212019E-1,-6.583656E-1,-1.3055197E0,-6.9017015E-2,-1.0911766E0,5.4604614E-1,-1.775996E-2,-3.7744266E-1,1.09895445E-1,-6.12168E-1,-6.0995568E-2,1.2347807E0,6.9954103E-1,4.002481E-1,5.7149317E-2,6.1455406E-2,-1.4433245E-1,3.224738E-1,1.0913815E0,-5.385442E-2,-1.180098E0,7.029999E-2,-2.5633452E-2,-3.9153558E-1,-1.2668775E0,-2.558242E-1,-5.68882E-2,-5.2552485E-1,-6.849062E-2,1.017593E0,4.535632E-1,-3.1685818E-2,-8.7038696E-1,-1.8933956E-1,-1.0209593E0,-1.0929706E0,-7.137497E-2,2.7863744E-1,-6.905969E-2,3.41051E-2,1.9559175E-2,2.3601218E-3,-2.4492288E-2,-1.5023089E-2,2.229084E-2,5.098997E-3,-3.756134E-2,6.565492E-2,4.8724037E-2,1.3230519E-2,5.0193023E-2,3.0440006E-2,-3.1810742E-2,2.093474E-2,-4.5660123E-2,2.4523204E-2,-2.4157032E-2,-0E0,5.9975255E-2,4.5093875E-2,-1.884802E-2,-7.112821E-2,-5.9476583E-3,-3.7596337E-2,9.862821E-3,-3.400719E-2,-6.7031644E-2,-3.2250952E-2,-5.1362114E-3,7.204211E-3,-5.175475E-2,6.1924525E-2,4.5578875E-2,2.9100005E-2,-1.1841484E-2,2.1524912E-2,-1.311212E-2,-5.074882E-2,-1.2028789E-2,3.515767E-2,-2.588338E-2,-2.0923955E-2,-6.0886215E-2,-2.309727E-2,-6.1537445E-2,-4.5717467E-2,5.3754974E-2],"categories":[2,5,8,10,1,2,1,2,3,0,1,3,9,0,1,2,4,5,6,7,8,9,10,0,1,2,4,5,6,9,0,2,3,4,5,6,7,8,9,10],"categories_nodes":[2,3,4,20,45,49,51],"categories_segments":[0,4,6,9,13,23,30],"categories_sizes":[4,2,3,4,10,7,10],"default_left":[0,0,1,1,1,0,0,0,1,0,1,1,0,0,0,1,0,1,0,0,1,0,0,0,0,0,0,0,0,1,0,0,0,0,0,0,0,0,0,1,1,0,0,0,0,1,0,0,0,1,0,1,0,0,0,0,0,0,0,0,0,0,0,0,0,0,0,0,0,0,0,0,0,0,0,0,0,0,0,0,0,0,0,0,0,0,0,0,0,0,0,0,0,0,0,0,0,0,0,0,0,0,0,0,0,0,0,0,0,0,0,0,0,0,0,0,0,0,0,0,0,0,0,0,0,0,0],"id":11,"left_children":[1,-1,3,5,7,9,11,-1,13,-1,15,17,19,21,23,25,27,29,31,33,35,37,39,41,43,45,-1,47,49,51,53,-1,55,57,59,61,63,65,67,69,71,73,75,-1,77,79,-1,81,83,85,-1,87,89,91,-1,-1,93,95,97,99,101,-1,-1,103,105,107,-1,109,-1,111,113,115,117,119,121,123,-1,125,-1,-1,-1,-1,-1,-1,-1,-1,-1,-1,-1,-1,-1,-1,-1,-1,-1,-1,-1,-1,-1,-1,-1,-1,-1,-1,-1,-1,-1,-1,-1,-1,-1,-1,-1,-1,-1,-1,-1,-1,-1,-1,-1,-1,-1,-1,-1,-1,-1],"loss_changes":[8.958755E3,0E0,2.2856523E3,3.9521045E2,1.6502675E3,4.5939502E2,2.9619983E2,0E0,3.5174945E2,0E0,5.7822563E1,6.659332E1,1.6017154E2,2.6321362E2,3.2791504E1,1.3198711E1,1.1958233E1,2.2504517E1,2.6480978E1,6.1789154E1,2.5267677E1,4.512491E1,2.766E2,3.4450775E1,1.6149902E-1,6.8215446E0,0E0,2.5589294E0,2.6070595E0,9.465088E0,2.4998169E1,0E0,1.0058891E1,4.468109E1,1.8239136E1,1.3998415E1,2.6696152E1,2.6595222E1,2.5866394E0,1.0712067E1,9.572417E1,3.9180794E1,1.9532776E-1,0E0,2.3451965E1,1.7847366E0,0E0,2.9742975E0,2.185711E0,2.647276E0,0E0,7.356262E0,5.6916904E0,2.2014875E1,0E0,0E0,5.7922735E0,3.858053E1,1.2493164E1,1.1162274E1,6.3608093E0,0E0,0E0,1.4518647E1,1.5908356E0,5.6034155E0,0E0,3.6237295E0,0E0,2.4375E0,4.627206E0,4.2514843E1,1.8322388E1,3.1280575E1,1.435202E1,3.8241272E0,0E0,1.2939088E1,0E0,0E0,0E0,0E0,0E0,0E0,0E0,0E0,0E0,0E0,0E0,0E0,0E0,0E0,0E0,0E0,0E0,0E0,0E0,0E0,0E0,0E0,0E0,0E0,0E0,0E0,0E0,0E0,0E0,0E0,0E0,0E0,0E0,0E0,0E0,0E0,0E0,0E0,0E0,0E0,0E0,0E0,0E0,0E0,0E0,0E0,0E0,0E0,0E0],"parents":[2147483647,0,0,2,2,3,3,4,4,5,5,6,6,8,8,10,10,11,11,12,12,13,13,14,14,15,15,16,16,17,17,18,18,19,19,20,20,21,21,22,22,23,23,24,24,25,25,27,27,28,28,29,29,30,30,32,32,33,33,34,34,35,35,36,36,37,37,38,38,39,39,40,40,41,41,42,42,44,44,45,45,47,47,48,48,49,49,51,51,52,52,53,53,56,56,57,57,58,58,59,59,60,60,63,63,64,64,65,65,67,67,69,69,70,70,71,71,72,72,73,73,74,74,75,75,77,77],"right_children":[2,-1,4,6,8,10,12,-1,14,-1,16,18,20,22,24,26,28,30,32,34,36,38,40,42,44,46,-1,48,50,52,54,-1,56,58,60,62,64,66,68,70,72,74,76,-1,78,80,-1,82,84,86,-1,88,90,92,-1,-1,94,96,98,100,102,-1,-1,104,106,108,-1,110,-1,112,114,116,118,120,122,124,-1,126,-1,-1,-1,-1,-1,-1,-1,-1,-1,-1,-1,-1,-1,-1,-1,-1,-1,-1,-1,-1,-1,-1,-1,-1,-1,-1,-1,-1,-1,-1,-1,-1,-1,-1,-1,-1,-1,-1,-1,-1,-1,-1,-1,-1,-1,-1,-1,-1,-1],"split_conditions":[5.02E0,-7.1059465E-2,1E-45,1E-45,1E-45,5.288E1,1.417E1,6.891944E-2,1.2175E2,6.8483725E-2,6.858E1,1.3225E2,9.411E1,5.866E1,6.008275E0,4.882886E0,1.1963E2,1.578409E0,1.284E1,2.7168944E0,1E-45,1.284E1,1.417E1,1.8811E2,2.4375808E3,1.2955693E3,-3.6797445E-2,1.7317043E3,2.8460498E2,9.411E1,1.284E1,-5.1126964E-2,2.5766988E0,8.704E1,5.767E1,1.5582E2,1.8248288E2,4.1925135E0,2.612227E-1,5.5519576E0,4.7508764E0,5.307542E2,2.2847319E2,-6.9017015E-2,2.5180352E3,1E-45,-1.775996E-2,8.485281E1,5.658534E-1,1E-45,-6.0995568E-2,1E-45,1.284E1,4.066072E0,5.7149317E-2,6.1455406E-2,1.08166534E2,6.114E1,5.307542E2,9E1,1.4340502E3,7.029999E-2,-2.5633452E-2,3.0395076E0,9.738E1,3.624914E2,-5.68882E-2,8.4852814E2,-6.849062E-2,3.624914E2,2.3025851E0,2.6832816E2,1.3606248E3,1.8681545E0,1.417E1,1.417E1,-7.137497E-2,3.1537E2,-6.905969E-2,3.41051E-2,1.9559175E-2,2.3601218E-3,-2.4492288E-2,-1.5023089E-2,2.229084E-2,5.098997E-3,-3.756134E-2,6.565492E-2,4.8724037E-2,1.3230519E-2,5.0193023E-2,3.0440006E-2,-3.1810742E-2,2.093474E-2,-4.5660123E-2,2.4523204E-2,-2.4157032E-2,-0E0,5.9975255E-2,4.5093875E-2,-1.884802E-2,-7.112821E-2,-5.9476583E-3,-3.7596337E-2,9.862821E-3,-3.400719E-2,-6.7031644E-2,-3.2250952E-2,-5.1362114E-3,7.204211E-3,-5.175475E-2,6.1924525E-2,4.5578875E-2,2.9100005E-2,-1.1841484E-2,2.1524912E-2,-1.311212E-2,-5.074882E-2,-1.2028789E-2,3.515767E-2,-2.588338E-2,-2.0923955E-2,-6.0886215E-2,-2.309727E-2,-6.1537445E-2,-4.5717467E-2,5.3754974E-2],"split_indices":[7,0,4,10,10,7,7,0,0,0,0,0,0,9,1,1,0,1,7,1,4,7,7,0,5,5,0,5,5,0,7,0,1,0,0,0,5,1,1,1,1,5,5,0,5,4,0,5,1,4,0,4,7,1,0,0,5,0,5,5,5,0,0,1,0,5,0,5,0,5,2,5,5,1,7,7,0,0,0,0,0,0,0,0,0,0,0,0,0,0,0,0,0,0,0,0,0,0,0,0,0,0,0,0,0,0,0,0,0,0,0,0,0,0,0,0,0,0,0,0,0,0,0,0,0,0,0],"split_type":[0,0,1,1,1,0,0,0,0,0,0,0,0,0,0,0,0,0,0,0,1,0,0,0,0,0,0,0,0,0,0,0,0,0,0,0,0,0,0,0,0,0,0,0,0,1,0,0,0,1,0,1,0,0,0,0,0,0,0,0,0,0,0,0,0,0,0,0,0,0,0,0,0,0,0,0,0,0,0,0,0,0,0,0,0,0,0,0,0,0,0,0,0,0,0,0,0,0,0,0,0,0,0,0,0,0,0,0,0,0,0,0,0,0,0,0,0,0,0,0,0,0,0,0,0,0,0],"sum_hessian":[9.987199E3,3.0753381E3,6.9118613E3,4.4459185E3,2.465943E3,3.0815654E3,1.3643529E3,5.517883E2,1.9141548E3,2.8375103E3,2.4405527E2,7.665254E2,5.9782745E2,1.1828817E3,7.31273E2,1.2845932E2,1.15595955E2,7.285972E2,3.7928204E1,4.3976712E2,1.5806035E2,3.2755347E2,8.5532825E2,3.669821E2,3.6429092E2,1.2071153E2,7.747786E0,7.0224075E1,4.5371887E1,5.415797E2,1.870175E2,1.9548021E1,1.838018E1,3.8301538E2,5.6751755E1,1.172631E1,1.4633405E2,1.4860263E2,1.7895082E2,2.5436734E2,6.0096094E2,2.3137106E2,1.3561104E2,3.0947308E2,5.4817844E1,1.13126854E2,7.5846744E0,5.8417004E1,1.1807068E1,2.2460457E1,2.2911428E1,4.9560522E2,4.5974487E1,9.627589E1,9.074162E1,8.88058E0,9.4996E0,2.7956607E2,1.03449295E2,3.2115055E1,2.4636698E1,6.23446E0,5.49185E0,6.476175E1,8.1572296E1,9.551844E1,5.30842E1,7.4848332E0,1.7146599E2,2.0768202E2,4.668531E1,3.9501617E2,2.0594476E2,1.0232748E2,1.2904358E2,5.701059E1,7.860045E1,9.531617E0,4.528623E1,5.6251644E1,5.6875214E1,1.2283171E1,4.6133835E1,5.2757316E0,6.531336E0,3.6303985E0,1.883006E1,3.744649E2,1.211403E2,2.0600325E1,2.5374165E1,8.091607E1,1.5359819E1,5.9346232E0,3.5649774E0,2.3207854E2,4.748754E1,9.470661E0,9.397863E1,7.1307116E0,2.4984344E1,1.9423178E1,5.2135196E0,3.9934265E1,2.4827484E1,1.1543261E1,7.002903E1,2.4968029E1,7.055041E1,3.769588E0,3.7152452E0,6.0115616E1,1.475664E2,3.97494E1,6.93591E0,1.3074692E2,2.6426926E2,1.6636864E2,3.957612E1,2.682402E1,7.5503456E1,3.3433735E1,9.560985E1,1.1907167E1,4.5103424E1,3.6471388E0,5.884478E0],"tree_param":{"num_deleted":"0","num_feature":"11","num_nodes":"127","size_leaf_vector":"1"}},{"base_weights":[-4.0394445E-3,-6.961119E-2,6.1182255E-1,1.0292739E0,-1.2523773E-1,1.0947163E0,-6.4569354E-2,6.258714E-1,-6.207307E-1,1.0097121E0,6.7079596E-2,3.6011356E-1,-5.6962997E-1,6.711935E-2,4.1356555E-1,-2.572863E-1,-1.1052418E0,1.1021645E0,8.949357E-2,5.5849427E-1,4.727193E-2,-2.8235778E-1,-9.163156E-1,-7.8981745E-1,9.64315E-1,-1.297201E0,-7.218776E-3,-1.2915804E0,-8.117512E-1,6.7289636E-2,9.8617303E-1,6.3140696E-1,-3.4621674E-1,3.6001224E-2,4.4911253E-1,5.536909E-1,-1.9263196E-1,-3.6969808E-1,1.3230607E-1,-5.4225916E-1,-5.805547E-2,-4.9567038E-1,-1.2525007E0,7.046072E-1,6.712053E-2,-3.6840475E-1,-6.661151E-2,6.6577524E-2,-2.6057097E-1,-1.1124091E0,-6.998378E-2,7.668685E-2,-1.2417787E0,5.564844E-1,1.2660078E0,1.0154139E0,2.42579E-1,-2.2494404E-2,-8.5416645E-1,1.3969345E-1,5.669204E-1,3.778964E-2,3.0649063E-1,2.778357E-1,-5.216381E-1,-5.4363996E-1,-4.4239853E-2,-1.8798387E-2,2.4791878E-2,-3.1933726E-3,-3.7292987E-2,-8.961367E-1,-3.1094286E-1,-6.485962E-2,-8.658514E-3,8.963711E-1,-6.721112E-1,1.199372E-2,-4.1855928E-2,1.9465908E-2,-6.6852236E-1,-7.7991813E-1,-6.584318E-2,-9.363406E-1,-6.6319704E-2,3.946214E-2,-5.16934E-2,5.6849E-2,6.570142E-2,3.632469E-2,7.396096E-2,2.8704429E-2,-1.0332749E-2,-1.5151885E-2,3.124467E-2,-1.1063079E-2,-6.603877E-2,1.0517004E-2,-2.7192286E-3,3.2004394E-2,9.321597E-3,-2.2437812E-3,2.8152732E-2,-1.7292401E-3,2.2774054E-2,-3.396522E-2,-9.017072E-3,-3.58555E-2,-1.5346599E-2,2.29187E-2,-1.48942275E-2,-2.2495203E-2,-5.2016538E-2,-1.9347543E-2,2.0610876E-2,4.6172887E-2,9.278907E-3,1.23638855E-2,-5.9952136E-2,-3.1447265E-2,7.771259E-2,1.5815103E-2,-3.9750442E-2,-5.2221417E-2,-7.4771442E-3,3.854797E-3,-5.590536E-2],"categories":[2,5,8,10,0,1,9,0,1,2,4,5,6,7,8,9,10],"categories_nodes":[2,18,20,83],"categories_segments":[0,4,7,16],"categories_sizes":[4,3,9,1],"default_left":[0,0,1,0,0,0,1,0,1,0,0,1,0,0,0,0,0,0,1,1,1,0,0,1,0,0,0,0,0,0,0,0,0,0,0,0,0,0,0,0,0,0,0,1,0,0,0,0,0,0,0,0,0,0,0,0,0,0,0,0,0,0,0,0,0,0,0,0,0,0,0,1,0,0,0,1,0,0,0,0,0,0,0,1,0,0,0,0,0,0,0,0,0,0,0,0,0,0,0,0,0,0,0,0,0,0,0,0,0,0,0,0,0,0,0,0,0,0,0,0,0,0,0,0,0,0,0],"id":12,"left_children":[1,-1,3,5,7,9,11,13,15,17,-1,19,21,-1,23,25,27,29,31,33,35,37,39,41,43,45,47,49,51,-1,53,55,57,-1,59,61,63,65,67,69,-1,71,73,75,-1,77,-1,-1,79,81,-1,-1,83,85,87,89,91,93,95,97,99,-1,101,103,105,107,109,-1,-1,-1,-1,111,113,-1,-1,115,117,-1,-1,119,121,123,-1,125,-1,-1,-1,-1,-1,-1,-1,-1,-1,-1,-1,-1,-1,-1,-1,-1,-1,-1,-1,-1,-1,-1,-1,-1,-1,-1,-1,-1,-1,-1,-1,-1,-1,-1,-1,-1,-1,-1,-1,-1,-1,-1,-1],"loss_changes":[8.314785E3,0E0,2.0731697E3,3.0813965E2,9.0797754E2,8.222656E1,5.289717E1,1.4624075E2,2.5811658E2,2.572478E2,0E0,8.202568E0,1.057811E1,0E0,4.993594E2,2.1895525E2,3.210565E1,7.484619E1,6.626402E1,6.783943E-1,6.8558407E0,2.4623227E0,3.1469994E0,3.0821579E1,4.8596527E1,4.159424E0,2.3167299E2,4.01947E0,2.5589319E2,0E0,2.2341809E2,1.8046856E1,2.5469774E1,0E0,1.7520666E0,3.3623934E-1,6.234481E0,2.956502E0,2.6979158E0,2.1306539E0,0E0,1.0289433E1,3.774994E0,8.3175674E1,0E0,2.9705968E0,0E0,0E0,6.573726E1,8.175751E0,0E0,0E0,2.778473E0,2.7617932E2,3.7780762E0,5.956642E0,9.935004E0,1.8008156E1,1.7103058E1,2.8355294E-1,7.497759E-1,0E0,1.1608558E0,1.0126503E0,9.2431545E-1,8.899517E-1,2.9629283E0,0E0,0E0,0E0,0E0,1.8467674E0,6.0708036E0,0E0,0E0,4.8096466E0,1.959622E1,0E0,0E0,3.42925E2,2.9711533E1,1.016732E1,0E0,1.0063114E1,0E0,0E0,0E0,0E0,0E0,0E0,0E0,0E0,0E0,0E0,0E0,0E0,0E0,0E0,0E0,0E0,0E0,0E0,0E0,0E0,0E0,0E0,0E0,0E0,0E0,0E0,0E0,0E0,0E0,0E0,0E0,0E0,0E0,0E0,0E0,0E0,0E0,0E0,0E0,0E0,0E0,0E0,0E0],"parents":[2147483647,0,0,2,2,3,3,4,4,5,5,6,6,7,7,8,8,9,9,11,11,12,12,14,14,15,15,16,16,17,17,18,18,19,19,20,20,21,21,22,22,23,23,24,24,25,25,26,26,27,27,28,28,30,30,31,31,32,32,34,34,35,35,36,36,37,37,38,38,39,39,41,41,42,42,43,43,45,45,48,48,49,49,52,52,53,53,54,54,55,55,56,56,57,57,58,58,59,59,60,60,62,62,63,63,64,64,65,65,66,66,71,71,72,72,75,75,76,76,79,79,80,80,81,81,83,83],"right_children":[2,-1,4,6,8,10,12,14,16,18,-1,20,22,-1,24,26,28,30,32,34,36,38,40,42,44,46,48,50,52,-1,54,56,58,-1,60,62,64,66,68,70,-1,72,74,76,-1,78,-1,-1,80,82,-1,-1,84,86,88,90,92,94,96,98,100,-1,102,104,106,108,110,-1,-1,-1,-1,112,114,-1,-1,116,118,-1,-1,120,122,124,-1,126,-1,-1,-1,-1,-1,-1,-1,-1,-1,-1,-1,-1,-1,-1,-1,-1,-1,-1,-1,-1,-1,-1,-1,-1,-1,-1,